0
0.34565883162528716
-3.002802320724858
-0.5052524118641747
0.2254939224429172
-0.4450066136439548
0.2944404043665966
-0.4957036340199036
0.8349748135748873
-0.6046732624837187
1.3458076930123701
1.06341238253933
-0.9243800831793364
-0.0565409399003538
0.6471679924042164
1.3337598591465807
-1.2347298722137567
-1.9259818868903837
-1.1914130217540366
0.06360346388643916
0.13233526630071615
-0.8417267022172945
-0.11428884987861615
0.2218349370630477
0.1664351534081635
0.734635884305246
0.3160546847666615
-0.24844780976242584
0.32349030187800343
-1.141086203170038
0.12770530264038912
0.5561636923198556
0.275171376483278
-1.4494666053238132
0.6498517050575876
1.1192178710089695
-1.049738895070868
0.6627138716759289
0.5342424331201774
0.577740591596199
-0.24831683418264497
0.3310284568544059
-0.6320592599092049
0.17265215593501917
0.05679968033730586
-0.43745310623032957
-0.7227067518442092
-0.8728943390912569
0.12075293351112144
0.5636856562329876
-0.5429992769211011
-0.6817395098852105
-0.5067350300969853
-0.9587299854560908
-0.38780331730261186
-0.7258362329252659
-0.6134704157246026
0.37172538183165016
-0.46518167778921776
-0.19057757660620675
-0.7594183831728908
-0.8660622185108462
-0.12724444773244645
0.2184902065472308
0.525609971236397
-1.080114295309687
-2.8089085997612058
-0.8349931013208888
-0.05415506510165475
-1.6113389944181193
-0.21292128872605529
-0.7601944162899756
-1.0924571745833225
-0.8274991720027914
0.3989478275192602
1.7147331169975333
-0.9182398794524742
-0.09530568977900947
-0.880345422039026
0.2542340071173713
-0.6485583573251766
0.42101086323130094
-0.0948159367706715
-2.0243320269596228
-0.47222911943678775
-0.8544462646437582
1.4823772836192484
-0.662436733643223
-0.2570853258758108
-1.0673462847073543
-0.40752607611605945
0.4476289200446003
-1.7250042529343967
-0.26540642541037185
-1.527561990811111
-0.25400236366302187
-0.008919766829500507
-1.7934540930687919
0.35860574541423
-0.16225092789291143
1.0618597942597532
-0.7756112070564376
1.0397722863227448
-1.4175875348823221
-1.1508357318111995
-0.5882877951433487
-1.3243265174580119
-1.1839243990718054
-0.4711531267802806
-0.3504219905329123
0.5822741984408478
-0.4656720100846319
0.912284269973667
-1.224569269023235
-0.5955200889406982
0.4947307149904652
-1.0640846345473083
-1.2656063631997676
0.36180734081225835
0.024236957482134426
1.0707764394246164
0.15673511538406357
0.09578351175503577
0.23678302433578183
-0.9343884199977704
-1.3198906191630058
-0.2871954284144125
0.5404193147400519
0.22755985226841588
0.08176058059220309
-1.0948589014579972
-1.093024303247142
0.507739131213401
-0.2680353330894013
0.6047046255308479
0.40513744246045286
0.7175505694126738
-0.14385460365170172
-0.3793423089512518
-0.8609541497035946
0.6724852509192614
-0.7133215712971921
-1.8049552122546269
-2.869419963967618
0.7355407037304826
-1.3458903896466958
-1.5233842131136595
0.0074535595623494415
-0.9561856129723946
1.3775590667687145
0.7191151696200522
-1.3147236542338354
-0.5143165902254604
0.883412673473149
-1.5716397028273612
-0.5122144587711451
-1.1088702058550388
-0.026926722717100587
0.9617496804885376
1.299623415212302
0.11751307836735381
-0.6045941094531957
-1.3610200242970296
0.7473019461669544
0.39582942208503213
0.5767234428052074
0.8261849396917376
-0.5062610133841394
0.03515774431025531
0.11929558292863421
-1.5678712623104918
0.9655553775022077
-1.1658367024287257
0.7317681038353033
0.0068075523629942455
0.5257221372384615
-0.33660568451131745
0.2824842793436979
-1.3178606687384555
0.04183294874093449
-0.6603773654413683
0.7643496185115024
0.07128278360967837
-0.9416176792670083
-0.8432028301372473
-0.9275661054035036
0.8471799275097107
0.3872703046949336
1.738033015869413
-0.8360718454849566
0.5798551501852192
0.182166972551068
-3.084630696565048
-0.3330359537069939
-1.1111361665605697
0.4095550589914593
-0.030539207883365168
-0.4614110693256163
-0.5157121939395397
-0.1816326437107248
-0.6702293387260052
0.30674643032039234
0.2790215142145373
0.851040356164258
-0.6870954588345427
0.059721293090217654
0.030387171519092284
-3.604580187655225
-0.4154956107667264
-0.06142599763420242
-1.7446500943865215
0.4092071957291069
-0.15967242848336338
-0.5777458890117816
-0.40378246808590634
-1.114070322010843
-1.1891919756533165
-0.6547702457878611
-0.6073324080428312
-2.2798989670241765
0.377389972108547
-0.9299085967648284
-0.1709682845536699
0.2471899189167985
0.1647923601198287
-0.0566680114126373
0.1743622726343051
-0.8755021989007147
0.18358225539049508
0.3738408362049978
-0.5603291141579484
-1.6651410746781397
-1.9252164819617927
0.027435998363758696
-1.6859066658259512
-1.576127722380472
-0.041606564008443314
-0.6276574150726729
0.0258761815441993
0.07820444550231861
-1.8322264621832043
-0.9165537864062521
-1.7805119881256903
-1.0050500876369148
1.1975771041409922
0.4821753580047899
0.8312209711435442
-0.34196907778913643
-0.43465517550261884
0.4372635289873568
-0.35127312007406364
0.9178162212599981
-0.02978777794235115
-0.38816481220215987
-1.5625771417479644
-1.1611045852785091
-0.09391385502912643
