0,1,2,3,4,5,6,7,8,9,10,11,12,13,14,15,16,17,18,19,20,21,22,23,24,25,26,27,28,29,30,31,32,33,34,35,36,37,38,39,40,41,42,43,44,45,46,47,48,49,50,51,52,53,54,55,56,57,58,59,60,61,62,63,64,65,66,67,68,69,70,71,72,73,74,75,76,77,78,79,80,81,82,83,84,85,86,87,88,89,90,91,92,93,94,95,96,97,98,99,100,101,102,103,104,105,106,107,108,109,110,111,112,113,114,115,116,117,118,119,120,121,122,123,124,125,126,127,128,129,130,131,132,133,134,135,136,137,138,139,140,141,142,143,144,145,146,147,148,149,150,151,152,153,154,155,156,157,158,159,160,161,162,163,164,165,166,167,168,169,170,171,172,173,174,175,176,177,178,179,180,181,182,183,184,185,186,187,188,189,190,191,192,193,194,195,196,197,198,199,200,201,202,203,204,205,206,207,208,209,210,211,212,213,214,215,216,217,218,219,220,221,222,223,224,225,226,227,228,229,230,231,232,233,234,235,236,237,238,239,240,241,242,243,244,245,246,247,248,249,250,251,252,253,254,255
0.1485430990948686,-0.1347732913481466,0.25199704594780176,0.22403162270201146,-0.04606211591725751,0.2683350252347339,0.0766673108565999,-0.19723275848095964,0.1000948918231012,0.19421778942639148,-0.09382285827153548,0.06382970558929839,0.1694208276325526,-0.08421605673938043,0.15137051520602138,0.001968192192983745,-0.022691215114796416,0.1583955328836247,0.12693867418913896,-0.03894293998973069,0.08662478048102996,-0.11809933277223604,-0.009281539119564353,0.13451570434463037,-0.004327835387970546,-0.03976069473126343,0.04528836762300464,0.18418073034439272,0.007904744264793356,-0.03139826641103736,0.029179671851932536,-0.014636944335023836,0.08054585864103797,0.045219064321929625,0.04661780441735489,0.02917240937840028,-0.033268697247954664,-0.0671310372022467,0.0015182707445018117,-0.045393096694386396,-0.020940279604104408,-0.2039933459809854,-0.039550716613058645,0.09460141111484588,-0.06522916351421319,0.04698246050530238,0.07982684429483501,0.20076480631976512,-0.029216578135928123,-0.26031044114055457,-0.021925688275484342,-0.0686768255685142,-0.03989462647598396,0.07913938154294033,0.16710658083056015,-0.14873604374834337,-0.022473968442797275,-0.05032080835862465,0.25332526337751027,-0.11275372704445644,-0.17296118373229366,-0.020385203336333663,0.024860832474100557,-0.11853654625480517,0.04525252923862078,-0.13094360609059988,-0.01956501414887486,-0.214252552707811,0.05253929463168259,0.019724949908753366,-0.26243706980661874,-0.24178731327752226,-0.11561636832336852,-0.35107438472295033,-0.08493570344566544,-0.03800945073848676,0.10351647301900557,0.0011188592195959834,0.10531739086454486,-0.028719385340423533,0.05750522404422501,0.15228136188465988,0.06707895684671293,-0.2404298107798263,-0.19600650746741102,0.05006751561978613,-0.09928062360786037,0.01744424723787018,0.13500346800136334,0.05515730792383985,0.05627262824737236,0.06695089143243184,0.09600220246131266,-0.007893862503142982,-0.27187279399010794,0.022424413306706043,-0.08502337426881433,0.11758521156546893,0.16473729600896708,-0.044872518241979124,0.04537863195024768,-0.22460702596760596,-0.03289968968416506,-0.107743940170626,0.15684388133136123,-0.0041823721909002715,0.08613707159978913,0.00948701049353437,0.07250316525126795,-0.13803402497614062,0.011471084766909407,-0.11190326304031992,0.0423657387583135,-0.12391061019378276,-0.05174475130447002,-0.042619323000710474,0.09163989810144145,0.09688402230667954,0.10525895243007083,-0.08795179667622778,0.1495372162659121,0.09269965471182201,-0.15504617159900436,-0.15136479811294573,0.11704807614906491,-0.04667805771929725,0.24752320044424392,-0.0002805057821360668,-0.09632825880792566,0.013311179187196504,-0.16390756793030012,-0.03528784567134933,-0.04560578864266103,0.07160882070211542,-0.0011917898817243974,-0.05529098113442341,-0.0037698549759302945,-0.021940813565519014,0.07994279542363124,-0.15839049611379735,-0.03594068390169356,0.0823074984707297,-0.036767192660878835,0.006138607391158789,0.1450367728632642,-0.20277042978376464,-0.12638002865657322,0.0879544726432581,-0.14007190113990073,-0.0531510252445541,-0.08028014842598441,-0.058878777129152064,-0.17106314503021594,-0.18652977768821688,-0.057544971793708266,-0.192757237771206,0.074282834197723,0.07950186237731056,0.07169495763056474,0.0011145431906877717,-0.07238888542857055,0.03689848444780849,-0.11867160296868948,0.05721106832690973,-0.2577195672934729,0.00016517418315417014,-0.04085971687373325,-0.05112419677176511,-0.10643716078909136,-0.11018955969071428,0.018048761719234363,-0.14698032425189858,0.03434283663971763,0.25837782802597087,0.07099047831650314,0.12378380478089261,0.020321251066470012,0.032927735703908396,-0.1488085956773287,0.10351020235144315,0.11979913006872536,0.036134418644952614,0.010698993038332242,0.031430092683260025,-0.1334524731976974,0.09906456183362301,0.03500510285893291,0.10800215661961651,-0.1420112220800595,-0.24289816003352413,-0.1508559177141978,0.016639693071327913,-0.008741304086376366,-0.02620463565942148,0.23970781192129964,-0.12110986905380162,-0.05373115557596528,0.006197850525047036,0.014272732499174446,0.050682971535013374,-0.14227346471064328,0.1173860727833415,-0.05162175496280089,0.08263327967934285,-0.07591883788574706,-0.1501065299547869,-0.04535420896285016,0.2081966767241701,0.10795355115242618,0.09362759611516631,-0.08190511135000589,0.004340846470994167,0.03803019443983993,0.08192778105079937,0.06925545442294034,-0.2080849380791411,-0.07470490899233245,-0.10895479031498079,-0.10017474671753301,-0.2090944664318417,0.0782504442521655,0.1350080658467211,0.00388516558418701,-0.08696718075609454,-0.07705698451344957,0.1382645152381629,-0.20372248622294106,0.08032537840055823,-0.0182901060316922,0.08944631386521018,0.2640993458090074,-0.09554066958674086,0.1412463809673688,-0.16068683450993157,-0.22127311257610607,-0.03745285072194268,0.010725696440246,-0.07184987699917685,0.13891530458259133,0.051902275891205454,0.10372815310413658,-0.03212790633025727,0.007607630621586763,0.09955101263630484,0.1964086920039294,-0.0757712305271149,-0.04739294321968197,-0.1090634735336277,0.1586568546208512,0.0032026141640293265,-0.12440466034675299,0.07712628358859526,0.12251327504393598,-0.06140007891710472,-0.09364921571925414,-0.033293495954453904
-0.05481382447903514,0.06079070138569944,-0.01410932565436034,0.23718005011806323,0.19038947782781418,0.13176246137120626,-0.09768824069609523,-0.09865978960801623,0.09321107176227854,-0.24039234387889452,0.16516119575133517,-0.28497131104074275,-0.12036888488950422,-0.07017670349222284,-0.20072841413031278,0.12590925033345968,-0.12369988342871314,-0.09612404960866862,-0.10054295438352313,0.07375564226909222,0.06681723291640121,-0.13276014423804666,-0.22683136400023823,-0.27438776516100205,-0.19687807581578962,0.03171292472132182,0.01636365209114755,-0.056085195329654676,-0.22020591901395414,-0.13026163680717726,-0.23213547614330277,-0.27278727591890745,-0.03866693907656466,-0.33085723411492923,-0.06131885674140883,0.1405474692452901,0.030009038266064245,0.0009548591582428632,0.05020831713944808,0.4350064101962979,-0.22219465703746596,-0.02568263637984728,-0.09976852838596136,-0.036575637597044845,-0.4348188446265393,0.09466268798034273,0.05116143310946309,-0.09399494291717271,-0.14402521898332973,-0.007556876974093677,0.00016139723081971618,-0.01941025435769123,-0.03419393779420881,0.008188286352698332,0.0068558095010966946,-0.0964933491842375,0.29799085050639107,-0.5719816405385865,-0.21549847156735277,-0.10103903843662655,0.018261992535055754,-0.22822783561770146,-0.08492389190298386,-0.0062713625513951,-0.12354642014794902,0.12371524326857894,0.1965129602644391,0.03245884876073754,0.1299062330721544,0.025973438109381342,0.030038524123734516,-0.0886675501616209,-0.19354585113200562,-0.16161887152672072,-0.39450766894293987,-0.3344242842027844,-0.045077439022094185,-0.15200563244295623,-0.17698842499824113,-0.24141445295363187,-0.08792988948153721,0.32965054652706893,-0.16844768397782833,-0.1718716755319831,0.12628853632815515,-0.1899987488184614,-0.05133116693984257,-0.4097912445783066,-0.025898348072000414,-0.04583144509656996,-0.1677886020408743,-0.003054266293048292,-0.1034750804956604,0.007108652069900911,-0.1281454487622571,-0.26338602414922657,-0.12871556276676913,-0.04278693434867793,-0.12436149772639325,-0.174446025919537,0.17890907987961216,0.14249101799549171,-0.3332666366066584,-0.0037861068807658227,-0.09630033709561461,-0.07316552460876287,0.32824905347504424,0.08608737550648352,-0.1353083569422761,0.03870997498191471,-0.03698233552182202,-0.14421044440021102,0.10531000638549848,-0.06709053872204765,0.028653341362751397,0.25099558728500493,0.03049190954980591,-0.22025939240223982,-0.010168686990088795,-0.15503300136128942,-0.057006273010382504,0.18682060185753893,-0.06654299384548375,0.006726537537108413,-0.1356328919967249,-0.19093042226024176,0.11832496108378698,-0.05040707179307495,0.08519629237903428,-0.33268635400788377,-0.04870563587917581,-0.24624391137429366,-0.07293981841305947,0.06744836637900092,-0.128083277954275,0.014974862119689973,0.0473797680396461,-0.13638213429881535,-0.16822411688140632,0.2186146095294827,-0.0954401405114076,-0.05436568517968496,0.18887236257335477,-0.027936043227121173,-0.18998807226764983,-0.17749091808509831,-0.03742246311174199,0.07570405275494296,-0.004243708008660073,-0.23718989845704236,-0.42173209155452857,-0.15568121635163484,0.006819608360984637,-0.009002616856619555,-0.21851636820990678,0.21007467109485045,-0.20730400029121485,0.08109159259437201,-0.16586083804121632,-0.053517254610714146,0.01352976626488705,0.020830522173833736,-0.07780328490335772,-0.12541298498106823,-0.08917191955089152,-0.03309521311336173,-0.320055399454585,0.003504674192249679,0.22112016995621067,0.06525761088619887,-0.11827927517619166,-0.20907792551597476,-0.10739219339643923,0.006866926292913826,-0.023988365609534018,-0.019330761877528156,-0.06085083331369074,0.07304374943544169,0.15112153978171944,-0.13097351003670535,0.011557601509940873,0.0063829158671206195,-0.18262804924869688,-0.04475487591868216,0.004895508925702849,-0.07179671384561473,0.0829360354097615,-0.018679725837304484,-0.13961563698498772,-0.08911185392229387,0.05570624608419995,-0.03209343451156193,-0.058211771680249345,0.048338018877730954,-0.1771410098801767,-0.009716032447920391,-0.19423948967945573,0.008005316161394457,-0.31864901257589795,0.0892313141700883,0.01626363598482747,-0.17371123363855334,0.02691779961988337,-0.17885056637207983,-0.06753305579915077,-0.0030860525682117035,0.13035058443977565,0.16366469425682936,0.03347196574620002,-0.16650263108934243,-0.35144623222932225,-0.12746925801835485,0.0044166916119374195,0.06336364704406526,-0.22170639791446203,-0.0320858183609036,0.04717982747580294,-0.027846122829262812,0.07994893103533066,-0.12417371917385464,0.08104066952328239,-0.08458673280973637,-0.0802545258788046,-0.2987831998579722,-0.2812010802877956,0.18722702381466136,0.12249769481512612,-0.09407663672101091,-0.052170755927756385,-0.022827899361357058,-0.07712197132195081,0.14311469093020077,0.16859531629863506,-0.4047421309681297,0.08572683223115583,0.007401756479985336,0.08045012043911133,0.09944739524571723,0.024245912249964363,-0.013703234371797855,-0.05249025780702903,-0.15242979047152583,-0.06056621517279766,0.15886704882204059,0.06590669824404136,-0.0057016216710831435,-0.2714791312312351,0.004815909034073125,-0.026309755413268455,-0.049773796851869244,-0.015656006000545224,-0.028813967618377907,0.1579687297584413,-0.019531301894275543,-0.11448000466911687,-0.04522036062770269
-0.15289411436576622,0.056782430314122855,-0.20234936328919872,0.0910596425853832,0.0343898620885945,-0.06321481095482355,0.08842009201562971,-0.15616573003250128,-0.06613681649486461,0.043382682267793946,-0.1787030776953987,0.12176470253821821,-0.16476707586250736,-0.013462615799229204,-0.20178407980669094,0.06893021229566945,-0.014566991889928734,-0.14070047388105258,-0.06709028466870091,-0.05420950072106473,-0.08312756128270793,-0.006753454986981206,-0.07284957383656995,-0.02574207741420775,-0.2571494089610731,-0.002368639083940745,-0.018512745239475003,-0.15172665747826722,-0.3515077397407924,-0.2598904748731414,0.023250556295358625,0.03775248728975645,-0.09536862437359359,-0.04403390198203973,-0.07441386684357566,-0.07171533157075505,-0.04690328096080184,-0.17432899677375435,0.034946994061845746,-0.058045773205633346,0.01636761268593757,-0.09332518477894397,-0.09452998210105505,-0.08681603054332848,-0.15505681580004785,-0.08524720933645646,-0.015844325872038177,-0.24282800431055696,-0.16746978610427035,0.12194465671090031,-0.1014994641740526,0.00332576217330506,-0.27333476447662186,0.14296134590465934,-0.018329540451753418,0.06484076550065099,-0.08673444334214758,-0.16607085178095163,0.015143416667396976,0.0330162149424031,0.09809832884410954,0.29329208987253597,-0.2049256857609171,-0.15642614118966178,-0.2833133641518691,-0.052764464709062674,-0.1399154766932022,0.0626821741987426,0.03502983138889942,-0.09973243328179768,-0.019278809225471826,0.04062939313849189,0.060774913846290024,-0.08704893417544086,-0.2801428771641122,-0.13407624704302323,-0.008021204682643321,-0.04008350265255458,0.057798526071720126,-0.1952781481292974,-0.15233402258074238,0.029177026418267422,-0.19366877039899985,-0.026687025778088562,0.13243278022958427,-0.1092420859428988,-0.04595415382063224,0.3856946112039392,0.07774181167488974,-0.017041353884735815,0.025310274642753205,-0.025485453299226742,0.06219305511216514,-0.28464911359898315,0.058666197070339474,-0.14893569903712042,-0.021636634453419394,-0.09177890031772068,-0.043546979325631965,0.04837898549990499,-0.08114298877650505,0.19807125109053536,0.032947020904845116,0.04503851762538354,-0.0829773164723833,0.016510084767283,0.11772830259099848,-0.1413980168952175,-0.08050714186032339,-0.22319854185422344,0.090978154311078,0.0904426329051896,0.08042126602048894,-0.10805647682231084,0.14756769642488243,-0.06973663510520271,0.015401004311451708,-0.04666673969244721,0.11787696095386108,-0.11816009721725539,0.08169462096774385,-0.232917186517393,-0.03270784405967643,0.18077675619014272,0.06849244170960149,0.020041297490188376,-0.14662314087139233,-0.09772005375086479,-0.41181871411429927,0.0949344808093549,-0.04464213645729796,0.029703402769468718,-0.31234037731142544,-0.189877286118593,-0.10177916890567745,-0.02222086177971186,-0.08442669694257571,-0.23996947621164386,0.10736030580696,0.008816580026639691,0.01048617076084251,-0.31910794028928824,0.004433621446620808,0.08123283303049937,-0.04831450568408292,-0.03555849022889075,-0.1424234539500518,-0.029199725258862455,0.017979406137359523,-0.022523443421424646,-0.1303574234255571,0.17515332743363013,0.10161191143017952,0.1481754394252768,-0.3347975093200129,-0.0031742486674264892,-0.1055884523546318,0.09501745103630815,-0.03786583829575645,-0.023183590071119396,-0.1350655340971098,-0.09704162820568833,0.1134615607426424,0.090824979177516,-0.0017805874365416975,-0.1839613484099177,-0.10812069561723703,0.02710053161768209,0.05295000174525236,-0.15193469069786686,-0.12173291699587306,-0.19071996892198348,-0.1270176398624865,-0.044751705571989854,-0.03151172683534509,-0.2588916343476982,-0.16446484907580017,0.11385417076321,-0.2182790786546156,0.048212549260924116,-0.01127427687383979,-0.06883253079473137,-0.09794130029807108,-0.11412739068796722,-0.05785743507184505,-0.07626060098172817,-0.43056790847379817,-0.06392220473349432,0.108548070822134,0.04977617813522887,0.1768217183182569,0.10077137467042897,0.1514329874283659,0.06030609777198402,0.07767385801753449,-0.13837150228237258,-0.24906876022919655,0.039093822155824,-0.43439643715300935,-0.04912439416992958,0.1372740512391208,-0.05890505788260548,0.008647469617175984,-0.27321769999457135,-0.07148133263187026,0.052069541293868545,0.08353559226746517,0.2975983762958988,-0.1848588802877193,0.24501585882077226,0.1768812352350258,0.13097035784365513,-0.23289281519207702,-0.12463845247441134,-0.14083946386899965,-0.251892951321314,0.06448258818551839,0.07638830723875961,0.1926203439741165,0.052002744918059444,0.05169209680732527,-0.0020841748076090064,-0.10113237354911846,-0.2483311615580271,-0.16516050186162465,-0.20836987538418802,0.12981209474205493,0.042107090478650654,-0.029628366140534393,0.2175032873458758,0.12986064366253997,0.027618790907018402,-0.1607563856467368,0.17429727845392956,0.05149338598540761,-0.10382989952904159,0.0818774673579192,-0.27699418909243784,-0.1252372103454711,0.2171252071066768,0.15948162620620426,0.15173891526272185,0.05018308431694905,0.012178829499868328,-0.21108418083514538,-0.2583566208184184,-0.22334858093872575,-0.1527720602544972,-0.1286076992121472,-0.14379756518333223,-0.010555603390624547,-0.02288441244964297,-0.07243972544089856,-0.005616270673693008,-0.0646400486868586,-0.05843442461760066
0.13152111839837255,-0.03508321713390211,-0.03089346920611965,0.10172134822659654,0.02119383185433302,-0.2672579768137301,-0.1359401176347032,0.033763876209270016,0.28075633455467947,0.06407650381693399,-0.14895745402417096,0.1479439430430106,-0.03321956496313422,0.02149388553152316,-0.08097959159074913,0.034316971633282185,0.037324094879799284,0.22042842601280757,-0.06845421812435168,-0.1801937084177527,-0.05738391051044112,-0.018576704976035262,-0.18038009494362334,0.07931537293744483,-0.04257909739673321,-0.1357220435211795,-0.18368484429327708,-0.24735358790203918,-0.02979045071344226,0.17736933526500986,0.12846328555389605,0.07007799234476343,0.10173308722793062,0.13631801457832546,0.011821692561772434,-0.10838026719351707,0.06377523993052904,0.3242724657975251,-0.17381424812650917,-0.18020627385885282,0.17279494184612798,0.009110605217866849,0.01147825180455717,-0.06151831621411788,-0.03168958820694425,-0.1261196972620395,0.0257415868786185,0.15592995941590745,0.09971507948211392,-0.017857059048988277,-0.1099627889676087,-0.04698905493583217,-0.12116806519203512,-0.0814436703676013,-0.013390195632955165,0.13273690698397722,-0.005448345387459805,0.024603230332895146,0.03676854825035083,-0.12016470617493481,0.07761269924848598,-0.059488423509673725,-0.004570621575431849,-0.13532515139887624,-0.16352255128204748,-0.07813434806196985,-0.3660874072551553,0.10397288351796705,0.093508414363386,-0.08781307853172313,-0.10055607997805455,0.12622602646997746,0.060547258191832765,-0.13505999215051245,-0.1071455391378365,0.011350751144968113,0.0895311607083994,-0.04994739066572095,0.12057461588328207,-0.07254528241076022,0.005707790495633942,-0.327497002936899,-0.038522801378411124,-0.14351445622135606,0.03188144873347787,0.1293993724237472,0.07610442158685506,0.03274014457262635,0.18318481825062244,-0.0924663884449076,-0.02810688206030903,-0.06948977492247477,0.023875032085000393,-0.01746833982695492,-0.21652376112216692,-0.14795918683844447,0.026179046511620226,0.16619687655651175,0.05492723693544317,-0.056359012581094395,-0.0672039551930111,-0.04879651151192552,-0.14220811108718684,-0.1725191842504506,-0.034089717749825596,0.03589852484617227,-0.1298188810054199,-0.007754074289992778,0.07180321090323968,-0.12228758126669645,0.23756208498097275,-0.1523809945841662,-0.02299262430605477,0.16488274572105738,-0.045852630857708195,0.06367159578315451,0.04899497341897219,-0.1181456861879423,0.09111893264083706,0.17293070353216805,0.005148933106234267,-0.1990031669785678,-0.12095835947303973,0.15793710612183154,0.22860108788783123,-0.0391602698788627,-0.02386519556120412,-0.19186407079104076,0.11372201234895475,-0.016913516721913754,0.05607747239006646,0.07374918975442561,0.1133196567580927,0.1843933650299549,0.11544150729401799,0.014960776863491319,-0.10245204886990654,-0.06410696959009451,0.0031117246015420243,0.11951701038176131,0.15122484925956486,-0.05147104289998647,0.059578834958422686,-0.07126844408354777,-0.13226731351784562,-0.030119350710677808,0.02877662912684741,0.05380579010525814,0.023727245509675247,0.10067569284128297,0.10966145489637749,-0.025742961437792592,-0.1529842046056771,0.2070715430403554,-0.043896060517012135,0.07677768723657435,0.020282924040069743,0.03176579877781892,-0.10765798683704811,-0.11058556792031356,-0.12279307113101535,-0.17087044858938363,-0.04530369473787117,0.06675451343607572,-0.11320675011959995,-0.09329191475712693,-0.00815480452896028,-0.08886124321031492,-0.2733035043245653,-0.008002556420717642,0.03941036642892863,0.17045219531375627,-0.06344408100306755,0.052884030772584245,-0.1095343927231335,-0.0739285266738325,-0.002007997328625238,0.2525552321334548,-0.07651486114884004,0.1461855710825813,0.18323744530983185,0.03989028947936455,0.15324339153230465,-0.17180440389504653,0.031850096749745496,0.07624039047235033,-0.04239988003015627,-0.014256413069471688,0.039110681686429755,0.042894638268859246,-0.05070887186063987,0.06626624888400842,0.03769848345504092,0.11966192509619802,-0.1736751884650912,-0.08128178251045211,0.0604447578542023,-0.11815432426791123,0.05986833342805661,0.023913025043232942,-0.051120651396687936,0.045617853477693884,0.02946470024649239,0.10894173618837694,-0.0562107366931708,-0.29537353085568946,0.028196103998463777,-0.21153426558515454,0.2107647410583105,-0.15451183812846336,-0.17260904279133946,0.10932918964293185,0.16155668062091386,-0.07855475852020329,0.1456847906800069,-0.12155325594291044,-0.11277039675772284,-0.10895392050489731,-0.13171494841365886,0.0019582931790603194,0.20435781876622994,-0.0050058298347651,-0.05494820942704486,-0.19805999365459576,0.12393389712759172,-0.269483522953344,0.11738884760645668,-0.0052936796821916494,-0.05434821645308582,0.0174257141213853,-0.08276680269898237,0.2734551970258028,-0.08546248792918666,0.019227778254542326,-0.028443308405798555,-0.1226533194548916,0.11952196653934744,-0.08062395959055844,-0.2281937706189608,0.3051814855608384,-0.17345446573245046,-0.027680944073058742,-0.26519474016654,-0.16760640999516394,0.023968318540673494,-0.07395290288691855,0.0016399257082110818,-0.08130150998396686,0.13072782155840953,-0.1271668263702807,0.07936804677636353,-0.0216825659640963,-0.22903305421663814,0.03537880207090785,-0.12005638334282875,-0.024631929398977716
-0.15674235392708802,-0.16511813477824466,0.255855384919054,-0.0050445971298741015,-0.19462108700997288,-0.028503039736420908,-0.18231769237735498,-0.0847544886719799,-0.14637035757434635,-0.11018183781181758,-0.08949011805837115,-0.1066180122625474,0.09742498734467721,-0.19942486098312073,0.04807291763142073,-0.06545090093902722,0.014516589524491173,-0.041436630869632306,-0.018965103727368867,0.08299675566343521,0.04045631892809002,-0.025814796945038004,-0.12987542980998243,-0.09909721480482123,-0.14465326615943858,0.12875772769032276,0.11986334310739796,-0.10472208646515488,-0.05183858165486393,-0.009830164851284108,0.11156638567092528,-0.003559140893236507,0.035708520872294494,-0.06261903555442574,0.005241559959898699,0.017811066882713153,-0.09446111406973592,-0.0017911621785672756,0.011644297256979455,0.03852837272220797,-0.033360446972896945,-0.1549291906714258,0.10204789578861756,-0.13773773897630445,-0.1335021889111258,-0.23513573034420118,-0.10725413205109277,-0.041406989001354144,-0.06135721653228733,-0.01425651938912632,-0.021745029636371892,0.22052148206053995,0.09096608564663154,-0.06537458795486648,-0.014236794448279525,-0.37247083297964484,-0.06981272639826931,-0.22180262915792018,0.00224863954124992,-0.058087736699311394,0.03430793458246825,0.16999006061251978,-0.06790253111557204,-0.028046348243535465,-0.08759297058575723,-0.2305077946793892,0.3439194919610307,-0.14957106457311034,-0.09895450170977502,-0.18490584641142357,-0.19100399965687317,-0.07311453114513045,0.009589125431398001,-0.06795564184388633,0.049081771205831855,-0.016078001194235067,-0.2260195489949807,0.052784670426213556,-0.07459265274566734,-0.03560167058364615,0.016423311271912475,-0.1954509895191392,-0.14927371994892497,-0.05216908592087518,-0.011826118889863351,-0.35232792002107055,0.0024574346028321467,0.07896461067177864,-0.00215634888023137,0.01773511875495206,-0.06442927370621222,-0.03790138668178091,-0.09141176412216258,0.05737189100362337,-0.10114388200076793,0.03658343658700157,-0.05010276067102342,0.048990953417425695,0.0010292579365328207,0.00035588003828714953,-0.11407650824446713,-0.03716519098642099,0.18404040364843635,-0.2505522719822735,-0.08599149457518906,-0.2446149250589812,-0.04693898687425528,-0.061087418174450625,-0.15037550229379287,-0.17260914013198597,-0.22396111724799647,-0.010462766049901968,0.04355722822597268,-0.152497305421972,-0.02355602299278917,-0.21198783550891906,-0.08311373987096532,0.14929601078321328,-0.10989538165026058,-0.0156521059802143,-0.13699881348202966,0.0037025535350212703,-0.18730848296707567,-0.017561412062295063,-0.21335123241580853,-0.19149512600854451,-0.1528531261950245,-0.10664999236331707,-0.1309260738474744,-0.005587563029287604,-0.009899231812700998,-0.012227111821687862,-0.05466222043659865,0.14898694058523693,-0.048617055010364466,-0.05192378864926802,-0.13693847127238284,-0.18067998813395741,-0.3000330757451082,-0.17493758213899574,-0.04068740490922063,-0.1465739120835645,0.12727693125398232,0.07334699764362693,0.15572165072711133,0.057227852983005124,-0.22826215752433232,-0.07951120388011731,-0.07058166092372589,-0.34483211335541464,-0.02537680603317569,0.1589454010359287,0.028471223599915094,0.1366412736210858,-0.026618093309787382,-0.12582670760225279,-0.09816062141502131,-0.11368050553230769,-0.031769507433480317,0.03499394747026982,-0.1162186904471554,0.03647934841613436,0.04879788584659846,-0.13232700318749294,-0.12775425497873744,-0.2429264251302066,-0.06925247076106093,0.019077437560321587,-0.02233554461205864,0.06105850983345144,-0.09992125964409118,0.13638999717088152,-0.11088508285415807,-0.11469060384076189,-0.03667270217559373,0.13825108616269874,0.23090466472149548,0.05315208234367589,0.0030217895829537265,-0.3753237415754447,0.11186851410459173,0.02238922379380386,0.08209257408974667,-0.09929238853682062,0.11404805622404222,-0.02899448891965662,0.13700637575985186,-0.019547697383558653,-0.19295678319324727,0.017241396029784504,-0.1316101174549642,0.1547616509582141,-0.1759073863166507,-0.030021252810966306,-0.018225287235450038,-0.03681543951109481,0.03784632826908913,-0.06690838376372796,0.3341348423708118,-0.010053858736008732,-0.2813737474023315,-0.11070379521180448,-0.05328528292934098,-0.15545385232833153,-0.10544016563736869,0.021109777154708558,0.022583627996898746,-0.1043289938516318,-0.16939291490804098,-0.08589357801438503,0.027551889676568686,-0.02232653213131515,-0.008571614383164537,-0.3199221308861178,0.05865699726115288,-0.03598682711029524,0.016484884588663283,-0.1674491716098607,0.13482428291105616,-0.009202664511351407,0.07828078289631776,-0.038574142956345724,0.03198472320170779,0.1276441178503813,0.10092289940422909,0.12307585217085648,-0.07118172602574874,-0.08295791283660489,0.07318186790631172,0.025970628581320633,0.06339019234997717,-0.12741187396874287,-0.03307689820061004,0.02408240226064664,0.06485508106438014,0.014856384591663992,0.05567321331424373,-0.08839518543010348,-0.12886215620285488,-0.13547555104122802,-0.08322248691492906,-0.09082166636221517,-0.04182305400332956,-0.06053761497209908,-0.0244586426810883,-0.21664479970180714,-0.04121803795399193,0.0042030732771383755,0.054618519798388936,-0.007092928643710401,-0.21270097123570786,0.10191498755060913,-0.030130620386840095,-0.07921211828211541,0.0711051582624214,-0.029155415509936652
-0.010545051159111933,0.009527533854529641,0.058579109805767075,0.14646720841742383,0.23343794170252738,0.00039125468808790757,-0.015191248795706842,-0.00984276886850286,-0.02523377378738567,0.026670821142757838,-0.11330127310460011,0.24595836299477877,-0.1585082306279729,0.03574165229811217,0.023181232772593575,0.02724589386870028,0.10197029052333445,0.014938827738575656,-0.011227702597038241,-0.24128229875629773,0.11766393796769439,0.02570260267792199,0.06177990387373711,-0.04255154795154023,-0.17338014162930965,0.06643073271160717,0.03143908934321455,0.0589934253237363,-0.2206627903030024,0.013631688390004768,-0.051261420333303026,-0.2629343012652532,0.06336143800330768,0.016546043326466895,-0.056883718450991085,-0.010648429288745181,-0.04233767497814041,0.01508480959142939,-0.03581555478460215,-0.1857541329042957,0.18592308392018841,0.06973881145329448,-0.06574422014458978,0.15799871484084152,0.1805805459415698,-0.3057829817156308,-0.2617976116205845,-0.31860765651548567,-0.036747117314804505,0.09059053312418172,-0.028573371212904607,-0.05380251166584227,0.006401351891795298,-0.025147825383254246,-0.02047104688181639,-0.05410596873740075,-0.22801433740195468,0.08143374200641965,0.11997541031843545,-0.23646089819106172,-0.059169816047088056,0.008658121126658203,-0.0019028297167837794,0.05785709430074118,-0.027797181445424576,0.10583147724723792,0.060294886364138135,0.10602961664290154,-0.07886673987218018,0.012470306734708973,-0.10926780623898943,-0.11667780898478744,0.11792955023808802,0.00881263948787642,-0.15897055622947523,0.07999612924248453,0.15082005776062396,0.08517974643102642,-0.014376854855940585,-0.20185514467016108,-0.1584017580191051,-0.15089205885817997,0.021414562101499307,-0.14200706185718912,0.28484250214825146,-0.12005529044361402,-0.08695613527002712,0.22702949158485913,-0.10782331175304803,-0.08505992615342876,0.11650385570111406,0.19482410484203727,-0.19075738106549966,-0.011368526888323655,0.03902252595676099,-0.0820736183643155,0.01606012751194139,-0.04864087336870646,-0.137507378479901,-0.07782412353417326,-0.1733869108996072,0.024472184860439564,-0.08765204892943976,-0.13730445163409466,-0.0028579983559075556,-0.13550464315682684,-0.03549401637449372,-0.04265864672816582,0.06843859876677122,-0.015056214705656117,-0.26908060930300015,0.1178879323068062,-0.07555016120379623,-0.08246998762606626,0.003938651203884975,0.14161181084398602,0.11209781718460797,-0.06432982535984709,-0.045695732307355706,0.2120772150460233,0.1491487500296881,0.08234370561073844,-0.07151932965108031,-0.04936256098476651,-0.08468774466315576,0.07414301641690633,-0.020248711888716887,0.18060856969857186,-0.19043712030983917,0.012270636468584986,-0.046624040985817766,0.0038736213216171286,-0.040626967324531735,0.0013795673544798317,-0.32563125452149577,0.26279206193308596,-0.07310699193110179,-0.1320265157712989,0.15742702803316033,0.016293749074377983,-0.2008501250906392,-0.0016734341661153193,-0.05756732404431343,0.11638755163971058,-0.08395873125844981,0.03888383103076335,0.03542026427625553,-0.0066212474914372176,-0.20414075511307775,-0.0430102776718208,0.1250736673526806,-0.09607705991722634,0.022268998090165065,0.10969349962964217,0.09215374691430515,0.009717481133525085,0.009931747180029801,-0.17590840004460162,0.22669656719355466,-0.22648235751760745,0.014599031661373892,-0.02519233394636031,-0.22474254295409654,0.028134037698591904,-0.14877126693161358,-0.26272123915826084,-0.2360656176627436,-0.2047839286410311,0.03786736399243163,0.2113209937317387,-0.14131911655255563,-0.006145339219123484,-0.039823330436614186,-0.08688835052537325,0.005706705561636357,0.16806702355230493,-0.10468392711994295,-0.0839746433436224,0.011203085128022604,-0.06781620898473752,0.10649123058664078,-0.3019938448324459,0.1574877759699233,0.05497095513777915,-0.07271524002353505,0.08355065449461875,-0.07029861111178196,-0.08719755126778064,-0.21122082835472572,-0.10615426321022015,0.0720011006184263,-0.0154518863072882,0.005703518132071377,-0.08690702850251364,0.08448749320437059,-0.03977667624474712,-0.08194942018021395,0.039130752334877186,0.0016806908962844725,-0.06817434305121603,0.003081786597656495,-0.163331090634489,-0.05684430150397258,-0.25430768184525815,0.03731950064548107,0.02373889360795888,-0.10192605753196644,0.03301149622148324,0.09781037380631803,0.15476529119532206,-0.1120074519530614,-0.017026136784636714,0.012700599544589339,-0.12394900571379917,-0.22249745739292898,-0.006613350091272433,-0.002208439734027282,0.2342951643320717,0.0021335690082728786,-0.17913107016020333,-0.17635472832705149,0.20200201693794617,-0.17609695011451623,-0.060988362765311555,0.18420027629056868,-0.1918655203705317,-0.05230581100454988,-0.0037852120020610788,0.06140165171335301,0.0682065119160982,0.045139204659803284,-0.011211557659026697,0.03453077150431994,-0.08634980174889023,-0.06169392867211933,0.07042127799657948,0.001211198394720568,-0.17369233494104683,0.18333368122024846,0.004857163909312763,0.11896015755663714,-0.1395113501888108,-0.09655436452586734,-0.12090766327098855,0.03367407510482319,-0.0058348570606957546,-0.058155197800351485,0.05092088409454554,-0.030715171261661667,0.03890787268691464,0.0018610170159276665,-0.049933634371080386,-0.058699921808141674,0.15338707978475258,-0.12116233709944625,0.017149600462430845
0.03715110491679865,0.1414292168328854,0.10193442792658769,0.009861100639514538,0.13372713137840936,0.06607884747997841,-0.0736265871683965,0.08100630553959218,-0.0337596143679878,0.0692001185402183,0.05182396210557083,-0.11235269361421223,-0.08614364142477195,-0.057493041159641434,0.13419176972740754,0.09395926132476039,-0.08222907036103448,0.03675179770597202,-0.01306533922073351,0.057742717196201804,0.10151477345344503,0.08055586978947189,-0.09170047640304639,-0.1277591662221713,-0.038298298218424176,-0.01858923284626199,-0.06348751593147227,0.00898190195816575,0.30967750932846994,-0.0469097955088672,0.02837520786545729,0.15665023196550712,-0.18362021264649378,-0.09218455170257644,-0.20937746231128812,-0.0915030047784289,-0.16436508559085886,0.1107850466951192,-0.1735289791514569,0.43943158010618494,-0.07202808095689732,-0.004912782498200466,-0.01935545854859415,-0.08908723001370615,-0.0003138335029174681,0.16785935761109053,0.04731932514622352,-0.1863595928979019,0.052302666861223666,0.0709024139055223,0.12759441541199645,0.14328559625192955,-0.016103083271463356,0.1434971303494894,-0.10643832732099238,-0.003497021737437114,0.09362939611347204,-0.05189305522662109,-0.01681234099818133,0.03871096714504619,-0.023171520050094277,-0.07776982266184042,-0.13972377383716497,0.014508824653633587,0.03451466027269445,-0.08873279265049347,0.2660401272947702,0.20371499442427923,-0.03226140089897475,-0.03277034995354926,-0.08482895250721104,0.016299765388413375,-0.07742135912675409,0.11328504043075963,0.014334584831840486,-0.0705646902533746,0.03607292335895642,-0.0054969970174176515,-0.046530676076359516,0.21578843574396364,0.004473622411720212,0.39465225521029024,-0.08203123393825675,-0.09149741052159731,0.18313144332750428,-0.0679780997471508,-0.07929575054551512,-0.06282355623274505,0.08005703058554837,-0.022594634918165296,-0.10351153845518517,0.06122817839076158,-0.11131863834364286,-0.0257408917343758,-0.11752144534778142,-0.09964538013024472,-0.10241010850625878,-0.1019382413003065,0.004798542609620369,-0.046403170118586995,0.1538169958150856,0.046177200884904644,0.03765999280806402,0.077690278120126,-0.10593338928045228,-0.03370539394055192,0.0169851291009571,-0.14910053762450537,-0.0922638877749084,0.07544907004404033,-0.06793153928031533,-0.2347885047776494,-0.034586924963324016,-0.17409365015677658,0.34946063030278796,-0.10133124865925716,-0.01986521400553923,-0.04077848273745736,-0.03215924505025724,0.09785028362822973,0.23610652305382204,-0.13237977349701952,-0.010291267539999711,-0.09403455271607651,0.237798975873133,0.04849812295126263,0.09152621353747732,0.15810987596303702,0.0711672410742758,-0.06143898245615159,0.03219668361741217,0.08001778144659949,0.11513203305585329,-0.05897240053782258,0.00039049203748800986,-0.18021187651202278,-0.011321113165998114,-0.1741232366599561,0.012407531506357344,0.039070701908546515,0.07111525818253703,0.24961820741038732,-0.18411333092459592,0.14944234000282278,0.008260578080042042,-0.16634085960260714,-0.03665858775946091,0.1787630529365695,-0.28895426596784846,-0.2715181367217079,0.10089851821049252,0.092197857617559,0.051924961271518,-0.06316644113935799,-0.047426784680359914,0.02092390599141147,0.008552855481711752,0.20623871882836603,0.013297221109365352,0.02729503711170181,-0.12773139608729636,-0.03724993529939493,-0.2307631450882201,0.030269675315333516,0.1211003668136473,0.16994040785450815,-0.3775061229207641,0.08078204545899621,-0.35378008264223704,0.13763036481273516,-0.13158383296882156,0.01390466019441331,-0.029950308225367688,0.07965135594421774,0.024248146174100902,-0.006635510244386733,0.037175494587111994,0.07071422513968775,0.10574880076249081,-0.04357290815490091,0.01977342927749316,-0.03665792120271604,0.15473347477331545,-0.12976010776136945,-0.04897253649863913,-0.016457993372137002,-0.04146959171539087,0.018493174170268814,0.04076656395191842,-0.024146385369429813,-0.05450249115325587,-0.13518041825557386,-0.3352019937961159,-0.16611491602505044,-0.1687455576824302,-0.0008258880236032583,-0.04325600893547132,-0.11750856095468232,-0.23606341436776104,0.13604090028535848,0.06954945625241447,-0.02631838411949352,-0.08092403900614532,-0.10807890916424155,0.09936476237844886,-0.11464859525921785,-0.0049568117763614805,-0.2866290389322793,-0.06268174606711698,0.04465256400052967,0.06222243513510629,-0.07314624059896904,-0.02364289366854899,-0.20397497639101053,0.10002496396922052,0.03532577384914262,0.07306449413279123,-0.0017870961704198947,-0.01885755054534955,0.07669533944624697,-0.11154599476263327,-0.009488056636168125,0.10136292508140722,-0.2162317614282709,0.07468915396469132,0.07962795678502621,-0.07436165647493179,0.08226532478112275,-0.1930224425323977,-0.005846193080740266,0.13794442355379155,-0.1889066990634873,-0.2999961740501829,0.245327887062733,0.05822121954963516,-0.05706123603232384,0.12897528776646325,-0.2731710663016742,0.27815223596178823,-0.03704791575865471,-0.027913981289508727,-0.03847631346458952,0.09595337014903366,0.0530281865481888,0.0488028229001671,-0.02889013038471125,0.4765512290561875,-0.02636989176864247,-0.3380668440678337,0.011918064007796709,-0.03242013964047828,-0.06822945317394397,0.05310688192518672,0.09741586296605433,-0.018578957020652022,-0.13836064813633314
0.054230381729932386,0.08492238661285348,-0.24000867933946335,-0.2530304733680077,0.06509349344538572,0.115272682677466,0.11744351881013677,0.2676720111117737,0.029758731950161765,0.09951449865161167,-0.19824781905395483,-0.06383101456558371,0.0802540344224869,0.008296118015672259,0.13714565217471839,-0.06562869543578179,0.008814546962150198,-0.020893412226551198,0.07760397098439414,-0.13888020816286847,-0.03407701116726239,0.02060081122753849,0.25106756489595494,-0.0447097801065215,-0.18491149111035604,-0.18497139486262393,0.05312827203481713,-0.007052737917142499,0.12207235491577277,0.07192891843870236,0.031038458759848533,0.008980376971611461,-0.0053487804622404595,-0.09222774739457043,-0.042442585914195724,0.10432410134545425,-0.06596729989067103,0.05358285985915213,0.16543349217061892,0.0899086608530826,-0.007152006995545949,-0.12784912922504038,-0.08570796277485165,0.04578245448473559,-0.11090906017175363,0.07550133321063159,0.13653057726976575,0.020929626618510614,0.05978795718220964,-0.00953167494193866,0.055867977557872484,0.09291618609065609,-0.0758065294298759,-0.1806463994958444,0.014535486482890197,-0.08736132766612496,-0.166103001795046,0.09133667161636604,-0.1111682167779816,-0.2374116732279744,0.18851796743275348,-0.025492771611382557,-0.058647564112300335,0.0007598153863462917,-0.05439514760816484,-0.07885997849475755,0.0914111168395814,-0.014593705977514988,-0.16840156991157568,-0.008925388579745726,-0.045668344052097916,0.08913145571564478,-0.12093236489605198,-0.00867448271671463,-0.34213986880275044,0.03170162634240984,-0.015089793202837104,-0.04690848419517278,0.07649133251191303,0.08719360223746483,0.07494214103663134,0.09825571566380818,0.11628567739549292,-0.057606201063271835,0.03632453956006494,0.18801602876954995,-0.051264164421672476,-0.13957969557927555,-0.3292157289656547,-0.11645941024505616,-0.08165305159834212,0.11501868326201638,0.2821386573478431,-0.004723405795417031,0.1328298949618471,-0.09716421678365336,-0.17010261854505282,-0.02791313661407929,0.0470573172943791,0.010716309441285569,0.1150639846725596,0.20621259806750233,0.27249197064515795,0.13726767992421496,-0.14343079029864514,0.09816941970921586,-0.04923842923713517,-0.12156465178862694,0.0015749065247703561,-0.05644673379747627,-0.0652962769115454,-0.47053827965426376,0.05195822858541523,0.1537177833830491,0.16817517692709455,0.2269358106872433,-0.14585077504763802,0.12004543991471621,-0.0021327446478408693,0.1323043377428364,0.1196094305278315,-0.003976392965754531,0.03479130501235438,0.015576579815616444,0.1408221551668344,-0.013067999821479503,-0.1748717580397074,0.03834671031653062,0.016458013588950302,-0.0723984677095709,0.04319513275114782,0.0011647565106236264,0.24813984057804253,-0.10701142373605343,0.021125831295389474,-0.3708427829047835,-0.019674151050584697,0.12369692783547805,-0.08080871176102475,0.04394985776002948,0.02366803187897106,0.15085895642870661,0.06351855160769665,-0.16682250804355195,-0.041140734945295535,-0.23019696884810512,-0.11354042724080603,-0.000961527237895529,0.2107097599065368,-0.08501825173300775,-0.09152577071138009,-0.05042901209923767,0.10375351004673894,-0.01783200850290127,-0.04992769655846126,-0.040857137216862884,-0.18761764842616568,0.2133653954259967,-0.1624736674191381,-0.09154916073925273,-0.27000733444555236,0.03091897293062762,-0.04408240718978349,-0.06345588806326116,-0.06579120916430285,0.10762761114441183,-0.060691699593675104,0.18192434929338644,-0.11932056942419356,0.0016891789184439753,-0.0333623350274656,0.09397474685342487,-0.10797404457091267,0.0641149591817482,-0.1083823203861339,0.14690765474135473,-0.17326324887486327,-0.13654701013802378,0.07751338312145392,0.05575703127008027,-0.2559143299273455,0.037340859977679726,0.17887480854795176,0.08699727019031599,0.22962606811371591,-0.010502614033986047,0.021984093810479235,-0.05396587396929903,-0.145926266484114,-0.07200167922352589,0.1933786815085954,0.0431571945481161,-0.12273690017753902,-0.13753710060200958,-0.0053553664907839285,-0.09695205791144453,-0.1252581511005384,0.0872488053559302,-0.09758526562559593,0.09572426421961383,0.02887301798972662,0.04200886104013906,-0.08545325740408495,-0.21876586354749522,-0.11778970754522675,-0.08017669411772056,-0.009705181523789646,0.12314591324118604,-0.09327138733774068,0.08548424758428455,0.024877978669947644,-0.10372375742274625,0.13529087714180024,-0.09036452120840673,0.035894782574872414,0.09563264114671285,0.11805560554695346,-0.22928769668066265,-0.18211809273531301,0.0273486167574862,0.056464002137289526,0.003791916563165683,-0.034300684318949996,0.12122789118763805,0.11339577479972868,0.10310565376018552,0.020101928038930083,0.12781476080694995,0.16596703618715503,-0.08279458696947335,0.03085982422970972,-0.06056890489755784,-0.14977125533908986,0.048126252648114744,-0.04672658687242116,0.03750950567778925,0.0755723705299712,-0.09963363206649758,0.029661071820120767,-0.1035205628646688,-0.10912581379204134,0.2822837371593252,-0.04423763235300986,0.07743545858058651,-0.1024391726182215,-0.14797547077692336,-0.15168266378588566,0.2316515556298675,0.1230204272077854,-0.11247413486984752,0.33169174819172725,-0.09707214115904812,-0.1723640766362402,0.16001064081647684,0.022112753260244217,0.013939357504229578
0.008934605027583031,0.08400512197689791,0.019477927173552824,0.11719391824281708,-0.14598419690811448,0.03796980064776967,-0.14896316361048703,-0.17659165678413857,0.03563513163344835,-0.05193293343096498,-0.1030794161052244,-0.07643046852398158,-0.12816201755639503,-0.08386791028242647,-0.29339593411872666,-0.03740003755357286,-0.1075560783889343,-0.07067549710616755,-0.11516839423053646,0.0383669228030797,-0.07829223403887851,-0.12463364624525816,-0.001483949617061209,-0.20804171952844464,-0.04526816750136674,-0.24143380413706966,-0.24816554117563774,0.010150353426667633,0.07003064970511912,-0.19737027906991206,-0.04226946467855763,-0.18609328724502222,0.09297746100576004,-0.11357637074314052,0.07759213670563794,-0.17132633163568414,-0.07694343319662147,-0.022928128071674218,0.016820029551074,-0.004508127828064743,-0.0985445414196123,0.016249615472407844,0.04343018653619409,-0.09461497969406453,-0.05109896508543606,-0.10973975713773129,-0.019640211903584073,-0.11030405094819817,-0.16393047484544027,0.24027797984602994,0.12047737448266739,-0.14715203576390412,0.16816166233820876,0.023678182482314618,-0.033237947574506405,-0.03504354111778595,-0.22155643088955831,0.029705381092699726,0.029708246970089374,-0.029844044574399112,0.027215854782413944,0.11447569905139492,0.026141083166454943,-0.15273597274299364,-0.05108599087761045,-0.05440304541392844,0.06228990325616485,0.0736019532605319,-0.19343483871939285,0.00539813095770109,0.058830121512279926,-0.1832001840364376,0.01595146735727616,-0.1157905613247497,-0.17430849126005807,0.03469145601855287,-0.017335247359518406,-0.08879092653884633,-0.11866604401557727,-0.16853611166572788,-0.020033056433253316,-0.41597425405206034,0.027785968193288355,0.15590378987770975,0.026332611197441267,0.012692725440077273,-0.08259632461690052,0.03729804110820745,0.018822658319334006,0.08651314927202475,0.003109159921952418,-0.14336259829751488,-0.38227316290941055,-0.11800622047412479,0.02702888483717419,0.014791931404540746,0.374902817616398,-0.07127602913913253,0.06546047823389683,-0.013823346734329342,0.003603049455036404,-0.02320251140600532,0.08275226158284305,0.05575211404915236,0.15339259425183288,-0.13861912363007287,0.2967298284712243,0.036783155729798185,-0.04828614162055584,-0.429708104903847,-0.05504325740015256,0.012882635505168525,0.17101367949304086,-0.11707781478507708,-0.23060915863362347,-0.05127030161138943,-0.1371319323360077,-0.16366560830783444,-0.06852818839804767,-0.09959427385183997,-0.13927036633801282,-0.07224269016445325,0.005765502539352936,-0.05224779678014257,0.04806849892188227,-0.1001011026012326,-0.03568128534163407,-0.12255368406343047,-0.07107903144579981,-0.1411628600601392,-0.043167094651802324,-0.033696198244233394,-0.03869413463216644,0.03686657137958099,-0.008552509035446677,0.012854623113385415,0.0742726425298799,-0.1020921091126028,-0.04679662648508032,0.10223455618362377,0.10385475698775565,-0.11448030882815051,0.22525515885104033,-0.13540614681193264,0.06398673147250475,0.1353063927174543,0.07736564096110501,-0.043151199256026326,0.08696529481732276,-0.10461465077803411,-0.016388321777009593,0.0473303997352459,-0.08443738526598742,0.0948874438477077,-0.06572813763810302,0.04976182756927947,-0.0510475402289734,-0.06747466761023217,0.07217637837691628,-0.008216293891653969,0.00022500691736341392,0.07522932565341349,-0.19640000814591038,-0.13877206268387093,-0.08665517192619014,-0.26030593106516714,0.1494330329904854,-0.13606736404663264,-0.24365169342851023,-0.062259567947826895,-0.2443363220419426,-0.17638416939808843,-0.05119058255275533,0.0033200208336482424,-0.02103274489577595,-0.07829300746833291,-0.22521290106737338,0.009638208746365316,-0.06858096096969082,0.012789818094686137,-0.08545532400137826,-0.14538566337323264,0.06568376178528049,0.402677043559255,0.103796373654674,0.20012123192080813,-0.025459802901665215,-0.0570389605689929,-0.10627027822738241,-0.002673886415260404,0.2300193535510721,0.09552955142302036,-0.22576460019003147,-0.22214455523076598,-0.04412559112769269,0.015350151276577961,0.0718061439448161,-0.020631497580271923,0.0732977910702015,-0.1816165526540275,-0.01787614096882683,0.13619388808124588,-0.07146978376174418,-0.018252575207970093,0.09714773811149577,-0.046973958853309634,-0.03975759131497705,-0.12108473924460891,0.012588250317123881,0.02004643939006588,0.15102720791074625,-0.0004343374816515003,-0.011469959122530968,-0.24136409372528508,-0.052778164403201495,-0.1424402140474111,0.13000547932060683,-0.11225335269093516,-0.05307368057931661,0.15036451892139371,-0.19458420364680817,-0.0275892373171519,0.07396609475309887,-0.2263778930688356,-0.1702136597539881,0.06707184674091443,0.19542741912553369,0.024216444894301595,-0.08869138621015393,-0.11198026604561118,-0.13237521830960566,-0.18424019715731588,-0.004391829766114237,-0.4490068221624573,-0.009343470696010478,-0.18547589416839333,-0.09509740337414531,-0.05782718828492829,0.04099678235293335,-0.0362880633859437,-0.1836499688011657,0.2606481719834338,-0.15461872649649938,-0.03732623820551788,-0.008635611778315743,0.12362370288096582,-0.10082174739648651,0.03798933503719009,-0.13393217207342076,-0.060405154395492315,0.02507174096100486,-0.15519315635898603,-0.15852360834404106,-0.15330538395647472,-0.11029250602166016,0.07432887055733792
-0.19670889156944546,0.29390961520452435,-0.22357345594041517,-0.08571703628538617,0.02598027817281301,0.06555219284782114,-0.06264811258423743,0.0213276341802881,-0.16208528222472893,-0.03171236381179862,-0.083219011017374,-0.08425584475103595,-0.015329707236470265,-0.24007048157815972,-0.2109777936040501,-0.001577434992397916,0.06258196180881274,0.11524283206450159,-0.19012286088297844,0.07134103913102906,-0.059373289953227396,0.03362986026228407,0.17890733373012185,0.1583166558604459,-0.10166528470162813,-0.035724316031650154,0.05942013677149128,-0.05026245025172242,0.1795762120822264,0.04000280658421634,-0.11672273243189009,0.019759393864637893,-0.030879834522413746,-0.02438344980472913,0.0010975740612736422,0.06799542161860764,-0.23681899921066885,0.23992850082643813,-0.042174635992577654,0.1288935932943873,-0.01103495811516263,-0.13021409666772865,0.07768371704276927,0.03599782224753449,0.1623779451815472,0.12016878205139689,-0.057756663281421594,-0.06871741581927109,0.025892582943300792,-0.18807869878409425,0.04655817310814618,-0.05860153865862455,0.02943307897148851,0.03841145543950759,0.03944907670330524,-0.005094571476445463,-0.21826549987702706,0.11432028918420084,0.0004427767480489946,-0.1515039446939247,0.10001959438865915,0.15172946418706806,0.15150779824934163,0.1354778558402752,0.029049522560421107,-0.09797517606902126,0.003226337866707204,0.14807897467780778,-0.09733427450704583,-0.09316480593238342,0.23545956699037185,0.19974175559244867,-0.015573426969478202,0.015246611606779143,-0.11921847016553076,0.2726422448078133,-7.118271172413198e-05,-0.15680854686461662,-0.10591921630819022,0.08250826628668115,-0.12507116660591713,-0.3017630705356023,-0.049099113479208985,0.10484814620277813,-0.14277511070457527,-0.1479831377663993,-0.07307637059206301,0.051995006247122486,-0.27636558144486933,-0.059065782892996355,-0.09772073512734729,-0.05156956846461162,-0.15119150517989738,-0.058954639839970686,0.0019421015228497413,-0.13441590525960437,0.1692227879928227,0.09271572281356961,0.01609392590177855,0.08971967923691067,0.024952835950638623,0.20295231241712952,-0.04435835587302492,-0.1259390395796096,0.32547159344979826,-0.0013311493903107627,0.2642631629299948,-0.1554356142337807,-0.11463721338727297,-0.07272551623455994,-0.062039167171651456,-0.07024544711067,0.06430057667819002,-0.027478198269150215,-0.21238541501532396,0.006391283237690317,0.24646282542779088,-0.007350436725602005,-8.849373932207056e-05,-0.0828616229778561,-0.0023822842099445614,0.028550204139530903,0.13135512183193598,-0.21105468919211745,-0.0841013522798231,-0.1323753284496033,-0.09349994969709194,0.25732217760965015,-0.030538695606408154,0.05856268893084308,-0.1537871909064201,-0.010738619536912063,-0.011851121323302639,-0.16752823541561102,0.010696348366622734,-0.31685744840928204,-0.2872057340590323,-0.05909737837821162,-0.15295272758118025,-0.05926296996675894,0.06588946112300122,0.11439855705824599,-0.01585385666753748,-0.08663064392035831,-0.07316469525308837,0.09608483809943172,-0.067452326365287,0.021530119915115612,-0.04655681279447514,0.1075378657987197,-0.10899988072760843,-0.007110693284665912,-0.03890207072580258,0.12255635723548439,-0.09630158410999866,0.014340661149534643,0.07099297954582282,0.18513044157896458,0.015242553949560653,0.09666308246421054,0.04585014557614641,-0.03451350469326903,-0.09660179528866061,-0.11863285497440695,0.10422508868636617,0.08813286182806516,-0.07212826456113283,0.029036845378264897,0.04422478151787055,0.22777216761578906,-0.02504478652254824,-0.0422353620706401,-0.11331702398031433,0.05271531558081653,-0.017993731566666536,-0.036873861963169226,0.15795322347586718,0.020236493687635197,0.07298567045096829,0.07387947839695634,-0.04535397017915316,0.04556967622338469,0.05972667373800606,-0.018909052404266324,0.10207637843004347,-0.05823651593090401,-0.059735158644972156,-0.023775593023883167,-0.1408166539490079,0.08547225519504091,0.09481285628277952,-0.04164080731728166,0.09459923938931056,-0.1946083450044744,-0.09146133332337482,0.03237825122802113,0.03223719162534375,0.018864948003211094,0.070694417764004,-0.09366002553119518,0.01782746462648472,0.048975608324059866,-0.03243233060247352,-0.031703728160339464,-0.09354186922513186,0.054225103796689565,0.16714136489175704,0.0652039191320406,0.05824984779816546,-0.031198501893012202,0.1565567205495,-0.10055974234932999,-0.006045237299236414,0.17290193064119577,-0.046576005966911256,0.19834266887105204,0.2758611779138015,0.12521518295787265,0.1666319002777984,0.20744444813371282,-0.23464586321290765,-0.05128107364966768,0.050491441956063324,0.08464441297836983,-0.10860935333649299,-0.05036078926251406,0.1884462895746038,0.014577143235266907,-0.025263038898726838,0.06193121149683257,-0.01558845270330472,-0.046703764187799666,0.05402328751080735,-0.05658712501839335,0.1042005237176263,0.016607120739109207,0.09098496794505831,-0.051307557694850896,-0.12995615068810207,-0.14008932424504242,0.07608294001987374,-0.045844484137532844,0.05366633095568191,0.13780946288978402,-0.02860724391747285,0.01117926820685429,0.050329594130659135,0.06185328448618653,-0.09413898800312015,0.1384785253548812,-0.050398037451466246,0.09077932805923969,0.0806403385463431,-0.058879916968322524,-0.03978756679756968,0.12066429351261061
0.09831486545672997,0.03520106159152021,-0.11003441580943413,-0.06045009572808659,-0.11077810684263972,-0.11652114339365618,0.01040639896291395,-0.1669774946666141,-0.051952149800018256,0.2319223149878826,-0.07788452771072146,-0.24429463910025281,-0.04616781851811757,-0.012201336491734351,-0.10822406691685504,0.17318230455021785,0.22391213838247,-0.18595796206541246,-0.203985123493255,0.040862834502136826,-0.13608061435491295,-0.09811399452591023,0.0654992471882638,-0.1468719458630691,0.1710843110680417,-0.025153387097321893,-0.1874462611799956,0.026105276772960047,0.1461714109423759,0.056330248355057386,-0.07327114310466436,-0.04548263439134968,-0.06817095571464324,-0.08291476565459648,-0.09654650074011116,-0.03450876673911862,0.012571942813435957,0.04171188014259966,-0.10619239248717043,-0.1375985134655344,-0.025441062811184596,-0.19334217700825024,0.07144224590019883,-0.24313313639781728,-0.03219916177326841,-0.11050195520826371,0.006941105583734997,0.02131473432833032,-0.17437232197002805,-0.0011217515027829006,-0.05481435939010152,-0.17673229769741622,0.01465917967079703,-0.06540519900388894,0.00117749648783704,-0.12984889845329892,-0.15413249371862248,-0.14717293711127913,-0.09284803388529901,0.13245741724069374,0.009182967760066702,0.09807289296580181,-0.07637399201654413,0.2216314439113722,0.0201804498702825,0.060350428859048955,0.02613180238724819,0.04108306295438534,0.04703333514746642,0.016941263962031865,-0.12290360031800711,-0.09426858503352413,0.07876072023658419,-0.33707450102742187,-0.3432848061447607,0.12724023047528965,0.15072257486121993,-0.1236201748685393,-0.10171727985436743,-0.14674959642066657,-0.04792405575036847,-0.1335929673467597,-0.026092290658641798,0.0882778176892088,0.015031356428423275,-0.2806750857168013,-0.28809121597906145,-0.32402631984670505,-0.0070247949699515,0.14061574165594787,0.022020916895508037,0.018316663070062914,-0.33460998907696404,0.004747372891862153,0.011725925843381854,-0.14214945708452761,0.059976788042593376,-0.16191488233223544,0.24371219597723406,-0.20306179105042182,-0.06579617620707313,0.1345081385869035,-0.03469229541347672,-0.19056990274321683,0.07001358961307008,-0.18281290432589983,-0.4913535948966136,-0.09845783988164372,0.05314007609817232,-0.22340633700655588,-0.06482191058387542,-0.25426244216483673,0.12297189449792681,-0.25747880826571423,0.07378266427570496,-0.05602691454603147,0.0655088341946383,-0.17783068651499173,0.11026747454464329,-0.2351757964393106,-0.018551388002579786,-0.018544398823696795,-0.0797899879988753,-0.0895187501108403,-0.10263403333887003,0.02783723458859103,-0.2224030702567531,-0.01942113680611521,-0.013889011932139244,-0.026694399407305114,-0.002503794866747522,0.12152924018102078,0.05338165588569244,-0.1807948652469064,-0.1434519625701959,0.07369455237283992,-0.0465392569704733,-0.16399583465364026,-0.044262058301537927,-0.24805718197310245,-0.27034161035145166,0.14709916718525132,0.08335742325326559,-0.03701579892580622,-0.21371529656508229,0.035952554994519506,-0.2948142121767448,-0.011581286336195245,-0.004033306537507469,-0.17521501369756393,-0.13263646949712224,-0.37371794762847876,0.09659649736267133,-0.02794155038638478,0.1319456263237691,-0.07325521362763027,0.1549879329032052,-0.023783585236755132,-0.20722498390627747,-0.044037905206639395,-0.1555593284301482,0.11771957136999495,0.1672173357611033,0.01591377573866595,0.027698702247841694,-0.25228923914984414,-0.09149575369912819,-0.10036629549779592,0.03790521456861465,-0.2932741596752165,-0.2802156622632272,-0.25331991805540394,-0.1163185130066169,0.05342397509916418,-0.11380930822390685,0.09975939171873652,-0.05875516739631555,0.04989530763325799,0.22849992215992773,-0.07873415415268396,-0.11607017772366164,-0.07621118379381583,-0.13552874263624204,-0.16881379304751823,0.20227364228932604,0.04503376327738473,0.017334448927814706,0.02580728315408376,0.11802351280737094,-0.0652302146838341,-0.032649504579459844,0.0779661164392297,-0.11829057389612509,0.0027542927680495625,0.34309508413387174,-0.16418698597992498,0.09511407564548607,0.08628223571989259,0.045322175892502065,-0.09546798027683137,-0.08613594564197263,0.008861628954110697,-0.06828213510135321,0.07347278524440745,-0.18204757454003187,-0.08846606305117563,0.06420200878189425,0.2500201080849115,0.1200017999799735,-0.04608979727976914,0.07433017169537522,-0.18141219816038234,0.022745685530549314,-0.12827808594844542,-0.10319304325562548,-0.048822212223436225,0.015975416317409896,-0.28723365138808254,-0.028205446701733805,-0.05812312819403312,0.17646214741559907,0.10801307604701742,0.0012661046360251357,-0.11139408230161202,-0.041932716934551,0.04353436921157535,-0.13812365613231808,-0.16900321917053712,-0.10410153067761607,-0.028326425430303025,0.009668939646171926,-0.13417548559831544,-0.3898361584482002,0.2117222316899875,0.03222384431130116,0.03199398959268251,-0.0953834136410286,0.04537911590817879,-0.14347521649375944,-0.20050677621011928,0.07049297993623915,0.04832183892341824,-0.010757128587201105,0.03958265742323333,0.09745476656253693,-0.06988462482750539,-0.15263644088422013,0.23120463618295709,0.11902271321221504,0.07918995232286347,-0.030976905233684814,-0.04280329314846636,-0.04102884762580511,-0.19262379736965904,-0.02266892734892481,-0.26277126953042995
0.005397142887486163,0.05067074740697749,0.06948903244691305,-0.11192778853301051,-0.1583129178820821,-0.10373273308370308,0.05868190095158701,0.152340188368601,0.03904159312749729,-0.07811620900467042,0.05715728068197686,0.1553300429215304,0.1612333272167661,-0.015570803156246434,-0.037071421252117966,0.1524402967051788,0.06473180102686901,0.07461695116857842,-0.06856230982847161,0.13242908954350238,-0.33356699209282353,-0.043748021412292955,-0.15951840016635987,-0.07024654406345505,0.0035375752775879217,-0.10360967551178737,0.07172476212768893,-0.06915576679306383,0.06828163703070315,-0.10455187324490967,-0.05922873277929764,0.04235122480255934,-0.09363701019009325,0.18591510265525524,0.028444968632970812,-0.08203842556914019,0.067724647819807,-0.07262020112244998,0.041484547571720036,-0.14959172167737067,0.039946824002610834,-0.07291322664966313,0.028180924767481536,0.115095370037098,-0.0004412613784936232,0.009819199835125086,0.03944732665397236,-0.07797267912591421,0.04411203466328133,-0.07719721109799374,0.046023490679506694,-0.13025268788233055,0.12109182351435023,0.028360728546166978,0.09246877169425109,-0.2024170650180807,-0.11182918068542617,0.08669855871963607,-0.0886985017443052,-0.06803950083227711,-0.017426988890930188,0.06750372359671529,-0.0627788640681173,0.005353496275834822,0.025356893157869632,-0.07851622133780067,-0.15098063766469497,0.05748454378624749,-0.046383751166164874,0.08319017798662247,-0.021836335277503116,0.03830338444798527,0.02136065111268683,0.08092851038365619,-0.0989457815630348,-0.0436814480755837,0.05197307355330883,-0.12573321283239797,-0.17237329313042252,-0.014792406411358091,0.11870852359202272,-0.04518537672165923,0.02261461211440019,-0.016059187963992604,0.0193148445336933,0.12416009452105564,-0.07948333853831346,0.015012119514454246,-0.2981951801114095,-0.09155565508812957,-0.06070267548169739,0.09457308286046656,-0.10184286321525357,0.06832446350460962,0.04014211869747191,0.07174415800593614,-0.010733047493861851,-0.12408849023671717,-0.03314971489296127,-0.02366970956225753,0.2038759767958246,0.0593718758697743,-0.04771127434965413,-0.021930825935560054,0.08372021138293159,0.02772983424186272,0.008397790739770483,-0.12829408231058256,0.04195452763583823,0.05849688674344429,-0.050087925245148324,0.013293282306981506,-0.06612333412921176,0.19584322672833768,0.013294739580088753,-0.06446693844135469,0.018449172205184893,0.010231823593146774,-0.21096281450286675,-0.12125333364361733,0.032276588603425804,-0.23702156392446846,0.04281271361388663,0.19173698618398863,0.21345277908629529,-0.0487434360105966,-0.07856037932458111,-0.07158284044773418,-0.05509320978733506,0.07723510934906576,-0.037363578709840424,-0.06659763246547327,-0.007999609235282812,0.006109481069525994,-0.16745278444328568,-0.021260213378802274,-0.03882778346318101,0.07150349483697584,0.06945767183403945,-0.15852475362119417,-0.08868480294426458,0.026630808348332893,0.1396092651049189,0.015253838979544767,-0.0877171906924971,0.10268349234754058,-0.05093373781252975,-0.005435693490015275,-0.014390950910969307,0.0815069307421605,0.00035229472273140734,-0.10001104605726038,-0.011194935112037568,-0.01877306689378099,0.10858629379550691,0.07638144164705812,-0.19584048164499682,0.0172068086925119,-0.019069814649326836,-0.03142632782663973,-0.12916517089269647,-0.029548257453210557,0.031813825712542855,-0.010974438055813008,0.007414087384311807,0.12185676646804562,-0.09957572608108074,-0.12307487086325455,-0.04802866829603703,-0.12713652511735538,0.061963614186776185,-0.15751642636016114,0.06018111188633179,-0.08173201568891705,-0.024315236408074363,0.04869770988918933,0.07171644529407296,-0.0580107742917765,-0.12075327060991455,-0.10265724489574038,0.0163336355653093,0.008001774541184519,0.03649873878097746,0.005914121364965672,0.03852417722938722,-0.016641600663459582,-0.04464300657306898,0.0010965114014911419,0.14979124661590887,0.24300517721068446,-0.10033959679924562,0.12212860525887856,-0.014680442410383852,-0.14526607056989396,0.11196881443890207,-0.03790729121987551,0.011331526621461897,0.06482554591135306,0.007465418316381512,-0.20247049720123675,0.10704895847988892,-0.03229641465102501,0.1765439613917306,-0.06745781797240417,0.061713064455039844,-0.09750867331428698,-0.02196251748819841,0.008581222646110357,-0.05598238876622038,-0.10960250195904697,0.013020961268868815,0.012321155230386672,-0.07594568106180319,-0.083044837371906,0.07682684766901371,-0.13712441080949647,-0.013931037083803322,-0.10825753438824094,0.007680019488094749,-0.055014595559176024,-0.09828542256842124,0.020917793797527506,0.048078823019579796,0.05445894642324661,0.09109882289078396,-0.05059155989223974,-0.005653516668248965,-0.0354152989663798,-0.0027489812627110874,-0.1068841137857781,0.08458676311299225,-0.030721861495476174,-0.012540920202222191,0.11449324777181091,0.05096629068353051,-0.04678350784998924,-0.063160925351789,0.006675590657123679,0.1108370229566916,-0.11895850013074907,0.12272305168567178,-0.011800951049364877,-0.09402121271592043,-0.0031348850528522296,0.03185913460165478,0.039921187560010306,-0.026441820896964088,0.03135311193916125,-0.07029318835513602,-0.05422906473574712,0.05363974587630976,-0.06987503801343538,-0.08785313186975212,-0.04097411501678527,0.10175446566609998,0.08445017972046807
0.06368708588009658,-0.20093687261433107,0.011459092316956264,-0.12669048564892893,-0.0523824032569339,-0.013657245699099065,-0.2252330051693664,-0.18269092131159384,0.2815860260935937,0.05228835858173987,0.03096683526746757,0.1420063444764471,-0.13373939879240104,0.1217478294831574,0.1515471253164829,0.14123186467546706,-0.08705145836254852,-0.001248662202859901,-0.0312811813310536,-0.013496918318229877,-0.058741003996262996,-0.34325948969556913,0.03699239737403277,0.01402062824728458,-0.13022504663912204,0.05332102828779078,0.08980812735745822,0.24995358361445089,0.12850394824959502,0.02171635419350196,0.02276416447567115,-0.2182548538479383,-0.06431115331633597,-0.11758589766172639,-0.049546758912374575,0.0517566710645179,0.0828785708683643,0.020235664448710514,-0.053311009599799376,-0.036816782836731135,-0.05198811346684471,-0.0874015770936844,-0.06889458401270004,0.050887622543384164,-0.14505927641808236,-0.019825877442547712,-0.20813254058989245,0.005205354869721228,-0.10920756476669172,-0.14513298061589394,-0.14527215858620418,0.07727564219496585,-0.19795174556776074,-0.009033602303691476,-0.14987187015475578,0.03144676269255265,-0.2426054780860603,0.13718853479828005,-0.19550817165926196,-0.06337429818714758,-0.11552109982190764,-0.07337915825799128,-0.05459413327677003,0.14083559476821786,-0.26299081496112464,-0.20600226298641572,0.0520894017271617,-0.19923225548316276,-0.05965203721400887,0.03966300980122268,-0.05283727338555101,-0.21731475273076709,0.10152685151660899,0.2747480560926541,0.018738744615775772,-0.2139868057932243,-0.044386832185156266,-0.0010585702010847734,-0.13229725679840584,-0.13151689753483017,-0.16165681712221436,-0.2622321251256695,-0.09073729548399954,0.08244294968193541,-0.16134938528238804,-0.0723695863461861,-0.0771847583816877,0.17187831911778723,-0.0436837723410386,0.11106993040527988,0.05299979947409333,0.06106981237305191,-0.03175323047221575,0.06839738932107961,-0.054750207147463925,0.12366815482960371,0.019993136143989246,0.039177285690645214,0.11747899833772825,-0.03720113744507335,-0.13288710840630355,-0.297632346818604,-0.10466736864486849,-0.0007562603425448072,0.046987101065148106,-0.07346285818058337,-0.19868146285338073,0.034123377456954165,-0.04731768831480088,-0.10196499689940197,-0.13566610036497354,0.04709683902590268,-0.039321549187626904,-0.03955573803876598,0.11959530283088338,-0.07931746329948458,-0.14003813206139204,0.06252335268721454,0.08541182370735219,0.12376607900121372,-0.3478309187940743,-0.24392847919269178,-0.24125893932741224,0.040511376627389545,0.113488464044429,-0.040299365206122276,-2.035773655166491e-06,0.05855856450655261,-0.10275013404648714,0.0035654269095264602,0.09181326702837284,-0.48654416044040666,0.07090040327699591,0.18630774168768197,-0.1731683010977925,-0.04566240576994642,0.14389786376353178,-0.1313021201128682,-0.04774487569718981,0.14241500537428362,0.1410998584797439,-0.08537517249070849,-0.09825670214737897,0.039821557363287956,0.008801727306596873,0.13876828808397165,0.14512725575588908,-0.054893154502858046,0.23527070700296832,-0.10514578072130558,0.006415951563325593,0.29555515393973913,-0.06178023868045048,-0.007849710296796143,0.20479793388376863,0.017056053521474566,-0.03571312468857847,-0.15754622466241047,-0.02632992842042051,-0.10545639370715346,-0.02688707342806884,-0.020122031252352807,-0.0025324754863597994,-0.17413863372533686,-0.03758899154471374,-0.24513382920621607,-0.050520670756174106,-0.04814437452032062,-0.05513160839000817,-0.0032211579682477286,-0.019336862320012364,0.09488886594459767,-0.02482323632995134,-0.03351057673552773,0.1397486730839503,-0.16808460700136063,0.3160192058715958,0.2053536560952632,0.1250008869526749,0.11269766069488257,0.08001698308212578,-0.13010790239103262,-0.039069041506866665,-0.1791521978951482,0.0055430572053435535,0.3309731308327971,0.07680161286250284,-0.0018472053162668775,0.025919934082422408,-0.32359749218854533,0.07209789731532912,-0.06913657006048712,-0.0403435902432919,0.031476500970911536,-0.22872898932791594,0.19108897935293426,0.02714299863938618,-0.1656119184951901,-0.1194639464182036,0.13715515958959282,-0.008778268903095132,-0.13691046129308465,0.006522615638038772,-0.053308999015178854,-0.11640516302040416,0.1622584281412565,0.13417425818534343,0.08854124720057938,0.1364471455283389,0.16341277735690854,-0.374286247252866,-0.23234537553123907,-0.03369828269970235,0.04502907687458396,-0.06941183810744914,0.17706160709705795,-0.00955438914812351,-0.42926614916008843,-0.03376050931619157,0.11329245008218598,-0.12676133875340642,0.044810725194737035,-0.06916677324677241,-0.0574350578573111,0.10775737306671039,0.338545656286905,-0.21341865386280795,-0.04017219191550456,-0.15005384815029238,-0.04687490850477565,-0.02436480047168881,0.024905855068765487,-0.22029288256229862,-0.031964932178027476,0.19728825956404258,-0.019024210544570205,0.005478501112360947,0.14063692784426574,-0.07504168438942417,-0.23661661114828098,-0.05160443884821936,-0.043892180641973456,0.01790477199805284,-0.06228416750084389,-0.22181063491556996,-0.09011034350241971,0.057567556375685176,0.05190293248217903,-0.14573973377405133,-0.06664264720055448,-0.12562616261827653,-0.043092480350114835,0.08984598490701082,0.06892216648223468,0.08780433556855086,-0.11560778229622479
0.034133083221954845,-0.006504736479921298,-0.20124499681005395,-0.1544969913377329,0.016917292742995627,0.3081856203105162,-0.023214391451810812,-0.10174970245034015,0.07960424575418804,-0.09831446481536274,0.09353702337437109,0.08468397025413948,-0.06284829088561592,0.024840373432243476,-0.23010937759177963,-0.1709376102231228,-0.03182530897048365,0.20759824405981564,-0.0526469255258914,-0.05420853665717264,-0.02686250126505824,0.16073815361313865,-0.015993734764164252,-0.012160616860511893,-0.051192182209710335,-0.14881751013557387,-0.09269833693971426,-0.09737730238165042,-0.04606072560195422,-0.23403423824919864,-0.09336821287628112,-0.14755297317910748,-0.2414242290132235,-0.00908495737644793,-0.21367341183285724,0.13157016575192693,-0.06658681479752972,-0.03772266423973117,-0.09965050162958462,-0.08858023955783209,0.1538743482779139,0.01568373704143692,0.11085449257433466,-0.06030497839371699,-0.11661360308522695,0.04630507172558223,0.014090815482436686,0.15980707019594848,-0.06938875665939777,-0.08018529417100101,-0.05897910492619406,0.0779795688023707,-0.028414612501137672,0.19724336388501476,-0.03047609167474927,-0.11994448945196194,-0.1859152217563013,-0.2344514220466717,0.09769706432878576,0.22683724181341927,-0.04523847655167902,0.2854835333391974,-0.16284331280671224,-0.1570049909539005,-0.01655868101007254,-0.03507495467651571,0.189726652754924,-0.01012665097902103,0.08553448928440176,-0.1381495578260676,0.007156442890680352,0.05976359977787896,0.028878808910296483,-0.3806358350026033,-0.021452349794237522,-0.1909104430723449,-0.12084278817293985,-0.1896828051745573,-0.04838380444510862,-0.08738679901279998,0.19164818449926282,0.09566197899247589,-0.1582557020422837,-0.19462164445847369,-0.04019841832256662,0.33813254294908124,0.034792313654889044,0.16227561631210222,0.07275829478718604,0.24312148120623822,-0.21863705472737657,0.08576099821577099,-0.23794809388659063,0.12875824147804443,-0.17665252903467266,-0.007252939531288305,-0.020615536822683952,-0.1270843841569186,0.23513948476551522,-0.07605388775756267,-0.2007005369213682,0.18181229702915336,-0.08888364599759176,-0.1473188362420335,-0.119725456526029,-0.021831399289302916,-0.47396492469887136,-0.14719546277673837,0.06897007299343223,-0.14749121859244313,-0.07017766736359796,-0.16394647738835505,-0.005504938253052015,0.11332521811684962,-0.22035381927259287,-0.13681082293275912,-0.12520133641491563,0.04405825108755369,0.026827355839167108,-0.3992881754127294,0.13564245877721473,0.1993660738635816,0.024777858456781078,-0.14336132735402646,-0.002025314327941651,0.11124017160477148,-0.03911664414932281,0.05949695622684085,-0.040796014741520996,-0.11848589510497075,-0.03740802794760061,0.09406208765641147,-0.2277631648111656,0.015492616783987757,-0.17490450415628134,0.2198320403712305,0.2054681449604302,-0.004543592172822637,-0.11428769155342908,-0.22826652022897898,-0.09386791271983795,-0.03342176476471492,-0.0738212383672669,-0.11583649864500026,0.0038957959223222135,-0.06059887119658593,-0.005622618176870324,0.05220716973457049,0.04589219282178467,-0.23147844320523045,-0.02237716042315071,-0.2336113965902952,0.01962171428805728,-0.1353600496286135,-0.06336125185683746,-0.027950418747050666,0.24389057558702806,0.06921256645803986,0.07242710015280486,-0.32822129505083936,-0.03623626986700942,0.03981598884704782,0.001376946633686271,-0.04115109639418275,-0.0597431268190302,-0.24874551457507776,-0.37391340683763413,0.02555573338481766,0.03188388826747963,0.13829682568570803,0.02384692554226288,0.04605879360505992,0.030569636669948917,0.15202552739172961,-0.026874361644666115,-0.009308535087411338,-0.08556140010192295,0.040836937084332676,0.09962192235184526,0.06265447084267249,0.3582769138873354,0.22862632691066306,-0.14406788592213865,-0.4808296572236399,0.25509671119773075,-0.11192835782385846,-0.19252004658791416,-0.12396679490255827,-0.18607620055924312,-0.059775368807540336,-0.23403880745483716,-0.07973662914926227,-0.08412736878391851,0.08308690685966952,-0.14278562233487718,-0.05421907064839441,0.08976936053124543,-0.15991755706446822,0.14744299084048823,-0.03556808484884364,-0.07867513583122906,-0.06235024987035494,-0.0018304102467744613,0.12139538660383123,-0.058017848470932686,-0.09354679736467349,0.10597227514041097,0.05991297631028414,-0.022612864049002892,-0.27776997476715964,0.09985140847256814,-0.14237031731142769,0.17351788795946746,-0.25896707835834415,-0.21518809241468118,-0.08233055589286888,0.2356164703360372,0.13862958289920754,0.1225813212806184,0.16910158813869455,0.13924074760343816,-0.19916324143332492,0.06368225041927937,0.13745359668910379,-0.020229326657728433,-0.1522675006972656,-0.10332290178799906,0.08993603940895833,-0.11137212686811378,-0.027808341422233703,-0.08565945822277796,-0.000371390814804559,0.019352461746215164,-0.0973894559997882,0.01461353748298127,0.045634928657619485,-0.050225377852129036,0.18313913159313389,-0.016502547360865507,0.02828695939946847,0.03032313287968731,0.06216784167384671,-0.12344275177173349,0.004771815821404544,0.024651126038797017,0.04332053327818516,-0.04648717838539751,-0.1180613004419361,-0.05589080651551563,-0.16576244509567487,-0.4536216942131167,-0.06575809152211144,-0.05925543185655774,0.017238820669373243,-0.004557919558593265,-0.04222356885213852
-0.03252737701806612,-0.014852545068751971,-0.07018785256713388,0.07431306739307769,-0.0598981716753442,0.17336839910928123,-0.037468051934150516,-0.0286757396368983,-0.04716644973058292,0.08805316837522732,-0.11821349158886163,0.11695135343086219,0.15160363133505247,-0.0733303712960424,-0.09793764634765685,-0.12898867385049542,0.16060268053222873,-0.2377870412780343,-0.03761752521272949,-0.04160821377378372,0.07453238722119325,0.05788870890686151,-0.05760255389172865,-0.0658928682082376,0.04605609644633483,0.08855729405756675,-0.0574900729812463,-0.12525941688654904,-0.08347404901274319,-0.21207598209640055,0.025350817277520053,0.3397536689499277,0.11843895222902595,-0.12990808157148157,0.07508654407441559,-0.112499262017233,-0.04771698180129733,-0.19229280717533745,-0.02554692522123686,-0.08978468532577934,-0.09664516576691777,-0.0507459983066645,-0.013153716046002819,-0.02717705792718589,-0.11088383599658265,0.0067288376447283,-0.12832091715608937,-0.22175003831516343,0.12145368878464259,0.05028246894802955,0.167422835853443,0.06993368388775803,0.17920718458389248,-0.09623097287612538,0.019782676524937877,-0.10551131583768737,0.01579366016177127,-0.20339783096391154,-0.16254052501105226,0.06516681318918476,0.04179658218897453,-0.08750923868650536,0.02333692385729169,-0.20485943552273259,-0.17791690547834593,0.07494517376385415,-0.1311677860010012,0.07238374276266586,0.12187273901396846,0.04149514631915882,-0.23417893828608566,0.04372069960055943,-0.004692500208797439,-0.04963755451323583,-0.01692326099060303,0.10371292532501242,-0.04820698102131115,-0.047754523915233126,0.06399005630527484,-0.07537554106599147,0.09682487520711114,0.19774336646596155,-0.003832182927233059,-0.21625378586159597,-0.014447481360700615,0.14955835242857754,0.13489197725681065,-0.29266806171821014,0.1868269795629476,0.09896230276969209,0.013216588982809054,0.11646168772200273,0.21753527060975864,-0.0024439838883286453,0.09839206549601495,0.046169050337638566,-0.11959839836818528,0.20187534133463422,-0.021581185701776667,-0.04352230337356731,-0.06649784064540702,-0.2332576211186601,0.11803434284946458,0.19695032124244824,-0.22519926996307055,-0.09584043493474385,-0.1248649260958896,-0.18120856720321132,-0.03963595993123481,-0.10414911194207345,0.11155296569024818,0.13131157033007892,-0.08140300205081594,0.0009621000937516241,0.30400004697806354,0.007796072098335553,-0.06746583506550294,-0.13164745916514556,-0.0769012862741306,0.005100098564578409,-0.18248101495907829,-0.010353712468789153,-0.07197199216023091,-0.017319362255186564,-0.0799913649343912,0.04363091059773606,0.22162745887857732,-0.086080156189417,0.15415706839511553,0.0007273882096765473,-0.046894277107586986,0.04267181571557619,0.02077410234146708,0.13438499832727877,-0.14308689797938232,-0.2273001606379293,-0.11267478768226678,-0.17086348674397137,-0.07429145228872831,-0.14214348089119194,-0.11386609571744606,-0.04798937766066441,-0.008596867423313868,-0.11418154007845305,-0.07449865215272114,0.0042333571907171375,0.03381676301471171,0.1575663477325431,-0.018648131435046445,-0.06648480851302269,0.10532852499476218,0.005958862273462069,0.038174869795858754,0.019895044490346618,-0.02677464375496913,-0.09918391338649427,-0.1640967854039706,-0.33240485517497054,0.05927916752987188,0.09180811377850623,0.14482534295686342,0.16293917428081658,0.15229288580686315,0.039651584595429994,0.109526885764394,-0.21376364939379358,0.21007330665626325,0.11045692399710658,-0.24299836487315887,-0.28885183008163384,-0.052161923153154426,0.10479436857223269,-0.03745109070384587,-0.2871981577273982,-0.2276430040702207,0.022592060332437828,0.011823775611373039,-0.086226844660545,-0.11066691580934981,0.05720880093125212,0.009206254009711883,-0.09835350540039403,0.30134634772973873,-0.056206218173435143,-0.036862564040912524,-2.882853478018959e-05,-0.0669655382756683,0.043723789671406874,-0.024464432018645534,0.10676807490608183,-0.12169423158905975,-0.24955982112088138,0.04067534887040375,-0.0611435526291499,0.13304863972352515,0.003456287771854253,0.05105645336723934,0.10130514461131866,0.02692110279256678,0.23474010323324002,0.0902814690997114,-0.07725742471942827,-0.10798051676247025,-0.18026143807792203,-0.05770156802907081,-0.06805842573615149,-0.081388913758791,0.04034735534790627,-0.12797685693865027,-0.17260812641436254,-0.2069531855737203,-0.13716186263775057,0.05595275603096339,-0.04462460856342517,-0.1253160396714796,0.008511027999375666,0.09462701742244406,0.060803341037509916,0.020014720554037753,0.009896189587231569,-0.1762876286233805,-0.0636521204805626,-0.12256125836841593,0.2890073918838527,-0.22753444350555066,-0.011115844775860263,0.04759331577457458,-0.06741186182876638,0.24973846232490438,-0.050737718282845574,-0.16584824466467274,0.11907879140444969,0.08497074495815368,-0.20252262843946206,0.10182841199697214,0.04777176352594237,-0.16825303527412483,0.016079166557356243,0.06244933971868858,-0.13957922237518722,-0.1684772245179481,0.09997834403662403,-0.12327602397997865,-0.026127435546629028,-0.23356518175881297,0.02840705843200439,-0.0031788425230234634,-0.046201413236822315,0.1828628440472119,0.05617940263748592,0.0016671654447193895,0.0030336221979878767,-0.09979185170120036,-0.09895822504520949,0.1428364080005804,-0.10805438718988794
-0.08681707958518477,-0.025301675641333066,-0.4071859616619249,-0.13466355011701037,0.22394871634931943,-0.10024286618503843,-0.013864660870152106,-0.003959996379418482,0.08802911711762972,-0.0010806696482166807,0.012375233561309724,-0.31516846335176546,-0.006253671342110511,-0.1663731019664515,-0.013994066255803392,-0.161756688907524,-0.02083836078173243,-0.06233551654534029,0.3358426210198394,0.023554747409274907,0.01753770297782022,-0.12678311824667798,-0.2266731428435734,0.052816496794043793,0.02174749667513714,0.14414292212868726,-0.030752214016679023,-0.13161127228911185,-0.1736874643945207,0.03927906098342296,0.09352422937906237,-0.14233044015377078,0.11688514297396185,0.02872347273525408,-0.06270379423648076,-0.17488055541698633,-0.028940859281233414,-0.2989302513683192,-0.14128837375743894,0.1393033228276286,-0.16444349015823012,-0.1115654120670247,0.03340882970275339,-0.06935311183713179,-0.11579105426132603,-0.029156809033566426,-0.039762581044357155,0.0235038087753016,-0.06528881497773996,0.07516208438338881,-0.26155988020920123,-0.1745206532538617,0.10992967642840837,-0.0697473684856563,-0.028855375826762907,-0.1310415637464312,-0.24761095642763412,0.14762769881762416,0.1646079243095423,-0.04540333368689204,-0.057360795435032655,0.0027582906712601343,0.12737107390003163,0.07750857571521369,0.007521561901846491,-0.14156354361299517,-0.0622624919465108,0.21727620582506374,-0.093150625932392,-0.05809396183151393,-0.19576516180805767,-0.029832708567336483,-0.02448117416676499,-0.44330116650079265,0.1992867578927152,-0.07083947609310999,-0.18139786464186447,-0.04190978570529137,-0.08403975521399826,-0.23446777249058393,-0.12909396805619047,0.13712938620767715,-0.07648705184235886,-0.3318923312878576,0.22555787990169143,-0.021424306396207078,-0.17235701813921622,0.09476976921739828,-0.16578184184034137,0.09710868905475194,-0.06746765256853544,0.05364541047837159,-0.12803797637902606,-0.051792038020915365,-0.13674450514362374,-0.08808091779261686,0.07680451163972549,-0.048326758311332554,-0.09389837354570396,0.07250976980782765,-0.014070760237303118,0.07860410847297658,-0.023448564216690688,0.005114014152420215,0.0958932443038356,0.32214530106965134,0.024561920249362944,-0.18170933534427067,-0.23314365687764302,0.04923624833693807,0.013884998564562608,-0.2935117061659125,-0.028460094008958842,-0.30935980784735495,-0.18384906666787737,0.1469510943873257,-0.0011203484121253232,-0.12152353992981565,-0.029872138720952093,-0.16396967158137093,0.03142762811117886,0.12757872547730995,0.05288369730471055,-0.02175560300768488,-0.023697715359664268,-0.07674262821693163,0.14242849086476198,-0.04521120315823432,-0.00633091434225995,-0.043665638377823834,-0.05407395511979386,-0.03976990313495508,0.20972446076832252,-0.09036212178575459,-0.1665039146139875,0.20295308482402427,-0.12314340827725745,0.2248293010449503,-0.01153905445006519,-0.12049501658155043,0.393860576864766,-0.007948308602526119,-0.13849191413763684,-0.16476695733521823,-0.020143623738093714,-0.16712134706364865,-0.046154586216612614,-0.050570949135791736,-0.15158442465661764,0.011823375148056953,0.10181400933611454,0.17891895629476084,0.056405084649883495,-0.19647004993474954,0.19207868077395274,-0.08911756608806888,-0.2817262819970438,-0.029305470234101922,0.020854224527474968,-0.03282788103716063,0.018291906133895374,-0.06641080414267174,-0.044954029494255816,0.05781438795756276,0.020678433950466597,0.032545193307482304,-0.037671784540299354,-0.0677313965669707,-0.1302401543998348,-0.046546164954589526,0.05033013528530841,0.06512934219322564,0.11474501950667275,-0.16824897965585175,0.03414763363448837,0.13750526489401502,-0.07004595261666148,-0.024041982596344262,0.027468244017340236,-0.10632456380977859,0.12686011377707537,-0.0012447689270107638,0.17143731005169136,0.41203151958181783,-0.12717165025034005,0.2728670800487396,-0.3109791321027995,-0.03319785662102933,0.05946343885766429,-0.20626207962077364,-0.12354312683450966,-0.059639737256406256,0.07393250352947572,-0.14455579784973696,0.13015789386841373,-0.05017957005722285,-0.07350854415026402,-0.12339675483985614,0.19090692308581794,-0.04452460962755244,-0.33776611293729447,0.23649942308398775,-0.07539601978154303,-0.004180505158602313,0.1964730209294278,-0.13352616520200408,-0.12372143544745932,-0.37558200314668566,0.048392814269440025,0.2811031032983956,-0.09673103269013025,-0.11147282221836678,-0.16034821031272511,-0.027988554928223892,-0.09610970723108882,0.06024758240855277,0.028939834596740564,-0.06047266037508178,0.10688729430917372,-0.12697894692882183,0.028072233018576573,-0.28344958356466027,0.11036610590122359,-0.12726063019062797,-0.013796434897714505,-0.34690131774208355,0.04220878808395669,-0.154618259724347,-0.09220807837906629,-0.09815669159306506,-0.03405701558495663,-0.08751850752067693,0.061219666610571016,-0.1298330722063197,-0.03225390896339712,-0.22015498703277428,0.06639103016872097,-0.19358730699301677,-0.3892721517779066,-0.03661294589851227,0.27518253236868223,-0.14496433835013817,0.08006560543557101,-0.015546689327718757,-0.10088118780731693,-0.002822390823554291,0.17470095675202574,-0.04173086937889394,-0.24366519437363174,0.07531640952144295,-0.12394966838030758,0.03061120281692853,0.029792195055619607,-0.08224047072291896,-0.09041780085575993,-0.020297694728759075
0.10686936642502197,-0.003139794591734861,0.18509754432130848,0.0021005015848138088,0.008808518340125051,-0.022771933636085602,-0.05791757684778242,0.2687334760701078,0.013432019080368363,0.025986683527201546,-0.18926994422597535,0.06200730365680176,-0.06651374539008281,-0.005339187591955096,0.17129367485864858,-0.05530346220301497,-0.1849526965549202,0.08496820011459129,-0.10223037170075343,-0.02281991699703594,0.060121395235649466,-0.09577800179269465,0.050953229636563166,0.11702233979676226,-0.1853764950650196,-0.13182780847430195,0.11963595235877801,-0.17210120178649593,0.12556739270889122,-0.11585966265005071,-0.19671626395851732,-0.08541614214016018,0.03399423706840256,-0.05027923250124463,-0.06724021846108168,0.1760803814436877,0.0009092075819487352,-0.028149640003950985,0.0018491723947949336,0.1670405842592871,0.1799131786950866,0.1907004114022814,-0.13950220095339305,-0.04021411535818401,0.06556989623784934,0.17367934138465607,0.1324414277064951,-0.06522428625393853,-0.01567754718303364,0.07360630629051179,-0.008014804670526232,-0.11960502330531216,-0.005519312702186324,-0.04706471306353347,0.04072454069385409,-0.1048334485701678,-0.11320446953857212,-0.18082872515986065,0.09921391259970463,0.0014067323519078763,0.0949678806287823,0.03857761438495752,0.03547726038654835,-0.07941079186900112,-0.1758598366420349,0.1022404159843338,-0.11906311573838771,0.037875841216560395,-0.0005247359341002491,-0.02467036613114419,0.07107238573676879,-0.31518251515954904,0.003377825468408816,-0.022553796906774053,-0.2618154833636306,-0.03161055458844423,-0.013306999312529917,0.0026414066605606494,0.007764013658070247,0.12053594995002792,-0.2866357420208849,-0.016921614485206328,-0.15794836714674226,0.059865928052410124,-0.047179286857813786,-0.08717008321710601,0.09849424698169061,-0.075808104114517,0.0787727988357643,-0.13465738253658488,0.011399015367571808,-0.07407388159335557,-0.1752547447101151,-0.13057979202111877,0.06193967982023042,-0.13038083926442412,0.5575926092662143,-0.15042124455319092,0.04846007820975752,0.14432582671307503,-0.07852806696793753,0.07583230453801364,-0.08574814876697226,0.09878452995301808,0.11447253826951488,0.026108706320834365,-0.08079898082665647,-0.0011540691155023455,-0.03876995625306683,0.26529161523022654,-0.039799978178453314,-0.11636550551070055,0.006874881513926682,0.17346507282618576,-0.10404229531209092,0.05854409243530827,-0.031573674152226304,-0.003470291303797487,0.050109748587734405,-0.04270586083583222,0.09753970340125846,0.024391320615323713,0.13567246215521556,0.05994780995676173,-0.14088317156194524,0.07457486687576194,-0.17936852868759187,0.10581572527188152,0.004889268708543318,-0.13143611625811255,0.08189820094201791,-0.13247387940978042,-0.09835001739784165,0.13647900665905088,0.052474539751089976,0.2310797404416693,0.06624218853905367,0.05110809038523876,0.10236242574839474,0.21858472295463324,-0.04904106500150761,0.0036114293630296022,-0.1256083115834725,-0.09007567769092958,0.059268347794652725,0.017102603984059182,-0.009731118286288249,-0.13274838934419547,0.012478470654788706,-0.12805075858371623,-0.10913268226474065,0.145224459805419,0.06291733328928449,0.0845723005052505,-0.025474573227744036,-0.005205385021062775,0.02466043341892601,-0.02853463382595133,0.024660164878862564,0.23441035949143466,-0.0367496213089644,0.1608574853115808,0.025078617041875615,0.06251715813106677,0.08131408405860036,-0.10259567878975297,-0.014898419586217295,-0.09370813611774728,0.09871586968352278,-0.055089776202473524,0.09601575453600113,-0.018357201809196578,0.022452177047722403,-0.06547836784503074,-0.0043427432260789035,-0.07711845211260743,-0.005110414851180547,-0.10152993439625722,-0.13438083538638612,0.07807478468387215,0.05394755937876428,-0.01862455248880368,0.07329686898905977,-0.023050183971603144,-0.013161365148371088,0.0408959097114633,-0.1902488608107908,-0.08834498810529874,0.11845462682011083,0.0797594188868841,0.24515484725164544,0.05382834194308196,0.2802389974849145,0.030024208859795464,-0.0014285673845518695,0.06276320967945608,0.016362938210099192,0.08194352428864185,0.04464222139153857,-0.05222827940120702,-0.1271772742886392,0.2545882207570391,-0.01645239849298975,-0.05866681668747327,-0.04384502083677916,-0.03199509540713027,-0.05932226500598313,-0.02164576506393646,0.10611274033772694,-0.0628936520355534,0.10416217523539197,0.12763884727747896,-0.13233600331326337,-0.07379337479443689,-0.1992897399908955,0.028713269506046066,-0.00532756821930928,-0.003282363521557803,-0.17599802469979658,0.039439158395410935,-0.1389971371427971,0.11438016290734737,-0.029312366393238094,-0.4226189879782367,-0.004198546941919602,-0.048563161938389866,-0.036447951894530935,0.13871062395900374,0.13587939441213612,0.054041557291376024,-0.15666913467234464,-0.1188735525438507,0.05198660176720439,-0.020382871028378567,-0.18983018753475644,-0.06914513553852734,-0.17686058616266873,-0.08683053489475853,-0.20699053465074033,0.04325485941693613,-0.08150832557904529,-0.019432516815521318,-0.06553989650600985,-0.06327753240395853,-0.09278822120007649,0.009436313019088908,-0.03348952834234438,-0.011574499398011258,-0.15515775870218468,-0.24036455681526142,-0.06612958315495848,0.0934481182445797,-0.0039039462461157737,-0.05763573327871864,-0.16767333666816814,0.15728504084453462
0.10429467778524397,0.13827118946365435,-0.08127467303240454,0.2738103302778495,0.2385239920998345,0.2795578198571286,-0.06108758098892818,-0.017925595068992335,0.1109280473781886,0.07428111375426674,-0.04746519673745064,-0.049893389134751824,-0.08450434708327487,-0.04698174234877137,-0.023452822096887788,0.028869745020739995,0.14800991866884608,-0.18896649944792093,-0.12285800957975726,-0.06654408441820746,-0.13269330324505932,0.16600701435297405,0.24873022446245613,-0.0030423594566835813,-0.2834710657464975,-0.14070362008280796,-0.014913757243230177,0.05926637870879399,-0.21112374441522627,-0.09440209242177044,0.061188240791423903,0.049313154560542104,0.09099288722187497,0.02155928071179773,-0.06610927223173703,0.0870700528968147,-0.01870394106288309,-0.06141768210321894,-0.23672068195161453,-0.2582996397475159,-0.11373438082592335,-0.2787936494935412,-0.0876310330382037,-0.1870758263174343,-0.06685397275884522,-0.17745428249597486,-0.15594245993637681,-0.23940388606770036,0.10737184588580885,-0.09046484827755502,-0.08468144542733258,-0.12685779146886236,0.08023080798513381,-0.03945176315214724,0.017373284425165787,0.14240116715779624,-0.3491629659921821,0.03774874504341427,0.007645204284282546,0.11398877243996218,0.17851420949855254,0.019189817851238376,-0.048843165423709436,0.02998286198181882,0.11320702460076076,0.049300440888661416,-0.343554521000735,-0.07312968476833308,-0.06456199993241804,-0.2277841980919342,-0.014619753038800726,-0.1651621899289519,-0.052590539861731525,-0.2961953539445853,-0.29780603525808325,-0.10540183834535505,0.10995005472213215,-0.1848531461652692,-0.04245955682736084,-0.13418287131675047,0.1502456165677596,-0.11728161972217835,0.11574925194111452,0.2813815964020811,-0.14153747039155337,-0.017303249160454743,0.05893069815275401,-0.056425981939834925,0.029711252345931628,0.0738874887874879,0.04494252093871257,-0.02538448808620556,-0.2643768330915639,-0.10738594664220667,-0.25270693048227993,0.018097545685603615,0.1900231485978173,-0.20194206794613176,0.08473069894795925,-0.14123903624939685,-0.101892626180998,-0.3769942388064959,-0.07721451648724435,0.03926902258959544,0.16077797404700453,0.08956467260556887,-0.5589292444915117,0.06603520114480835,-0.09532636133194587,0.13471155633874848,0.1782732898580354,-0.3686903545137173,0.1381486815310866,0.19194073689097063,-0.25112098354433676,0.0988090958508117,-0.0073143153927703545,0.30031860098853014,0.016986992896665404,-0.3237250329637432,-0.006394342726972549,0.006604182920690201,0.07278517894053205,-0.00336402595256153,-0.0066514933676627905,0.03912199259120014,0.011954309250612688,-0.23508750965776443,-0.004942274769325081,0.11862991173178176,0.0028424444337241065,0.08223951232150066,-0.08269603079175283,0.027942379953819298,0.09769144212655331,0.29778228834472986,-0.030570949285451576,-0.1052083614191927,-0.036662292854800084,0.00827958354843197,0.0004110333979111397,0.24433184624878243,0.07917441303906904,0.2048603186572667,-0.11466129205991976,-0.10457866374051095,-0.10607197329442282,0.04701131741855319,-0.04276132111955316,0.12403495140730926,0.07481452445703643,-0.018257668559060386,0.07179404631967656,0.08325023457639606,0.10537799237199652,-0.10729248236448066,0.09531913788495912,0.14378573527221136,-0.15388976532982224,-0.1693393356263859,0.058585681209432874,0.042232114569291074,-0.02858032056717573,-0.35275579190015194,-0.14948765405935985,-0.05495784427422608,0.00480775697946898,-0.260792430032265,-0.0287826507848157,-0.15607440038666384,-0.21265912533984319,-0.0389893174566078,0.09390302867698742,-0.5372017063427821,-0.16871034037551477,-0.09977068324084339,-0.1307777855376408,-0.2744703098321856,-0.1192711094844298,0.13862341498658814,-0.024666693904076265,-0.017474220516681842,-0.03364964211741295,-0.16023560524164146,-0.16051855733181614,-0.039790314469170106,-0.2823148540696434,-0.033419787747639304,-0.023672545787791467,-0.030835106739000973,-0.0009917786572323489,0.06431225971472294,0.021187952554914395,0.06582115920717514,-0.26302788758012907,0.08207520164416664,-0.009782013721439786,0.01382333348567539,-0.23835122952911622,-0.04490614030890421,0.07092579079916372,0.061996159307393835,0.0003246290068336974,-0.25199740764921924,0.08304998453821581,0.027297432159251865,-0.06277368490661493,-0.21664265468726718,-0.051832050040255914,0.17130211152291852,0.1508264586196464,0.20747957109316953,-0.12949955294593274,-0.11915159162471316,-0.014164511643498894,0.0985104127780152,-0.12330974550399454,-0.07440700108285792,-0.1512477480528667,-0.057054741152665275,0.2336411609378866,0.0057084016847251855,0.023501067555615235,0.022933410249677273,0.029278468011015545,0.03371924493395559,-0.09327559830869867,-0.17323448910784683,-0.0199535141965417,0.017980493411664338,-0.15329460875429687,-0.23222099471038538,0.05245188180961228,0.06301779852512984,0.10773978740838228,0.051399847069525384,-0.2162092424289066,-0.2658929617343377,-0.1683951336356289,0.034260038756804966,-0.07598911411386129,0.0018330736597128286,0.06581261684500506,0.11245479058601046,-0.05606838241944477,-0.06896453446320189,-0.19933825054298632,-0.2005011246780042,-0.07563575279440546,-0.10872668760793246,-0.04428991719667787,0.07415341850132666,0.01895302680071934,-0.1276221542576017,-0.03749562929124741,-0.08377961786020931
