0,1,2,3,4,5,6,7,8,9,10,11,12,13,14,15,16,17,18,19,20,21,22,23,24,25,26,27,28,29,30,31,32,33,34,35,36,37,38,39,40,41,42,43,44,45,46,47,48,49,50,51,52,53,54,55,56,57,58,59,60,61,62,63,64,65,66,67,68,69,70,71,72,73,74,75,76,77,78,79,80,81,82,83,84,85,86,87,88,89,90,91,92,93,94,95,96,97,98,99,100,101,102,103,104,105,106,107,108,109,110,111,112,113,114,115,116,117,118,119,120,121,122,123,124,125,126,127,128,129,130,131,132,133,134,135,136,137,138,139,140,141,142,143,144,145,146,147,148,149,150,151,152,153,154,155,156,157,158,159,160,161,162,163,164,165,166,167,168,169,170,171,172,173,174,175,176,177,178,179,180,181,182,183,184,185,186,187,188,189,190,191,192,193,194,195,196,197,198,199,200,201,202,203,204,205,206,207,208,209,210,211,212,213,214,215,216,217,218,219,220,221,222,223,224,225,226,227,228,229,230,231,232,233,234,235,236,237,238,239,240,241,242,243,244,245,246,247,248,249,250,251,252,253,254,255
0.051339607354777946,0.2742663388032218,-0.0676161100697191,-0.2770887937861033,0.13017336462647697,0.2736362726112207,0.12766301359748994,-0.18522487564297266,0.01103939978758587,0.06206741836428216,0.22727783412841146,0.15277855306248805,0.05002342151726715,-0.11483918568986835,-0.04714990370892361,0.006784529438214723,0.015846771445677584,0.23075391350275135,-0.19105464039680148,0.14294429425713134,-0.08028401357610249,0.039384342691780205,0.16290030115588375,-0.07958936006969913,0.005859886090214206,-0.028024234181439615,-0.004542137491824958,0.13976500583825038,0.2370557196300003,-0.2810358214308648,0.3032601485717467,-0.08853155371692324,-0.351081064602699,-0.022313754984543573,-0.263250634011056,0.3444210907630602,-0.0586254276543235,0.07702587368127299,0.022629624429757574,0.12425616005246841,-0.1540422154459914,0.11752560600856382,0.15296877432320782,0.07612473676965548,-0.18932910836528227,-0.060186258641952387,-0.00481009933978484,-0.20955913009879126,-0.09609991979976482,-0.09738253983778489,-0.1528740784254246,0.11066716142921655,0.05467267661626052,-0.07445312389766766,0.09916665289029189,-0.027448904260365323,0.020373693783381344,-0.072780974374869,-0.19572269453023527,0.21793688960627194,0.05934494843107067,0.1579093467157657,-0.048132687049978515,0.11846363857459924,-0.1799341214960896,0.05679867063815145,0.3877582338739377,0.2179887319700318,-0.053930731779798076,0.4116266349383788,0.38230130929778233,0.27169088558318105,-0.2277284753376186,0.13912443487596085,-0.08341192044376547,0.11532664029900379,-0.2563382557455515,-0.15148632433941572,0.061151124851984075,-0.31972828589167485,0.37061343563989213,0.11329843758438267,0.38538078760988953,0.026442108857555928,0.139360440428854,-0.24709215230131953,-0.04379386141557545,0.06740141566451392,-0.16240937047813048,0.055929258676601236,0.2177162978480628,-0.06550088265315819,-0.1593484928077126,0.06491183304272746,0.11092051325967431,0.1315728634249852,-0.023225770530033593,0.21491461957428534,0.1823457531689052,-0.0042358194932077455,-0.07876796671973822,-0.006328692760274439,0.00613622512122638,0.23751237295520503,-0.4251359591110722,0.10610484601966569,0.13420579342206876,0.14049767277848538,-0.11216609505758832,-0.10016897140174066,0.03432340335610962,-0.2834218343466838,-0.009415340434864593,-0.11179329406068302,0.17110228640522834,-0.17864526782936316,0.02179067576167984,0.07906352600294471,0.10286649084359918,0.1824824003129246,0.09515030969235307,0.022827185101539846,-0.13093013334252376,0.2258499461214205,-0.20306715423550598,0.2222800038165535,0.2903784735708523,0.014548928078622547,0.03619757716779181,-0.050549399721669774,0.11589249426247877,0.18269062462833907,-0.04138454333371202,-0.2523351837797763,-0.4608321740851881,-0.021639747221056358,-0.4454370635114608,-0.08016956598736265,0.1313519189887257,-0.016505723459075184,0.3052440962480923,-0.003030536670020997,0.13462978987159283,-0.11061900107573577,0.21804034722675703,0.02509797090568555,0.24198868980198684,-0.11208005673671549,0.40999673104505585,0.12384997425756901,-0.028348115135828564,-0.19872718807468384,-0.11750991315374976,-0.38162667982819404,0.04322644443707585,0.10862891373536113,0.07750327667374599,-0.09894410076263986,-0.036188206925228825,0.007157767157871191,0.17388513650001655,-0.06505057697751519,0.03246107623293898,-0.1107822780075473,0.3391454535925782,-0.003489607998473853,0.02597382633275438,-0.09756797936999712,0.01955616729009764,-0.10951503436153519,-0.2458226973045148,-0.008056764016995687,-0.10893734205411344,-0.06586689797568873,-0.08837734528232619,-0.1718747576235398,0.24233983844470336,-0.023391246375253496,-0.1777316658633935,-0.16743694616164886,0.3668136909963918,0.1332702965898445,-0.1360832814207996,-0.22917980850061462,-0.06704102362206843,0.07782248321824829,0.03116288599544566,0.3846414851860668,-0.04872700988523542,0.21927752467196868,-0.20043604591313433,0.03518005947672558,-0.01111431893909603,-0.30100151776383266,0.009820632468781874,0.021364188127553065,0.031492216052699765,0.019899934006302182,-0.21230536747174802,0.019902959506442757,0.24192279549962972,-0.09726342695186625,0.08201244507497707,-0.062262454656797014,0.12722812248955723,0.4611052634952004,0.03986130048489694,0.28730490804264613,0.13902083757196726,-0.1803838714565352,0.08668100249809457,-0.18357993808353426,0.21424783670198583,0.08180271825609058,0.10923847424917142,-0.046959141559846006,-0.17567955661372206,-0.09383643669570829,-0.14175905956200935,0.186645901604227,0.06477346020843176,0.01210493218887677,0.0025920219858814055,0.044836098010809,0.05387811804520959,0.5810536275444272,0.35659114653709856,-0.056022908047789054,-0.05125287667905506,0.48045365311077276,-0.07292979307250665,0.08238864607626965,0.12182000689867435,-0.049158179676752525,-0.1859781241180399,0.0472420990491188,0.0741014083616772,0.17265228411556538,-0.08288712581070927,0.1946887065179059,-0.018018991301367655,0.20863096019414157,0.04730446431456151,0.07724778909094644,0.1202186285750186,-0.4255772228741725,-0.027493184509598582,0.0128585930367843,0.03768937078713992,-0.33223520693619873,-0.22772635709993497,0.31659030326711113,0.24654202591409824,-0.1952611569927763,-0.1255432019805223,-0.03993378883556296
-0.1920658454716391,-0.07383891283073889,0.03722064279908055,0.0865677378263921,-0.02657972142267009,0.1759478410157394,-0.17541464245113972,-0.2619215701576075,0.6023106325457313,-0.10630382037812659,-0.05622188188413219,-0.028082407070385226,0.2588928889982242,0.22785190640439237,-0.1856912990467736,0.23462965021024043,0.0963463930505193,0.19012582397577169,-0.2958679512007555,-0.2726521422378392,-0.07695863920222308,-0.17591824450850568,-0.24678028436948932,0.5176875034671767,0.25457689396600824,-0.06907741812253125,0.155304138098801,0.3869032077493135,-0.444639737688442,-0.003400058073316203,0.16119364428713198,-0.21691906115608425,0.1300588737117437,-0.3022167021154378,-0.15574325930358818,-0.35144808216966283,0.0285575998792187,-0.016932338550673897,-0.08127868487535211,0.09793109756749052,-0.4280466959111512,-0.021451752117651376,-0.02309079321964024,0.19227833931017216,-0.22385212578175417,0.30835883524204594,-0.10555859907761722,0.2842384510022027,-0.10321930796753809,0.018629445581620847,0.02668203196043252,0.2893434354317749,-0.15750326281823052,-0.37640365524581454,0.24813338720004244,-0.2654152188581386,0.13288021045042003,-0.11929062338288544,-0.19287307371644305,-0.36371462974969054,0.1785123542655777,-0.1594227589402765,-0.07706410486573909,0.09717084146876365,-0.08395328061223715,-0.15701806295593293,0.5492367115342256,0.054159843098837826,-0.041196114845197966,0.10852957159361526,0.5718346916492403,0.24693973809778044,-0.05443223434983022,-0.3681379781592462,0.15193470869056633,-0.09019813522838185,-0.14315934764498836,-0.4603394447293326,-0.0037275805428237693,-0.14910398560860047,0.22995915129728423,-0.27437665627972646,0.03269079502156717,-0.15772541155326672,-0.18953869836834436,0.28557670618448333,0.1354685264941403,0.24626112138677078,0.1605104782459881,0.10469854731940381,-0.06659352960123002,0.32970201706869995,-0.0014287691622474831,-0.09034105208145228,-0.0016887055191656042,-0.008142569935490805,0.009802360053763977,0.2674546961930435,0.4403119324049838,0.09917521205162985,-0.16433868855113337,0.16533920995894794,-0.0014889336057474268,-0.026294374084796113,0.044581648306888724,-0.2621575781825403,0.22996115500462974,-0.20133262086780973,0.010412121654748908,-0.04778164214139728,0.092044348480785,-0.05943076483477479,-0.46299782339229784,0.21622614450779779,0.16219854022584895,0.023512501942695274,0.18491871377088512,0.33651208474316874,-0.1749986794331379,-0.11573524968809083,0.2449500749884803,0.1347635743474497,-0.11016452609542392,0.12381974604296195,0.1384685227471849,0.047604798615117,0.23958555167277998,0.2707382598472246,0.05256765985819268,-0.12317453879184345,0.37578231035048576,0.053416995646120534,-0.03943615275584386,-0.017662495008020293,0.03399580637368667,0.11828906004831316,-0.12042864610259706,0.0821043760874562,-0.03412351630066055,-0.2216065735591679,-0.05376751894575289,0.10966010842984383,0.17216950388325483,0.22573791345098665,0.0829353378742489,0.1534711155880586,0.10076597911977175,0.10816828992399916,0.36542582172334,-0.11083015318692774,-0.0797505859152821,-0.040267975876018866,-0.033011603484322354,-0.1657260209973096,-0.08743096916804326,-0.2387590162645291,-0.15793640703436204,-0.10740474501858903,0.02781432322024415,0.023835395626469854,0.1417131708720354,0.03143474612319542,0.24313430746497816,0.1311996677791617,0.6022802368903438,0.2821595017566875,0.09562785065980405,0.4415415403981056,0.20719936422715937,-0.016151691834233876,0.007298594891950547,-0.06141089958570501,0.18387118979943326,-0.039408723597035955,0.15870551643408903,-0.08371331154854096,-0.2626762725391505,0.11766918771795545,-0.39660448962656686,-0.13683090935071807,-0.13781516878833025,0.33241115456557213,-0.2368580303708927,-0.24653027164300254,-0.3117171543279216,-0.05906550517641032,-0.16051344632547912,0.05837445728746684,0.2589248776579259,-0.07106112241763214,-0.2542455852558244,0.3670497794188205,-0.2653760770289756,0.2635900997836117,-0.23945982270028177,-0.13210060964301695,-0.27404237873641624,-0.12270499387772396,0.08338797435746328,0.12864904864496454,0.21160382350267376,0.03675064319655847,-0.09642052001387878,0.05633128155601422,0.17827287079469115,-0.045964743937779204,-0.1863609179178815,0.296746393197013,-0.1064156555015983,-0.1795861445565926,0.27919334037904486,0.016598121397888268,0.6426428305617723,0.1232827678984511,0.11697232836257682,0.041332412532191984,-0.23288979789954734,-0.07675625882128106,0.252042128008149,0.009791512604701985,-0.17641948769817678,0.029906867581634414,-0.11316283899033021,-0.17773680218419696,0.3021620485498777,0.2706351272344133,-0.0775421585887039,-0.10352415328784034,0.31697085476025677,0.24359298669574514,0.11349506126910726,0.24195660085566523,0.16796667948563976,-0.17386204179752374,-0.2924033982258201,0.024181149383253945,0.2995059737576962,-0.03167430694488338,0.01471252618620309,0.1542965794986649,0.00788723463743652,0.18561451007788185,-0.07727508584042272,-0.35201072855118387,-0.050709108323081446,0.07174221085730195,0.007080016657675713,0.1699884371717671,0.2433975673088774,-0.24610548323314155,-0.1575457555922272,0.03668769151781792,0.06924748041399562,0.41039962477185893,0.10756772158987878,0.013707640149250614
-0.20321952202102644,-0.7809853941164389,-0.33356891616654477,-0.14551767198625962,0.236290423087568,0.32313174361503855,0.26561770705083715,-0.1452453047807449,0.040440435380769406,0.26979739593387103,-0.29121128129577967,0.08115351578346709,-0.012822683918906898,-0.3667930228715434,-0.3345653715309624,0.18365017737713904,0.1556337196521191,0.30381201356135484,-0.24214657979120682,0.06544098722263855,0.09588328325005487,-0.0075722165471538835,0.17605806281998734,-0.13523220236140449,0.40692973728414294,0.14519502300856899,-0.36585793162259383,-0.34273367979251096,-0.06453501907061658,-0.15257381046272367,0.25700350186965243,0.05597653364008584,-0.016701429645854256,-0.14504942434796675,-0.44026702550499464,-0.3511133417012484,-0.07318391952926198,0.012085526694601228,-0.05649910937716478,0.18028806031246708,-0.3099875483573179,-0.13301947966227629,-0.16883848250320085,0.19916089614190974,-0.01633021482684818,0.062482850810199234,-0.12959408185352417,0.29306157602092275,-0.1718594381574377,-0.15231519427349174,0.036792542206356735,-0.14730532840152158,-0.33673698594744345,-0.32848182602667425,-0.17490950663985566,-0.17615076023894446,0.049727221526467524,-0.1384752766285071,-0.04972923866175727,0.21581309364255793,-0.09347655414947008,-0.28924351345743504,-0.174799454414145,-0.1841762971048546,-0.10893945705481117,-0.008390997976163692,-0.11245530918403235,-0.10023310821757637,-0.023248673965117095,-0.482504884542293,-0.44491117376267625,0.24091510883468154,-0.37192334619252193,-0.15219294101194306,0.22964126783727773,-0.27748297797365656,-0.0855574040421044,-0.4085800149672929,-0.2096984812120791,0.07105633554188842,-0.23687747216700053,-0.15440463105287924,-0.16322118787104858,0.09342556787512821,-0.05908034282785816,0.23266235043566802,-0.1258881230598471,0.2445520011972724,0.08920870326702612,-0.2800230670197717,-0.04450051247871988,0.08583680330908015,0.042536458989000034,0.1296290792997504,0.13682094939970188,-0.17976331309356533,0.042386311867326415,-0.232236754213227,0.054951572792797804,0.30796006106034607,0.2456868460264016,0.09090808642724221,-0.15282606615454167,-0.067120191400754,0.15558410485526772,0.06589367943931661,-0.12098512134956947,-0.13887672698610223,0.07096886984198339,0.07468283120456287,-0.18086179971767996,0.024653121992508006,-0.08077938699048219,0.05738700938509552,0.07163426802671807,0.08563432931783953,0.15788271528002418,-0.022622048217672483,-0.2125632869109369,0.06230784067602967,0.07000134069367762,-0.013654341155757891,0.0263610366304109,-0.08132378125119047,0.029161135414814732,0.18322838484688764,0.11248924541019824,-0.005082795793214933,-0.012920953073960375,0.0792208634580056,-0.028588427679425318,0.24288177311757905,-0.232207739079287,-0.24518516319815215,-0.026229606811376975,-0.1623621679760397,0.14164572146470045,0.39426881303381833,-0.023970720003491916,-0.1877947148776259,0.3245399923672099,-0.016640169669377917,-0.1634900338355365,0.002956752175865567,0.09917964816262101,-0.05734271898646619,-0.0886654736339095,0.14503255152546882,-0.2566433280562137,0.05903208332480368,0.034392049561563685,-0.12165133745581068,0.1787169703947259,-0.0014945390927147096,0.20004824266640775,-0.034132911396896295,-0.0665638740996006,0.039000368315911374,-0.014813841513803466,0.056871794892473855,0.11663072273141895,0.006663775066721913,-0.009176911339769717,0.3909554724903606,0.1981965149544119,0.12438015701883363,-0.206150472614014,-0.22725774772212037,0.4115043169790481,-0.026333616496181808,0.1219265238607005,0.08042135429089523,0.11693776751015547,0.24528372625015019,-0.12914167588066783,-0.12121707745053857,-0.34489313490201906,-0.08800177134043372,-0.24887434818588278,0.05421882156402046,-0.24410809812288986,0.24323339252667958,-0.010135081300358478,-0.15212858576067514,0.039681123322838206,0.07633248545925589,0.2905587084632296,-0.26806228054130143,-0.25914108857546003,-0.19663006491525484,0.2636742338855677,-0.09593200945361599,-0.22404678774444395,-0.26491874787713215,-0.28706425682607245,0.021336841853734828,-0.22911675585353095,-0.11102078873991829,-0.09720247379373233,-0.03451737533300676,-0.11568560422194289,0.12297689395692067,0.48341149632459496,-0.041410731910825026,-0.07323315710813101,0.15577256836061,-0.04338239456478007,0.20468864674132817,0.320937780413094,0.009936501917784678,-0.05567972605350893,-0.05033438517729853,0.34509206334156245,0.10477370386289367,-0.46827888915782917,-0.22224208961683417,0.15026816476876215,0.1743577973488816,-0.18417389111936452,-0.215367712738451,-0.014175818474171719,-0.05630693980988902,0.23787812700572267,-0.0789944275889432,0.08569447293198451,0.042723455072386805,-0.12074731356408955,0.14667387928744438,0.1698417502253937,-0.11096731290255372,-0.19335230688377578,-0.18539098825538305,0.32890299161433767,-0.05951519595701509,-0.15772730054876447,0.11213132348490157,0.06651914193538562,0.1905320032982213,-0.2312556559798167,0.09302362551506978,-0.05166394942646967,0.11092345805067519,0.16641479035045345,0.1721887979049017,0.037815907926926705,0.18522487289882164,0.08016466480173949,0.30437154339108957,0.011023398890048785,-0.34781068757095357,-0.28158058629789373,-0.049300656138686075,0.3309017959754285,0.2302715465627182,0.057281574234779045,-0.10455417531171028
0.10570536299929684,-0.1095960398194213,-0.09412821764624352,-0.1791850380134152,0.23980990705608332,-0.14056018039689153,0.3260666858090575,-0.07140264171602023,-0.10442936683634273,0.12781427712489124,-0.4106785842496225,0.04785201597104102,-0.0030006542476464335,-0.13469809333132263,-0.055172654045986376,0.14992216583223458,0.21189102433803372,-0.22342126967813453,0.026840919221377088,0.12139624284768613,-0.18707407510885732,0.07870543528607683,-0.0735195296899411,-0.08922674254704446,-0.023190393808681382,-0.2583443881300835,-0.19182916539316597,-0.011499298186221998,-0.00042758541602013877,-0.3682835127258229,-0.07808702755409873,-0.18192771567643817,-0.09792646063174609,0.26832873094539456,0.03276514131419872,0.07873213668748183,0.3821660380033909,-0.18594338243014058,-0.1475323250251407,0.05361174909412996,-0.04052904648328412,0.027525890382676308,-0.12796693858574185,-0.29224015324932817,-0.1468058904607454,0.14479547526179964,-0.34453408836520677,0.030713050282154458,-0.036493748658802665,-0.18434642677481183,-0.12722625335934767,0.15096638795715467,0.07822699065660632,0.09304693147667745,0.019787464568839685,-0.16242121308896149,-0.2834202730585591,-0.22465999173691442,-0.1863995499309557,-0.1029136972581265,-0.4857121811545838,-0.13850135019141285,-0.4598910662753484,0.019435754404988917,0.04090722232723921,0.08879786766109428,-0.3415339569195306,-0.0841849249834209,0.10680460362733851,0.20025754414083768,-0.23983815683829468,0.2709670403901225,-0.42017583694745814,-0.08865528671001376,0.2875307428259171,0.05855771862225337,0.14092442267135014,0.10280125362694567,0.2407817039398583,0.09204837825430578,0.14309848594394797,-0.20648475801712957,0.03708742222122543,-0.420027697145187,0.16325821325763828,0.2715196807006963,0.0523403352973744,-0.03797055869456871,-0.4254075502244889,0.045755302005626684,-0.030598373674043413,0.17187525649119237,0.09144498049234187,0.19028362638069402,-0.18484360571144906,0.16756937064275435,0.24583260264596046,-0.12752237810668549,-0.350174926038653,5.0351155697868355e-06,0.12967386178735335,0.183622980242117,0.023872653579493853,0.12320756046947659,0.06316418904449185,-0.1628779028939735,-0.13882288008977703,-0.13574249425208967,0.005284549979523039,0.11131639295829977,-0.08558308648837284,0.16039038045147827,-0.1979870999319062,0.07553472824599831,0.0035678622982007434,0.03402831021826329,-0.21633169936113655,0.24543947917742584,0.21708615310329027,0.09185903517738754,0.16733153031744954,-0.005997421598522843,-0.036818395177518864,0.12331628714501021,-0.25195113465007807,0.017730922054535796,0.023292790031331664,0.2859464841716093,-0.03498924263511313,0.08189118812539559,-0.018019541829801835,-0.11563458847081277,-0.05078671131711312,-0.06440259158486185,-0.37564546237116075,0.1325370906579335,-0.1957126464250325,0.015349248277849184,-0.1348916582459937,-0.2093370245032773,-0.20856622116537465,0.07081659952210854,0.11459100664323171,0.14955216777394548,0.02701220934722266,-0.2813860139562149,-0.43949888746879695,0.2988561933317457,-0.3614921933494156,0.13831534603333268,-0.0039029134510730145,-0.13946297875003585,0.053348662563705865,0.04322856256093044,0.08740751838911996,0.003272933189798922,-0.033063574287329596,-0.07374648477353407,-0.1833273005082709,0.0003539158694971403,0.0853299875392953,-0.03300171874886976,0.3148221865469495,-0.09390992722969017,-0.12508739256620216,-0.21095128606949,-0.37140560981250853,0.19375614850456238,-0.18669048511970043,-0.14692427871871214,0.11502339171450177,0.11247473862047014,-0.11902570454216059,0.23574167579200803,-0.025184176710165193,0.03117584143525439,-0.028151550107620237,-0.03139285092732638,0.017094048399153492,-0.08727429190638333,-0.17610168348552055,-0.24681018061860546,0.03287001139541354,0.0617882515623178,0.2286122431720489,-0.5621685342143443,0.22130858072616505,-0.3865729998983472,-0.09973481033712508,-0.3240953620795213,-0.13528028327140706,-0.04604630877429698,0.01779147562283024,-0.08599145249577556,-0.25260595637426403,-0.37987050940830436,-0.13582510764312977,0.020351026103680846,-0.08686249680814886,0.09849272728557856,0.03310333552090582,-0.1958432981158555,-0.09590727242962398,-0.2926350879794982,-0.014972818227208914,-0.08050620475921537,0.06588904246219962,-0.1462263273304927,0.12103113176127149,-0.08647438289185023,-0.13711387139599618,0.24466808174884314,0.08585765598239947,0.08736479587064509,0.29851501612065334,0.16430306793419933,0.11549019749405441,-0.011017829009541034,-0.3407499317489685,0.0656678151576945,0.006344615580257305,0.23991890297475937,-0.2650149291735364,0.21369706490006693,-0.27494208505444123,-0.3821304497067068,-0.22258366593319234,0.12607165109762086,-0.39890312957667723,-0.36980006443307994,0.09487524506102583,-0.012963707819113556,-0.28101063366999324,0.05749302425642382,-0.19021811383909842,0.03064679855435734,0.24622041004191095,0.0033508544859590338,0.13026425554004786,-0.10639211426380257,0.1835431612775322,-0.06472659496995015,-0.08701252506847078,0.21969417111544698,-0.056854801982662115,0.35936909170383036,0.1678945491115081,-0.0002721574200398756,-0.11364761785909869,-0.05290677669649466,-0.09092862269641479,-0.23286908941564577,-0.012335541622326586,-0.05733315159117935,0.08021395276371258,-0.26242890845442723
0.01737158678413591,0.017628266844343415,0.23026708166901966,0.09676407341382376,-0.025322111794936798,0.12697215200485346,-0.11910861853245056,0.10264828540131811,-0.02408419518557918,0.09474454923460593,-0.2955400520007468,-0.04576871753040528,0.00980658251914664,-0.29705304034047647,-0.1119215794666815,0.098458781422126,0.4622269573306924,0.16995178588009813,-0.0217004159948088,-0.5691996776201806,-0.33422861713020036,0.16728945751358287,0.24378204710408727,0.12163006996239341,-0.09894945735439212,-0.13440800121063515,-0.39581389471030143,-0.05216798989159377,0.008751916009584275,0.11930708474171692,0.36644067084977155,-0.12325508012732339,0.5298165467661486,0.2905300080404634,0.10203527313273239,0.19447378417132966,-0.16338973087054798,0.06568187652402033,0.12635170691482256,-0.09617873706599413,-0.4108905625164612,0.07931039142315859,0.10194375754476279,0.00930812564122353,-0.14093370456250964,0.1255347235174816,-0.2295934269829544,-0.09245110964182744,0.09314917331840027,-0.20833484567804625,0.03959830061823157,-0.06587745159843965,0.2318643323815469,-0.137779556214724,-0.22535364738282643,0.057792873218203866,-0.039543879678660354,-0.20529518008546682,0.09646201532659934,-0.5862182656796042,-0.10205158876742514,0.08724076972434082,-0.20404824298794014,-0.19191933980636922,0.1524686342931889,-0.09219894347474578,0.24003564317496173,0.0784554341459062,0.17391365322958885,0.12146197968064316,-0.040141881825651544,-0.3090988950605583,-0.2587628125477882,0.14976624044907483,0.08272022119692819,0.20382822816117402,0.46864930592791826,0.16076413550545252,-0.05994142727579264,-0.42246327270292905,-0.09717624377213696,-0.3947798668042589,-0.3612583624572093,0.047346632024476885,-0.11463585072368035,-0.034487049747891005,0.3210794407509719,0.036265706887572406,0.023655599959385758,0.13868272609844237,-0.14055261474694514,-0.20092920485200438,0.08295919894475204,0.13977251305692534,-0.2359948329893055,-0.06409732874702068,0.023118590295859835,-0.20478942572140296,-0.00503983316046894,0.015680569167458816,-0.27302604815354076,-0.08031167809095714,0.12894111843959902,0.2996619768831839,0.10051547022947167,-0.19259979212875777,-0.1233929728042531,-0.1985725558427419,-0.26604778724859435,0.06093884772092273,-0.3612481973799775,0.06866287884819589,-0.45318757942024734,0.1431371617724265,-0.05651190780808035,-0.10194563389328874,-0.31105175281856573,-0.30787849155974806,0.16553196632455777,-0.08696584327180944,-0.3188110018526782,0.1878808857810235,0.57722810596592,-0.4632876599880581,0.029899164398777968,-0.20017105247521744,-0.3205083036338107,-0.13312223805532647,-0.04799808016027421,0.37325374891986457,-0.27185844317283125,0.04422232503955988,-0.05121187775967529,-0.14800901702204972,0.03674752574285347,0.2911830469665944,-0.20208286844728982,0.07423949039317061,-0.12871712189307782,0.25645341993640997,-0.1514062747513549,-0.10893365210004523,-0.21015009325597067,-0.050438113675636026,0.12551345712795026,0.10775133230115659,0.05911574937425198,0.3286552281006943,-0.5650507681068563,-0.07377226532191587,-0.13921426252236027,-0.06556199575275612,-0.025332243591357495,0.07392791212700511,0.29533840057252064,-0.35729195110905954,0.13650683199399022,0.005425040393837718,-0.21921641967841393,0.12982448575467703,0.21599794837038447,0.04643431175051494,0.3743481436786943,-0.3409038964562457,0.145994963214735,-0.18147133258722162,-0.10247743075368587,-0.4882589976009168,-0.19621592404783383,-0.061294270421762546,-0.06083132558583392,-0.1166894598647651,-0.09681407113750982,-0.2001962941174821,0.01832062429141573,0.23049231414316723,-0.1505488038898509,0.013124140381674324,0.13160225977988665,0.26650426015632933,-0.17157996082159566,-0.02630816669067964,-0.32895987940037535,0.20757815409796035,0.174950981366418,-0.20504717603332492,-0.14991722211508074,-0.2600910377316629,0.1490918585776327,-0.2121631993980292,0.1410076179008815,-0.13026709871255499,0.001971234695321517,0.22787330897382652,0.06270511910151522,0.015294338210973148,-0.3008379441731433,-0.06739570382042637,-0.2887561612656597,0.21491123114092966,-0.05192295956440401,-0.061137349183051415,-0.2914894193106236,-0.1353406213564949,0.20239157631954646,0.1516834434744644,-0.11780261001293531,0.12779428293688966,0.0877256062485332,0.24821053536077536,-0.40578169758228266,0.15931962423473986,-0.0039427676312500624,-0.0382358638344581,-0.6382612118750773,-0.09257990787836788,-0.12290724865756651,-0.1358785456609492,0.1200598387256893,-0.03042867364014692,-0.11022884500979849,-0.20883682409501242,-0.19062222630372908,0.2788420547800291,0.28354893353901534,-0.33342842315033305,0.07774376453210215,-0.2713775370659897,-0.33932961425638425,-0.1277165061804883,0.23285932721950703,-0.04270643493957869,-0.08999687647529186,-0.21253228038467586,-0.24984140983018235,0.03081972967780363,-0.18651636614318268,-0.3818591249509301,-0.11858930075776085,-0.05412594551473502,-0.027384745200948288,-0.0492755964119585,0.23926234569176172,-0.021699923876140524,0.36548279084431756,0.0501240612589682,0.10529391095084085,-0.10931794162869746,-0.2407862235783554,-0.02398107337805574,-0.06477510437349872,0.05235471036938663,-0.3042368735525025,-0.1831848528420613,-0.11167912118161723,-0.007682758170291413
-0.03625987761023568,0.25216442095098124,-0.07120427266014627,0.08023328894580747,0.00609369248042069,0.04617632649123959,-0.1648409055875491,0.17517387827722455,0.12865352254762522,0.17737701099235645,-0.22020366630880223,0.030491145333170572,-0.25709650264614187,0.19747772814543924,-0.05687741174179361,-0.0711109978025598,0.3310732823852621,-0.019527167010092696,0.15343117668619188,0.3945279045673075,-0.0456989525990278,-0.020194501450275338,-0.19964851025070687,0.2698316773899306,0.22009189743090204,-0.33570911461493635,-0.003677418329017911,0.521277095356159,0.022559668024126303,0.021472337907295944,-0.06427989560898857,0.10971649225809425,-0.14200576120202918,0.309323721812066,0.03198804620646268,0.15757907997030612,0.07076168941146735,-0.13309379484689968,-0.13626367678339346,-0.21109690257989433,0.032288872865204626,0.17117011302712612,0.08856282956462465,-0.10357884441057136,0.17338443175939577,-0.2790708817766822,-0.198891149312305,-0.363177176385915,-0.11229857903160918,-0.007515206564322569,-0.10372019819185171,0.6332933091896188,-0.025143420068879634,-0.054789064363966626,-0.11104943249890407,-0.050110863966878916,0.05524469192873544,-0.0466127990962417,0.08617043199972708,-0.06586992349946184,-0.006917037598931909,0.10082281947875557,-0.3186992649351725,-0.24385147298253945,0.07182585382515987,0.1328724702012762,-0.017416966122640105,-0.055470936416163415,0.09600378491331682,0.5422174060861391,-0.022670390586908763,-0.5528529371933381,-0.2603098937037196,0.09466566743836152,0.35949771532048774,-0.00251246454555396,0.15943963047644097,-0.08108130329676283,-0.030050976302369123,-0.44597008911557234,-0.05103180500848622,-0.35280823834622504,-0.012542201816173774,-0.4419453064958484,-0.17429267738866622,0.10727190741381071,0.04039634322900015,0.13159034645974943,-0.16735440295869172,-0.008169649079919317,-0.05135878786611183,0.46439390919448276,0.07981347758756334,-0.14947036973840885,-0.19972241313092498,0.3209385997463618,-0.24114369243487652,0.23646577761727675,-0.06502602895658531,-0.23992760062764476,0.08805444399522452,0.00839558377541791,0.2063590392674787,0.4359384797419017,0.5703517511219865,-0.09931642780869317,-0.11005867296107008,0.005018379828950726,-0.09483954281873495,-0.005218742254034698,0.08958261822169539,-0.38691452552726613,0.3012004383019669,0.24657912803643345,-0.13182678621374178,-0.21938714163238787,0.42766313798901445,0.3454840387351712,0.23252886551773044,-0.10294772797098198,-0.5206519351536072,0.0364405352206591,0.12048363931702862,0.10934781636110551,-0.25463441935429004,-0.19068031722122747,0.2030988334045556,-0.23796081964384042,0.35834923640706334,0.1796646289995691,0.42036865072363844,0.00521740314885384,-0.40221570242879573,-0.10224211160044977,-0.3170567516079237,-0.466772394242033,-0.17778069852056552,-0.17795672690817985,0.06383661581326808,0.4068273333949834,0.25441410697769445,-0.21726300404097287,0.20860331097459867,0.12884022334036838,-0.05637084532217066,-0.31048363894587294,0.08147044237100602,-0.23205911829937567,0.4151188724140593,-0.0014399136548672534,-0.024171218057558324,0.08142412869977143,0.05328901555699956,0.045074013727833616,-0.09068099311828666,0.05684445226667644,0.05880012948107891,0.010929782861215473,-0.06005553305819422,-0.08731242503009307,0.16193683648418683,0.1738645940279638,-0.34453233819943024,-0.12094132577668838,-0.20569923367935553,0.3962376809206207,-0.026555528224092236,0.00718769727444561,0.0454164947405637,0.1017772473987003,0.13899014652260597,-0.27411524038169366,-0.3340224193093328,-0.250414037013407,0.17656047636763744,0.10580077321775272,0.010504178314010754,0.12197298746857663,0.31764175201573797,-0.3066742467693515,-0.13086963220538733,0.14259344523928238,0.191241694175528,-0.16008758407087031,0.05616293888954244,-0.04063563717521543,-0.09504911901933996,-0.4003563360848185,-0.01007492317202813,-0.32519056670271906,0.04569773953404779,0.055157683061896896,-0.01382990874610376,-0.060859691781934074,-0.0750874987566661,-0.46969030472302326,-0.06523143105083941,0.06806572991104275,0.20126740981317856,-0.08050415416855398,0.11501678665844557,-0.07913230417659602,0.060500750678587914,0.3294020220566628,-0.28946300305879763,0.200716433608258,-0.032513280339680706,0.10411350187215106,-0.18782439703356185,-0.09342753277198854,-0.3696554783765255,-0.19625083162769272,-0.23770440354204272,-0.10887811159023233,-0.13250286876415665,-0.11134045390822042,-0.004350937852149213,0.0085020700880194,0.2729297621171957,-0.08715006419344971,-0.12399464829903764,0.07944780306787178,-0.3041156042236125,0.10979797793163394,0.18337316711819343,0.19579263430442984,-0.04886239836698718,-0.1433650426159668,-0.13390139599240158,0.4916909163902777,-0.12069967065027103,-0.12721013251201274,-0.48968780608929874,-0.003259248333315143,0.025377023673468762,0.06198967785024707,-0.3158107003898294,-0.42728186914069505,0.05901402138286423,-0.037443813475294734,-0.5984766436765714,-0.04601961966794363,0.11274831598391509,-0.09909865148832663,-0.055644810210791956,0.026455865389728068,0.13509981142690294,0.19183252280464805,-0.0027202227666932705,-0.3137548287251797,-0.1481800482170121,0.09988178351035008,-0.3170000601237214,-0.07311241572212684,0.16623258283591918,0.18318603564836888
-0.0780691166241885,-0.07299376426749482,0.042858242520513616,0.08440032681372804,0.21537795907379056,0.16471144642334337,-0.19537988156825387,-0.15048213531117482,0.25380471454481823,0.3693699402313404,0.2627186864349472,0.11277444241577259,-0.03022451582756837,-0.14267643946294684,-0.01540011286751364,0.24004335476367203,0.15022069619970474,0.13009535659001426,-0.01477344606523832,0.007812100104609537,-0.043103854741474525,0.05387508088302118,-0.000323199480268747,0.11431982046216628,0.171957012686687,0.23983754308548738,-0.09212020040807783,0.2563309212930284,0.024367833739162213,0.23048622936109048,-0.22412708422440128,0.27918091865543365,-0.14782264107924226,-0.047153174454437834,-0.07730363486830275,0.22797844126474948,-0.25172857953580857,0.0817523049288799,0.018621019400794234,0.0015108564127356578,0.02275407684332344,-0.047234544537367563,0.025552708150184813,0.24525224694375028,-0.17153031844415628,-0.28190772177112117,-0.04200064749518072,0.06888713852186146,-0.07673282304469482,0.02439375875865455,0.023527965271115673,-0.034917780676883246,-0.2551936175336921,0.1724772475606567,-0.09286577355829999,0.07322861308659441,-0.14845341779757468,-0.002288787812061654,-0.16086082989323047,0.09928167828078534,-0.0003238514131901995,-0.0433163663390723,-0.012609753242943002,-0.293670164143309,-0.09015181257845754,-0.02128441448001364,-0.18916001098508528,0.13836527975962706,-0.03641959501668686,0.05906982070170986,0.423479234126226,0.0965692292930502,0.26299087453428155,-0.04016443526274655,-0.04890552150716294,0.016803048981193384,-0.08311775867896466,-0.07770479753522824,0.12961361028345114,-0.2181706684371971,-0.12848033682234367,-0.09841263915320375,-0.0008512230794244899,0.1006635276699424,-0.23021556491468606,-0.24256314624973468,0.07381881115478714,-0.10103911400023725,0.08755328572891537,-0.07346689727682137,-0.044399079274966974,0.47419112599679414,0.15865004876576358,-0.07228318564929909,-0.006675191980104973,0.021891762237781248,0.22825876071472023,-0.08353129806828533,0.17562444004954617,-0.03765805854500998,0.246234430715102,-0.18397600936466046,0.12749611826526377,0.09236154601966459,0.16848734086138537,0.1273886714516141,0.23715596882649032,0.05749312913641255,-0.03437092073508746,-0.01268842464589382,0.2809271499158422,-0.059246041507578125,-0.18720141271157917,-0.10330877865167744,-0.010274087048731466,0.024072969886265803,0.3217458408112493,-0.19178736289863096,0.2206142687738967,-0.19602313665173055,0.19627862085876724,-0.16690314513122242,0.0017505370535164384,0.03562659624502504,0.09470967768785804,0.6034980907503362,0.06408675636301593,0.2407618873605432,0.08624351396528958,-0.06683294682529457,0.1901602411350917,-0.15061074240755146,-0.040951550903371325,-0.07117276402232874,-0.07850642441060589,-0.22135032237797747,0.04704026596797642,0.40125232001098043,0.14050396678563537,-0.20545913538677618,-0.0038516660507647536,-0.3234963560569362,0.6476791973799257,-0.13925120613901573,-0.11668115011372597,-0.1918738392762438,0.367739576971148,0.1284923249535301,0.18352107610668292,0.0782228107325029,-0.022046358088247557,0.02697793696649621,0.08407616526184251,0.0673334346710708,0.0011694262379124956,0.3561083286976762,0.22330062837332193,-0.14449893030247477,-0.13873378823052057,-0.1000591569074258,-0.09033086951999662,-0.05647103521483456,0.24686464947832415,0.26279026422413426,-0.2580868780266208,0.21204660650261403,-0.046248877244633696,0.02778763452655343,0.22729610083393373,0.06530719927390416,-0.22141975898807534,-0.2344919439734778,-0.26461976798310183,0.1640091121055688,-0.20283412234193304,-0.18930794058512443,0.023046154064360093,0.027616168526944738,0.28518823557461237,0.022472378736113734,-0.1293531487342636,-0.008498327288041714,-0.01383819041047862,0.10589888009967208,0.006232047594007491,0.20770523846382602,-0.36001836047454583,0.024089566205486662,-0.3314780791487206,0.2846009623805607,-0.42205143911203863,-0.017506620874645034,0.0006113175617638801,0.24856983388702186,0.07273543210624851,-0.07354780252325316,-0.05834123018551077,0.2740834227581425,-0.0649231688630715,0.16516290491533778,0.11026618601533303,-0.06438105472218561,0.13240850841801338,-0.07897492135594789,-0.27152891751384867,0.07327421247132306,0.08115561031927505,0.203463600599287,0.10578232035620849,-0.021742311231987835,0.03939597137390687,0.46175386380267713,-0.2739246083861735,0.10055678322138717,0.09937745593992957,-0.3162720237506393,0.020597946879194536,-0.14357945879647185,0.2953431035098848,0.20043136788783997,0.05912826470268772,-0.3348397201248206,0.1606605988499864,-0.20980679628704366,0.2869866088256318,0.40524124837541475,-0.06834878267026423,-0.1084496469251046,0.1900145229590069,0.15805885223650865,0.15644885175218157,0.11110928078336749,-0.4097201533793488,0.17581272804609122,0.3231422029293298,-0.34942878285792944,-0.0791316146854236,-0.02977029469093949,0.5938289161281283,0.4128630120570652,-0.00611902958266729,-0.13668238428996665,0.1273198852950694,-0.09382585403461113,0.26526792384216075,0.10156855722896214,0.06654068010403978,0.12257007032574521,-0.04502622759825533,-0.002342606667352562,-0.12055102097408232,0.10104804582273147,-0.1464739483031894,-0.09356640988988375,-0.026321256810146226,0.03774531513670508
0.00750546850508798,-0.15243065992675595,-0.3564721631543321,-0.1878665830121143,-0.09752657476985946,-0.15415132453455901,-0.11936227691809152,0.0005749002524834172,0.026580050213332925,0.055103811502106824,0.3059753526556597,-0.13465215115979678,-0.13439481108492193,0.12211023839736586,0.34181681041382056,0.08355979775305791,-0.14618977860710436,-0.01838923947518079,0.02144470759503258,0.07137420043611686,-0.03190474139065799,-0.16909385792292037,-0.006062945271603128,-0.09576003116039547,-0.007093753423870346,0.17255839792069994,0.17545928608966052,-0.0790944937012778,0.13755260198631034,-0.08814396073015743,-0.10269405231047468,-0.06286362646547897,0.1428048308544098,-0.10742140943397609,0.29469246599129456,0.1507245370414303,0.13187934255730918,0.03020378537295214,-0.1325729110282043,-0.12310556797068173,-0.04390620686762304,0.21200020685724266,0.015338583602473763,0.18270080165311325,0.27569619950853647,0.00243420588140479,0.020503091133979082,-0.1386370067082205,-0.11979299280059927,-0.01628529891267759,0.11747722483050747,-0.2149845118537445,0.11396466795542676,0.2714781154466787,0.06844915646830729,-0.26640506642258166,0.1154946280906411,0.03769220572400402,0.03113725226214586,-0.17420405419612328,0.11920737114443865,-0.006704586451276957,0.0777983927211668,0.024391235458626835,0.28231112726038315,-0.02306172077362099,0.10046304104528585,0.0797066710842334,0.0987766669310726,0.14474677462996302,-0.15253841069796262,0.11384628867600427,-0.040376597874986465,0.2589383308325668,-0.10085150706440774,-0.08016002807281672,-0.08304600686975143,-0.3434859577330095,-0.34293098423281404,0.1466520727754243,-0.01457201036401783,0.09148871405442309,0.24250364240989006,0.013810496181235074,0.1046798311428685,0.044987825537713584,0.13349753989970448,0.038468809361419234,0.14163600855765993,-0.02297164775995059,-0.022428894347105256,-0.08096087622234388,0.3237170754498236,-0.0989858551611876,-0.011147354298022601,0.24318533183193092,0.1312002246850823,-0.08523112595296672,0.02771592736909541,0.042511563531465256,-0.10439414226563928,0.22767499232698646,0.06021410546508236,-0.05573883155063567,-0.12632093821173349,0.0906487076817181,0.10582462015600225,0.38838244148052253,-0.18836149246034525,0.10407932324139038,0.20922801912632114,-0.42058053061549794,-0.25270001271250025,0.018778047425886825,0.17385937276404406,0.06272366835746332,0.16965922411354603,-0.11136363697143374,0.26029288700301395,-0.042354857786384634,0.22373244115659918,-0.041522247259956256,0.15830356220078673,-0.17512625764913492,-0.05384003413342204,-0.06775709661930553,0.36264690520750903,0.07316478772900563,0.018574573652502563,-0.05302198200935026,0.04863061036734912,0.12257460128915515,-0.2919243423058197,-0.13248770841361043,0.053690372845055706,-0.0768622099500498,0.19642473006466038,-0.3098296554355976,-0.20091281042546763,-0.32418572512373317,0.0023021666144482514,-0.27877118126712946,0.26671602248221077,0.07529395872790937,-0.0068508450923884905,-0.3470458072095829,0.249337685131679,0.18235848516407896,0.09869694199373644,-0.14537962841298133,-0.07992866089669802,-0.017256223682876635,-0.05750422971326458,0.039705228104162375,0.058078163282015545,0.09280805885400163,0.1339549580112491,0.07877731058434559,-0.07942120038442053,-0.02104718536588304,-0.08321396066600605,-0.04268792547889978,0.022877708877522992,0.03695099271606731,0.0746282541913729,-0.00818241206116044,0.20046234862519005,0.45483547432462995,0.030490720120840243,-0.2213777103756811,0.012732775139190407,0.01935767896962516,0.305163386404255,0.19695382336131742,-0.013560770129934216,-0.09080068976743577,-0.10143245837072375,0.2270890854822264,0.10259238222537481,0.09831850096179076,0.11656467276389278,0.13673886427449214,-0.28224615539624875,0.07894554237328012,0.10652492752056004,0.06245463971701628,-0.022843751632371963,0.060738580212192125,0.13367990777411837,0.18970792308893666,-0.012185079676212282,0.19744256671427685,-0.10191350883237822,0.05990759187741205,-0.12239328039786639,0.3523218221722605,-0.10937975266078995,0.10490540198004801,0.020619836854637207,0.17896864819088096,0.1509999549549571,0.12937559807265922,0.19383050396501172,-0.08325107930283636,-0.35984703596377543,0.11663710249018065,0.21280416219477147,0.2205849815943766,0.3512433744215178,0.026512731280581913,0.1707429753859961,0.22198156975038358,-0.04464231660177463,-0.08273743547680569,0.2766703493321002,-0.08433801472052081,-0.028219116508016024,-0.08037626741716813,0.2662949307384987,-0.07734870143550121,-0.05328049693820002,0.014225784181363768,-0.07036101275044457,-0.3166182127764069,-0.17346882337286304,0.43257428315363616,-0.20992200397469804,-0.2600091198749934,0.09671775748778967,-0.03124539667637449,-0.12068996880320601,0.1376957665323612,-0.060018653410567724,0.11484603003121598,-0.033111379907634214,0.2273759909846111,0.09734229223545376,-0.18122842345959592,0.3094871837249557,0.1374471958849335,0.06368170228148627,-0.0914522749036841,-0.3006813958487648,0.12089533039483197,-0.06704505648051426,0.2086351788395533,-0.01998027379852988,-0.1606800188552197,0.09146717019477817,0.03894231603622274,0.0013264344393687914,0.20074465303994307,0.20589186890811093,-0.10680866650566584,-0.09420094138236183,0.027352642013222368
-0.18707850474221402,0.14451197282619704,-0.257199580295637,-0.213936460634117,0.06633359668456794,-0.13258523077165804,-0.13500221738592066,-0.441142181965763,0.04243843781285094,-0.059241328900475246,-0.2449377149351937,-0.11546831212968908,0.35821213292175036,0.2832130823134036,-0.21798861815917842,-0.28579230040314013,0.1182876626700931,-0.09558359223248084,0.030039414502546654,0.05411690253297779,-0.27529925410475764,0.05881207537689819,0.03323832253377532,0.3663456858325861,-0.34544338232834637,0.06920779546116376,0.07727949315960984,-0.23440878323760667,-0.06720314806160915,0.22383951913627,0.08480123428172577,0.189195971816461,-0.18701373399298796,-0.2569918737788545,0.04033438375351388,0.2916082829344367,0.13622295477805185,-0.17405082604949113,-0.19322421580890828,-0.027260689934723595,0.1366223062047755,0.3232899394818892,-0.02920759419960371,-0.050400462294077755,0.05053977039864697,0.01147520739330591,0.35789170100458495,-0.025100950837255324,-0.022592259585965238,0.021537590095605866,0.011254209793540994,0.4890079768744398,-0.15557098941958183,0.08204087803998203,0.02181444849320343,0.3196056212056645,0.1261583463481068,0.13871058234717068,-0.1272921111031076,0.4657386637635151,-0.04737081230599017,-0.02170310579584325,-0.06268101459260284,0.41570448967912943,-0.0030539426597085686,-0.08297193703072664,-0.1781057091792386,-0.21393453543457364,-0.06321632637986078,-0.07359365756878956,0.03995921198446451,0.10022291168177536,-0.11338779902826207,0.37365110988753875,-0.13319028573267655,0.078505858697924,-0.08232177987290275,0.05975724148958248,0.13172956482230833,0.0506283290165459,0.024947863085943527,0.1433354117826255,-0.088809123705038,0.4041621590903851,-0.09587504408920443,0.07204163385160085,0.04907442533458869,0.1415441589274488,0.27230981556458395,0.01912139527657518,0.27641962100310596,0.13304465913277572,0.23825690969465343,-0.059049554385371565,0.002744687760395213,0.14079427691430746,-0.2193540935188133,0.1724560304726524,-0.31794692092196514,-0.3533427118637389,-0.034069332922093444,-0.1643727529169999,-0.01554002977678094,0.35606853873851474,-0.25392645787377566,0.17586587754879734,0.20007913164766453,0.08458729086293129,0.09579317617966465,0.09611472125328166,0.08694438419242388,-0.12336121606743947,-0.07322697834186555,0.17059053454472123,0.13472913753211324,0.16093681192494952,-0.06023000071735893,0.31894074256747557,-0.20972969493511281,-0.10005121966870495,0.10914291434223636,0.237784977802142,0.09030724546085772,0.03410769647437384,-0.24516023054174907,0.2318250334847736,0.2687422409648564,-0.18528334564449633,-0.1583325668026057,-0.08277116399226701,-0.23655430219211346,-0.2038921148435243,0.1949768761652496,0.10577618889021397,-0.15125463483328522,0.10203706740475117,0.28682723818154027,0.09017417578989809,-0.0011705183895204417,-0.07870822557410789,0.3422693920305462,-0.32517642543172504,0.14341218891931232,-0.08116259215286323,-0.08249293853072623,0.21235522570447443,0.2769441034238244,0.1952454498543306,0.2601641813579566,0.30649540991519625,-0.15921075233303522,-0.037623526890072596,-0.021481564220499592,-0.17040946256284317,0.2846510868754427,0.19402524618251807,-0.09106436838725866,-0.021137456910678108,0.009993229874495165,-0.03268536104611659,-0.05444603007523116,0.014094017244368652,0.05163162064523793,-0.05651805303318615,0.10087111792046634,0.14226208974042068,-0.0053068305820422315,0.32107729067295127,-0.06499429205656322,0.008117171175578128,-0.021072313097304316,0.3076884441197905,-0.1206230480234076,-0.14489093302594838,-0.1964772138060189,-0.27598300502071177,0.1090624903007928,-0.21511103112699254,0.08866411170972799,-0.22866280438255748,0.07313054823487668,-0.02890641158505902,0.019602966331723988,0.38180317083395054,0.00024925686582629933,0.0041923935475486436,-0.3255732219785827,0.11250825448651965,0.11333702219299714,0.06681752626651206,0.01811852673391457,0.32898391330639803,-0.24888980735000313,-0.06010476269303537,0.41452055937170224,0.10841871686320874,-0.2099156436987594,0.11747657149239864,0.26626175558880183,-0.06669854626110619,0.008335047959919177,-0.0009538454009097459,0.06402064519612558,0.49319019075577963,-0.06639042889910243,0.053967511761080306,0.09491731269345417,0.09240668688212056,0.12254611660923626,-0.4531163614508235,-0.08785962240737745,-0.3061555216162904,0.011069605776555141,-0.041638022546311264,-0.12489042477104108,0.009687735438990677,-0.0032191088942298517,0.12595763481179065,-0.00409809896893608,0.005637090993493895,0.04400311235964775,-0.15220493479883418,-0.058358090679961803,-0.15538028682235877,0.14133524894664695,0.22311768241412822,-0.45106740563380987,-0.4123979902362691,-0.09131814173961106,-0.034364489661083235,-0.08219897678864599,0.050506772280007765,-0.12285454477112243,0.07539833612023748,0.319880916960991,0.11199397500812701,-0.35896601884463214,0.33493761545652884,-0.0058601808723223675,-0.05366694610905272,0.03111880100021521,-0.05436956801943873,-0.22297653370974022,0.04231230141125196,0.169160485240151,-0.1821103919515324,0.16689119374269387,-0.12063372626481916,-0.17785600836306914,-0.08331939386387498,-0.09936487710350539,0.17500671856739325,0.09806649933628266,0.06493658660582224,-0.05077430737312362,-0.07434943823422002
0.00833934964342781,0.3571708933967601,0.19171829204929372,-0.03844807926836976,-0.04431045082848772,0.0690305950879604,-0.19693612288778922,0.1590067947393409,-0.2702364251134154,0.2163233875928285,-0.0028824255241131644,-0.06501538810925775,-0.276306083519837,0.2562494154375249,0.11256164339836276,0.04196737412398731,-0.09486463816644278,0.34944213129267104,0.25461468718897046,-0.49758545682535293,-0.2769842737875703,0.02931186006398522,0.04175115907104004,0.3320764719235712,-0.019174526054209304,0.05818302179721249,-0.09610380886607423,-0.002179293783948753,0.026901592493878693,-0.020791288469275953,-0.13366047141054876,0.04974572962578232,-0.014578406113259416,-0.18869976116137768,0.09168477629569687,-0.14807246460233672,-0.436459275465275,0.011230356272724137,0.24905105797627713,-0.08378341297330662,0.17901105609099618,0.0916958352521956,-0.09979813448117611,0.10624552697002031,0.06421604384013774,-0.12759014788594403,0.01230996557152173,0.01760319533368996,0.182454308470977,-0.2694969428415722,0.005527908758534109,-0.04943649280443352,-0.2491756132496846,-0.1359533562813617,0.20638038993407284,-0.01062700100942825,-0.03729767097205494,-0.22821122374975134,-0.21104902616622154,0.1999164671431465,0.11423248235054428,0.12799994730884995,-0.1176981946017002,-0.028662134464012678,-0.11486207094871403,0.05409664017523763,0.20579276442059094,-0.07456020615345162,0.3286985057679701,0.2981749016402461,0.340926813477144,-0.16273265123996955,0.21472754046818893,0.17359158343987957,0.025123794937496183,0.140783717351259,-0.12946714826905414,-0.327161633087724,0.06322275679963489,-0.3731561422729923,0.1642596481627235,0.02954619831147325,-0.35932379875675163,0.07858864750795908,0.08668563596970673,-0.03739672872107893,0.11982687095151218,-0.0023438007169393747,-0.32510316371033715,-0.006027581456150729,0.2409572986865114,0.02946505989635041,0.0375003048159801,0.012799021482752514,-0.06055944425574864,-0.12071603627825839,-0.26622551345043954,-0.04180280406506744,-0.13258596235460524,0.07213061339256914,0.011858186534775337,0.0705974393384531,0.06690574042196142,-0.24458300833858096,0.04645074202415782,-0.04779059681207884,0.29038522216596757,0.15558882728569062,-0.12447079166203598,-0.11615400926577663,-0.06695051829362976,0.14231191693364637,-0.5070789170936444,0.1846808289367386,-0.07184674237776778,0.010290234813538475,-0.19953944513711575,0.057493791733908464,0.15000803965554732,-0.18767124998747944,-0.21457669012134234,-0.41995973358029903,0.1804065602791992,0.3286026268551849,0.02798822788200392,-0.022990174146608006,-0.1251701854122832,0.12690420002315422,-0.0034395577071116624,0.36186797803164433,0.28428537229699824,-0.24322005310543143,-0.10815472480914311,0.10201323899268074,-0.2702581123804054,-0.009805685127400628,-0.12211619403950605,-0.20398343471105695,-0.16777424532690502,-0.024604534380109722,-0.37518351635340885,-0.05569112547817371,0.2228012443475942,-0.08959452215057079,0.009912258873098843,0.20788411844388616,0.20421757718031722,-0.04292949956083195,0.0968330961737677,-0.17218899300451104,-0.10493666584280834,-0.2142572080447723,-0.13088187791822833,-0.11100206841794759,-0.19978669299975402,-0.16988956232385213,0.15093882356592545,-0.20850245770393133,0.3587412887334692,0.05587425399556797,0.2525449417558625,-0.07648590652888373,-0.019439762048002282,-0.435929284844358,0.09476489980566064,-0.12610828793654966,-0.041057868359742296,-0.098787421318875,-0.22302944202583905,0.23175766975661802,-0.0016845966686693515,-0.3075055595594014,0.032439703743872506,-0.07985070706738666,-0.02126353119422586,-0.09840414374560578,0.07836775241808175,0.06071787833269112,0.06424417529846076,0.24214253750703407,0.33271090522149094,0.03975171976997383,0.28806013703373595,-0.017558538121425132,0.006304034699871793,-0.128032737764608,-0.43472654586063275,-0.3055937921567334,0.009315446597938041,0.03306452591822994,0.08915545010512364,-0.3715778996632206,0.12911474151424024,0.1860509059034811,0.5920542269862444,0.04580747913248373,0.015857307499237812,-0.11760404733919884,-0.06069475399520969,0.06022848208814517,0.08766969462915533,-0.0011170596745395727,0.20349010235836587,0.049718771702755606,-0.07618460242641269,0.07053138813641172,0.08022726934793743,0.035951618537042526,-0.07902482370145023,-0.09693608022663172,-0.14007578651450356,-0.25263501200403854,0.4337922516473187,-0.11071926348923054,0.09071422566992188,0.254780531733323,-0.33755316993479556,0.03312800734443835,0.2760839321551375,0.012593253428786304,-0.033946662788744655,0.26515850012103004,0.03106838952881025,0.031330637165000425,0.1617384254894906,0.3909365384687244,-0.21822131903219524,0.3763828319177485,0.06332084526975904,0.2372707299510377,-0.15777916183265933,-0.0936213927343423,-0.11814215055225404,0.1607695499949818,-0.188579490890345,0.18549303593806468,0.021238587466194288,0.12809128741868714,-0.08867326140049682,0.14870372962883283,-0.3191514314005723,0.03665216029335472,-0.13112285857705908,-0.3024170355390074,-0.060241580379089346,-0.1855473602118574,-0.04168687126141027,0.0006550638720716161,-0.022084875906271187,0.1692373306674096,-0.056373223077910685,0.014797448025390982,-0.25511359455729227,-0.19461401360311087,0.2213837562059835,0.13274704221176561
-0.15930311038287842,-0.011033524344018861,-0.22434836319528143,-0.07503635108007105,0.09267876189713263,-0.0657779319060666,-0.07706381918711828,0.03720028950131559,-0.3921716902574436,0.23450198773628447,-0.1544595365921346,0.17405583955263232,-0.2259638459085746,0.1284445642164524,0.038906040034647184,-0.26770951990148373,-0.18664175873144564,-0.03968301684592343,0.2950683125981169,0.06567971796760644,-0.22023743816789965,-0.025813348615493642,-0.36883959907088365,-0.11997197973599676,-0.18270385501621167,0.3216771274141404,-0.08029939615032142,0.24267538123619684,-0.08085501516723093,-0.1319332636763195,0.04888634996809772,0.63032348871229,0.10709871445942477,0.37671128629486017,-0.4534316125135072,0.1774078787107061,-0.16524960809643793,0.009100892909896048,0.3121003075536003,0.03241380188975809,-0.2358021047606694,0.010475838827387597,-0.1590413256876512,-0.1295767510152299,-0.37316035427795735,0.48984236859530783,-0.18639126895963004,-0.021369891936512286,-0.039250890953490505,0.25035120950835626,0.04343573462819172,0.1093217347041869,-0.27846295709634683,0.46440280354522345,0.5005157663567746,-0.04334516571600925,-0.06205103272449082,-0.011141479727841254,0.046039212277471105,0.6376427460894448,0.005909345797376628,0.04746891824221143,-0.29374614414290695,-0.023940439090780856,-0.12074535929276548,0.23687387409315097,0.07073756585503424,0.21766297504849258,-0.5292370598934887,-0.4730109040073381,0.4200532963355334,0.2011960797461913,0.10128457617348999,-0.15809239972747946,-0.3247138671975424,-0.18110444796562927,0.09472404628986768,-0.057359067468164104,0.6311924240601382,0.0071846441153632645,-0.14150393568469832,0.43588977892449465,-0.06243550987405125,-0.21924085528279486,-0.258344667217024,-0.161941853130614,0.06215845110883782,0.2687537364467035,-0.2161686124765113,0.006005164872680882,0.31873608336313686,-0.07122413173571134,-0.2386640823022974,0.07031074118577921,0.3520927226894888,-0.39964119089305056,0.30724026963174156,0.25383156582737143,0.48216523770867803,-0.33794745351754985,-0.00036001137956631624,-0.07131466715160169,-0.11416943334948905,0.15816542584173834,-0.17686528673713964,-0.09292017922706489,0.1313587186007471,0.031637730920479376,-0.25083397880133657,0.031909723308026994,-0.3440726068148457,0.3538544044846689,-0.3659966206080224,0.09134619883039623,0.007638536323903687,0.02986268507332033,-0.06631792778118761,0.345789665171356,-0.11958726305880069,0.045906382590373725,0.4113321978439557,0.0190442883363463,-0.7082977749723083,0.12163824020625415,-0.04802284014171827,0.20123706828900614,-0.21960912791671314,0.19013283612655077,-0.01826893724833337,0.11950026300297642,-0.18929712744328764,-0.6087536383590836,-0.340916258459178,0.03459663091034146,-0.218409169220084,-0.14597745045072255,-0.026593378686013382,-0.13952347248118058,0.22239377961106743,-0.2352426902967136,-0.23325504094701255,0.027893515068278325,0.00022103503185235069,0.06603342493399397,-0.052705820975056335,-0.24266109790579968,0.19593670528347704,-0.36658341633746494,-0.034994867323941976,-0.2035609214224309,0.1266691643677175,-0.08633747787282194,0.08560320477134159,-0.5042273071040361,-0.0018982899776791773,-0.021316778792396872,-0.367776776683029,-0.16881669542158104,0.08360772528337881,0.07945430692270855,-0.18047228350148672,0.10183539816287292,-0.17802759976746355,-0.18476874350812306,0.25952880023398184,0.04222308511679381,0.23297446944185055,0.21728065662848384,0.1848241244608134,0.08379964905088316,-0.09434718229070849,0.20675770281124894,-0.4629971911306975,0.33839824964155285,-0.23152159330829852,-0.05728277171502392,-0.070363577775923,-0.19265625713425139,-0.09371020414995924,0.013907074959367575,-0.08458634788413048,-0.3308384793624035,0.34019408300417164,0.13995802914359234,0.07780785560798799,-0.5438584801510923,-0.1848360861513501,-0.022284363829200255,0.04101511382648752,-0.007194514335058186,0.1323124939116546,0.2998136185098167,-0.07912526214891295,0.28101905374558267,0.13242168550057457,-0.1085660143342844,-0.08905782481814586,0.11832126429374454,0.27598608661622254,-0.20558578738906413,-0.13197562785051864,-0.09230270933952435,-0.07639084973415915,0.259954388115525,0.1324177859855986,-0.29399050997068954,0.1952409410422057,-0.40060474807154917,0.14109966569270882,-0.2329896168594327,0.26215081948367913,0.03725096835275893,-0.10577713152721663,0.03619561904347756,0.06700912312291553,0.020284070380453934,-0.268835140227525,0.17277244414424248,0.21036107324866396,-0.3065639284192903,0.15763936584825008,0.12829316093372345,-0.03593818115402935,-0.25398275031873424,-0.0640709530512645,-0.07235398940032858,-0.30244148460011144,-0.2784723877044249,0.05854941504276157,-0.027065748678885095,0.276159802617096,0.31879334614711136,0.13592485971705612,-0.4225384257739438,-0.527508869147429,-0.21939808102050737,0.36968063500018544,-0.29920374711374165,0.21165243205054937,0.1379887483680502,0.21047834148534286,0.24231280023795954,-0.09994369663863341,-0.6573296330404802,-0.1005954742430164,-0.4074704659843755,-0.13658734992346086,-0.09745746847974582,-0.08320300026087758,0.02189669765173046,-0.07702554877329258,-0.058348717874658396,-0.18245485203199172,0.4992989063144454,0.24277054125222067,0.06019889631433167
0.1283006038348774,0.16550770930194048,0.17107137728021762,0.12386855489134821,-0.312380149935252,-0.48306957012171703,0.1950766412104731,-0.07006987840670141,0.3784187733777272,0.0853038230147787,-0.017598801316411446,-0.06686333454754348,-0.14215556086723363,-0.32556799524599156,-0.12256792612846366,-0.15869706682340506,-0.12044493154122,-0.3491126108484187,0.3812518958882459,-0.031151698314006913,-0.229894361458096,-0.0561157987845086,0.07358075233202821,0.45295034433906484,-0.14710606079965896,-0.17804997531397604,0.06739529340974468,0.4933231246234568,0.20032778733272627,0.12525780179753426,-0.16685769651159488,0.031075939507894126,-0.04547465131182608,-0.12490176217803682,-0.34421166395100794,0.09126204359111564,-0.16768366745444485,0.03814604048884216,-0.0038278253118870275,0.11123619623699524,0.10551460305842356,0.07032104352391048,-0.15048353290274147,0.1605432213211901,0.2715881809048021,0.2087080249409961,0.3587369191783521,0.11745817740045472,-0.07249912311530458,0.14983971022223908,0.010671517405928225,-0.31074388658956603,-0.1187163536686725,-0.054149154516140136,0.02724012544912985,0.0006695047176289033,-0.19861334278429246,-0.14382373940248214,0.06382219755893337,0.13820865167895388,-0.02663708203254153,-0.23199959403790762,0.1415696551523798,-0.10323206252046219,0.14871554760239747,0.33161013051600585,0.287019094834541,-0.11444058474366874,-0.14990083778659108,-0.3423949765874425,-0.191864223240462,-0.2247825573501725,-0.016142659323504664,-0.15871502048119637,-0.16777142588515292,-0.19677666614329675,0.074895336823449,0.10560064085356413,-0.25304678850621853,0.12153589295562532,0.3481803269580267,0.04460919764819284,0.11978217808161055,-0.1799257528578491,0.20492819440818202,-0.3003603093523865,-0.09779853392833975,0.01892585023414377,-0.18367211336414915,0.11969356951791624,0.2974879939995637,-0.05086499037905178,-0.3254726906463641,0.17099209167141208,-0.4390582530356113,0.3113754604682071,-0.49980325551381183,0.05747024991193983,0.175375235814651,0.1264098582380789,0.29410876796181734,0.12285460982299361,0.07364188355927774,0.08230647260259913,-0.2775334756734366,0.2435806155533727,0.39674687719280927,-0.29426879291187874,0.22215469490616577,0.11321355739758096,0.28321014444722636,-0.11227839492786722,0.16410326792817395,-0.1384267043026944,-0.5088212375682395,0.24730882965280462,0.180680414750221,-0.14380715931125226,0.3340847167999782,0.051185076373722695,0.340913192229452,0.1973401835414947,0.16740101240671568,0.7062353368189913,0.11181530766337495,-0.06944680714261463,0.40965545930524744,-0.43039123833254106,-0.1780375024858851,0.2959774536773497,-0.04563288069345812,-0.1528174388126308,-0.37876839228727877,-0.17971233938196127,-0.087808995044461,-0.5433785553299364,-0.5749694637392366,-0.2314231983726217,0.21662160918805273,0.07091915232827412,0.09518761720735339,0.054522674752157406,0.26987383534803866,0.26235232712391654,0.035447297390984484,-0.13974008790368492,0.0032576225659558143,-0.22270283249327513,0.009350477542353526,-0.42381184417392964,0.0696498944847847,-0.07091023441297596,0.09973725315541618,0.04900860372066959,0.06767074627687843,-0.5155958682656613,-0.3890509270413376,0.06236463141577216,0.14670271555115796,-0.22122315033907078,0.16831559754690859,-0.04818427099129347,-0.29388649887931834,-0.10834957357530198,-0.11749065401432325,0.41016759100913125,0.041518106332042795,0.43388723359570625,0.02543884719256399,0.0643627643597377,0.29301176926186145,-0.04742500016994604,-0.19599560349158787,0.4079573411434479,0.23604468504749923,0.5380287132894378,-0.28240553043683114,-0.1860063010321406,0.28016604606131623,-0.27558286258164766,0.115841987636159,-0.24575702997608645,-0.18391915289170108,0.3656465942804367,0.4867474529559309,-0.10958790561726346,0.11927372821235298,0.0558708951976272,0.0887530279347691,-0.08780740479605685,-0.12639757164979412,-0.39177126862079725,0.2938260132465021,-0.44931074019928413,-0.10046068969534416,0.2738950860690124,-0.13528844006940607,0.1738020916807136,0.23825594792912713,0.058103739146502,-0.22451361287022722,-0.08378696139454432,0.05760430954885052,-0.012679716895337399,-0.38932127120096616,-0.07290497608173716,-0.03927574131286926,-0.06630022950978574,-0.03950206582993619,0.43314816892868757,0.5153427277890571,0.04115023353548111,0.3524332982603218,-0.07308429064451488,0.049414543624352936,-0.06508116806529303,-0.2445320992943475,-0.1668446821637153,0.07397240278155123,-0.11879715573055899,-0.11088538839146346,0.08087215153461129,0.3291125985940817,-0.5409885033037745,-0.07393292518733569,0.48105622411513427,-0.08731725156168309,0.39833807274462557,-0.7391777812726157,0.4201169872480697,0.07823212309536964,-0.20024356028812249,0.23963595646182637,-0.3337217364602554,0.06968823795539958,0.06217626788464643,0.25735074402402036,-0.38315633222994505,0.13194348942662346,0.12466239513276316,0.3278275685363044,0.19487141324881926,0.06567361685351943,-0.01722582988566851,0.23970422474246794,-0.04850479011157119,0.08395372278351264,-0.012743789040799099,-0.24974845906468146,0.059750776091442345,-0.07259787859316896,-0.148626222031583,0.12035432919502374,0.05999705820949975,0.12949593365109385,0.05825769142946349
-0.020015224910868133,0.23730148929450756,-0.33135503431994473,0.33864882942557784,-0.10922422790773516,-0.5063920978691446,-0.15026351725450313,-0.3583132085752267,-0.49470169886437626,0.10968639396497214,-0.23506719730875208,-0.03085259882412725,-0.25645614498828734,-0.3767859335820506,-0.2860812173764652,-0.009247460281402935,-0.19735936789637504,0.19202551524772254,-0.19844415960057232,0.10445371102564122,-0.40796205511602457,0.08373835453407828,0.01751301127753638,-0.2588922968324724,-0.13780860784402454,-0.3854469847449406,-0.18234508169317823,-0.031028875043838625,-0.13409146894259377,0.031174041960833256,0.29790208294639764,0.0007679063315916479,-0.702731397155514,-0.1281656582061895,-0.052871498364941906,0.09698308497693646,0.17625845459991357,0.03814207422768222,0.24835991905534946,0.25902666063875496,0.21342741375587157,-0.06706202630953435,0.05027140087152703,-0.038925637138403364,-0.32661680065157966,0.07038543586003168,0.397826264185058,0.036370204919316064,0.5312889621654912,-0.5204643927314796,0.0016066229367244949,0.012236916824302675,0.41891871231315725,-0.16194018140221586,0.339301479510716,0.08507741113991325,-0.4230069606636034,-0.16663432633979725,0.017984918678087398,0.21848004738388632,0.21574851715626675,-0.2501196404994663,-0.13535822949836523,-0.2151773814656513,-0.04067581284517639,0.056642564341766066,-0.15837685266602017,-0.02827569439530037,-0.08298985574763394,-0.1875301511910616,-0.04442500845846788,-0.3127641754501408,0.2244140117442416,-0.17705875302780932,0.003291098084445286,0.1227837202826064,0.3314826637941653,-0.35023339409590654,0.1657082587464777,0.14142318352002414,0.2241371057104106,-0.15859750764154634,-0.48509505401897457,0.054466663279921494,-0.4905127984438618,0.0920292477933615,0.026391637382914963,0.0588710979409201,0.034349944660328834,-0.08827634448610674,-0.10059163637220594,-0.43042052561258587,-0.24330438955207634,0.14600376457959796,-0.15761020107525092,-0.23715577926546036,-0.051695084721065675,-0.18575120171754264,0.23647707500580253,-0.04173215143400184,0.11329424524210858,-0.09119286588988872,-0.2640794513071114,-0.06188250178923033,-0.5398750484318574,0.06265492092986331,-0.024934859810382803,0.29181756468897324,-0.24761473181684593,-0.18943850952052188,-0.3039562980548635,0.16042102861300356,0.16657489414537638,0.21051382013385997,-0.15673444081272625,0.024618316918822707,0.02951931345160813,-0.32869843975664653,0.106628613182132,-0.1642063540166698,-0.6478627373867853,0.12130338234671899,0.20525365407757115,-0.11509744389565216,0.006631918598907745,0.21596319949174322,-0.17093962543745586,-0.17475760303213494,-0.2217594525075594,-0.040199449958043844,-0.21173628725768268,0.1758808470420905,0.1687533549581457,0.5527613320957622,-0.16957724863579185,-0.20290408625286074,-0.04123731232033568,-0.30980289263013383,-0.10687571133786186,0.05659107382434317,-0.19942828674086108,-0.27846740840172596,-0.24404033013340456,0.00825822877353075,0.2830568978956474,0.2296645148568703,-0.1527855259214126,-0.08198283910466052,-0.32469329881746345,-0.1458714050490069,-0.0872819615727626,-0.1405646508167411,0.16207630362350123,0.4205686528697146,0.25232289654257267,-0.05913973098236336,-0.01894246112372732,0.06237808938882226,0.03224094352433211,-0.20536905421329307,0.18624640411694668,-0.06637801774281918,0.1437020885227658,-0.06289898722247955,0.21711870301152725,0.08704767773581036,0.1472256843399738,-0.20333526913777816,0.1997983029365096,0.06500345549722707,0.04528011225297615,0.3638181231584588,-0.6658179874636847,0.3617165605871959,-0.04411797893789444,-0.057354013637147754,0.05493032275436343,0.25716552255235225,0.12707142696121335,-0.08637621325691675,0.07169383613307201,-0.1358909730685073,-0.11207714825911241,-0.3963585008477693,-0.13491282988831213,-0.07752207395862688,-0.1744332526530663,-0.031140831813005417,-0.3702537780637919,-0.42248449649902664,-0.09971245851478885,0.16934130458126992,0.16312288241112666,-0.10022596387466629,-0.004100911039112512,0.4433743103833073,0.3789997837338237,0.22559172260378438,0.23841296807622506,-0.12840343381810213,-0.17915893519465298,-0.15625754354462668,0.38046866888542585,-0.2792665928726783,-0.34467613802683256,0.05126454070892086,-0.045294197827997776,-0.06254456789179975,0.05734759423067881,-0.47046880616077436,0.6047810209552543,0.057702912236322755,0.2012554305184033,-0.02889026994687285,-0.08052601197470274,0.19684758555660245,-0.2186573568009762,0.05584140567567367,-0.41712804934785597,-0.26817738532316415,0.0019014670337100957,-0.027245953667144208,0.012678500371317628,-0.050795440667894425,0.14938172913164577,0.06831600833481018,-0.3285737846195418,-0.1067894711157208,-0.024623787253982114,-0.2533223897559698,0.39863268273987884,0.02824457769258364,-0.16815866682262695,-0.17361755883577512,0.19483426347872135,0.6080766272016425,-0.06274136739888633,0.19483462922050762,-0.08001130840217224,0.17308720944430805,-0.061414946397005454,0.06914915050541721,0.04942135653736872,0.05728604134802387,0.013618959314619702,-0.06910483271009588,0.04636765201826739,-0.057395790873721306,-0.3674350769872189,0.5111622862642405,0.11126547693157315,-0.3301344609893154,0.3556401772457265,-0.3173869631881473,-0.0966752539981413,0.17291791109629817
-0.06616389275808576,-0.16859336297383648,0.01172051574467477,-0.28182516170390715,0.17436938837794758,-0.16326374264261484,0.05766461043491888,0.1460127979498647,-0.1626140366782301,-0.06968411424496065,-0.4636138200666751,-0.06440608004413914,0.26930629250754945,-0.042652269225092077,0.0008011024107800906,0.2967040751274563,0.08175228376152748,-0.22472199595637457,-0.030410838074288946,-0.015212627878012192,0.06108868795474948,-0.034389925903892365,-0.23950671433910112,0.45565554247088363,0.06346619969076049,-0.03594701004200878,-0.35932230005839905,0.05978834541517789,-0.02072210037522041,-0.20729229398916932,0.33146114694238116,-0.3173696731527093,0.03213383201685444,0.511756061922018,-0.04479541595876778,-0.36734844053360255,0.11467266917140521,0.1467312349140403,-0.43165723920647747,0.32924203240557026,-0.1972686449103717,0.15355119034119782,0.11919507354855685,0.3578834215653752,-0.08383561804525347,0.1998215783965648,0.09614084830925024,-0.17655715256118001,0.12372212252698685,-0.005805993669364928,-0.12038756430902339,-0.061734083366424754,-0.19343811959810778,-0.12528415909889454,-0.03014397647994082,0.07538218835712197,0.2593636212929105,0.12777988325481895,0.0015550244858650183,-0.3177570148346405,-0.3541204978485384,0.1244089510935949,-0.13818656651706812,-0.3409977130087357,0.31158027732596366,0.1070275182271773,0.012400632898332969,0.26327137520753446,-0.20517865115834474,0.060566380857814905,0.24402369479418873,-0.21279233831461478,-0.5568257879899311,-0.038694856438904815,-0.19072143890038692,0.6248197554117716,-0.11853868730716974,0.08568957532630377,-0.37202044697767706,0.3551133956516829,-0.4385520775691404,-0.18181331189651773,-0.05191218605517573,0.32153923489134123,0.2378689014890461,0.19802596889382687,-0.3741395508027663,0.1380645166512253,0.03638012211241381,-0.1182595519339662,-0.3513518796746216,-0.0025284172299320094,0.3871247246225096,-0.2585443341889377,0.3738899888959833,0.3122391443882906,-0.856422800681506,-0.20665070812667397,0.30873206805370035,0.19258316119945568,0.5104664152363807,0.09148479494437453,-0.0009831011534035573,-0.08278025707904543,-0.1717198961582593,0.13883900957143094,-0.09947276262201862,-0.22136810822052488,0.46135586457027405,-0.04429381648411663,-0.09039366717352171,0.047580557411444735,0.2728935653200508,-0.021321123093505995,-0.07143808062360504,-0.019787926410807937,-0.32037850336226736,0.0808117015795269,-0.08540284816348875,0.12886022644651263,-0.03245140360400785,0.15670954631722644,-0.20314287418473082,-0.031430686679992756,-0.0683738100475139,0.07089911921856377,-0.32560530470366067,-0.010870945992021404,-0.013021000421679918,-0.6383723167475863,-0.2987240648389885,-0.209002418412426,-0.01182971407947255,-0.2250435508795705,0.205735090180347,-0.5745573441276449,0.009121209360382566,-0.4644651880346118,0.04592843429646909,0.007310719682119264,0.1305684315620905,0.19534724831560793,0.027763610219127842,-0.054722216743821384,-0.4391821928549197,-0.0293588155266132,-0.03497568633941711,0.2721060957722831,-0.3551268728045978,0.0023586740493808205,-0.05725066552996544,0.05642309083511937,0.03874012173215556,-0.20524500444884008,-0.1336853452407512,0.06633484909449541,-0.0988765000059219,-0.2276788644247581,-0.05197374147487419,-0.12039972007257546,0.18476973363490495,0.039015814702490555,0.27590926631249874,0.23378487311099425,0.29831006654958137,0.38556027320345165,-0.31259666640137934,-0.0700803173654296,-0.10700754704250935,-0.059620269297975016,0.16074886405081185,-0.06766239946451232,-0.21184623517635537,0.13617176904234443,-0.21703400983670418,-0.47789444966195993,0.09647739208559515,-0.03841062254780507,0.2385868591239596,-0.3223666151097065,0.2891958126435342,-0.14898179218685564,-0.017359184181530363,0.025875531441118267,0.26561948773750726,0.4232663591635857,-0.18092358295950145,0.09395103454783235,-0.10449787961872795,-0.1990402161245116,0.09542844456272269,0.14070161737785528,0.6136691627163416,-0.11018420915566617,0.10089060388854618,-0.42652251940964664,-0.10029462344595255,-0.303553642342673,-0.30098885983334867,-0.03446363673903043,0.12363724918436379,-0.13577545308995487,-0.27758463135335126,-0.04857885494115168,-0.410879198081525,0.1698694832831582,0.05342716531237033,0.08327374257105065,-0.10184535809311517,-0.142404350173196,-0.22032337737269758,-0.41648372829631125,0.04787151811716319,-0.5896972959908942,-0.2218719428831222,-0.19959826373936257,-0.3559169090261222,0.10320063557771438,0.0548482357488838,0.13455495773108997,0.023285935457885435,0.31242593697654614,-0.34702667951174465,0.08816122603154662,0.05023456394663046,-0.03420007100433445,-0.09682745547581792,0.13968693369501,0.22848743522192774,-0.07161483558543534,0.08310697250833303,0.344758274217993,0.071612010374102,-0.4505700093315568,0.2655082465569049,-0.7655892275622384,-0.4536439821018233,0.013194588473311208,-0.344696414831739,-0.31595028245438433,-0.4813917092603347,-0.0380814442074607,-0.17951531237374194,-0.6594485211200117,-0.050424046017082245,-0.2827105185873194,-0.12041218928256202,-0.713281398464873,-0.32794661212968373,0.2637011041221944,-0.21974347457130164,0.11080086449081804,-0.2910214395054682,0.1881419515551443,-0.17135107660570584,0.14511158269396177
0.1825133799380659,0.33406564974433056,0.07519642673404804,-0.1281426231867237,-0.15783362001121065,0.03437447531561181,-0.09906409610634338,-0.06937034978771192,0.24002055893299962,0.5403722448176069,0.18481971043073733,-0.012205546056376988,-0.10323350968911334,0.1633955758166738,-0.35337999104426976,-0.17714948571414335,0.46770338832987857,0.32942729613224825,0.059802252664789605,0.209424613550744,0.18274169913941413,0.034918208170533975,-0.2160290399360372,0.12375739954784058,0.2228326362463543,0.2280352617694371,0.11353972125554532,-0.21215116731204905,-0.22526217831058637,0.17558942548977277,-0.2673382876634896,-0.18533266711922947,0.03991802322906014,-0.18950016497612704,-0.05780884006023292,-0.11795248635560204,0.19529960251567893,0.0439028558519088,-0.29388856081990605,-0.058639849149491496,-0.32215670081636405,0.37246032493868764,-0.06399941000707639,0.0495632840898405,-0.062146402981313686,0.5712579867189946,-0.1914019157871049,-0.07629538776347797,-0.008753207619470144,0.10999073721394194,0.03179301367739137,0.1750384497306592,0.07859282327494257,-0.05538090951519629,0.13003132577886437,-0.0028969892599313065,-0.25348543635077453,-0.12435695754837112,0.15176122827387026,-0.2022672405302747,-0.008188611382243091,-0.02172851265761194,0.14476998146837375,-0.20918828375351808,0.14535821720071848,-0.27882636006496303,0.2532078652665192,-0.06736817508399986,-0.14601339369863803,-0.24884366791962004,0.3960100570195408,-0.23529079820949492,-0.33885269729189593,-0.20209322343177163,0.1303079625043752,0.1790018647213133,0.012902635024113545,0.26649365913516615,-0.07290529022830605,0.02629652451578083,-0.051376763828916025,0.3310205696976765,0.36371636988670136,-0.09543193767557046,-0.25652330671598067,-0.11901500370615675,-0.12162757631293225,0.2685116154328097,-0.29021075812837155,0.0006792867017604982,-0.10993011073785149,-0.2193469089703752,0.10434730322405252,0.19011883845266603,0.5178783522561888,-0.1184776106423956,-0.006951144817976656,0.10443104389888153,0.4365281305341949,0.035339181256390184,0.05659630285613822,0.06098148571842604,0.36865081368809277,-0.10180831954322367,-0.11852295835297963,0.045639197506176093,-0.2676256275569375,-0.08679582694796288,0.038511927211864416,0.037986772240231774,-0.11350249591383738,0.11147718258395437,-0.06795385439029153,-0.16130736362216175,0.2533237170942188,0.17494058711129307,-0.19033768501431503,-0.31471309892455274,0.24147859083801182,0.20577753383270622,0.12102429466055861,0.3739641245170869,-0.21778359503106243,-0.010547230781395545,0.013776019359700393,0.14247630105243492,0.04954043219391551,0.13168725531843004,0.027567635216477926,-0.05696904250818507,-0.17538948073618688,-0.42005737102474605,0.06686791627760962,0.06187759438760806,-0.1536218854566428,-0.13316898722682657,0.15749945193745074,0.04242639518821811,0.07517796246165104,-0.03263583895969541,0.24151950468972389,0.21291070245800794,-0.059496903726622245,0.14896159013630061,0.06706155237978838,0.09920590742842711,0.006234429796010622,-0.12255282812519237,-0.13504840387045675,-0.06929123334498655,-0.16718000558061696,-0.05393559338896217,0.22826087819878504,0.02039923925263185,0.0007876277819541945,0.13408613552796267,0.030398821982041135,-0.0912100841377542,-0.07321287633683082,-0.13517825546772413,0.2076255807395087,-0.028116341469050128,-0.04590184529936251,0.09602169290482226,-0.17416193305133834,0.09164390962345348,-0.049552726936444025,-0.22314859936876041,0.15476217321781416,0.024756534856599125,0.008458192847454086,-0.08052355279597341,0.023885066925073292,-0.18268325902264534,0.07174601806826197,-0.2692485898165807,-0.07193714521031636,-0.11422907743613862,-0.10725266607401883,-0.04855586330065733,0.11296885452765101,0.1539203697631306,-0.04061407399686571,-0.24309554956216062,-0.14924579183373174,-0.0314223171855415,0.12885522717689055,-0.12769344065303287,0.14698640955679373,0.0959001592195084,-0.20244146625067166,-0.004598570471973602,0.18097405937506145,0.08509768424557619,0.03639015267610031,-0.1927670184957791,-0.052733533065935145,0.09590893550923268,-0.20959030795168201,-0.21886370566448132,-0.18981225276631036,-0.027336222918588685,-0.005215656750944652,-0.3142400600839003,0.20744488873190717,-0.03893084445448288,0.010063905288418993,0.035558557123740495,0.03506551922550156,-0.05434060043123326,0.3850625628116395,0.1509923355692333,-0.10573589570360982,-0.29204210388238355,0.1346827774531384,-0.19669190911588247,0.2348359914915317,-0.18604067279245692,0.4617962719993441,-0.2035384498879507,0.02329746074598979,-0.26261608291625566,0.35376667991105215,-0.15270104480780608,-0.05174585405123655,-0.052422851781477,-0.10933846767994045,0.24201940585317158,-0.051788388274444104,-0.04801673590384404,-0.12304006008162438,-0.12976339987839483,-0.23613183041327035,0.01193712593450634,0.2329498381096555,0.08392040588655439,-0.1464967599681952,-0.12270678104427497,0.4037300842862128,0.1511831995643124,0.15179511406443155,-0.2888428498660337,-0.15515962229826719,-0.0017880374281204138,-0.03734820049598635,-0.13795020580850006,-0.07064978644461509,-0.19168154498766132,-0.24909710363215543,0.2206058627049556,-0.051888645888216046,0.08579840015596375,-0.01944487509617851,0.03648463046440159,-0.08424012628093855,-0.19815953805603995
-0.14714221194579594,0.0432563262791201,-0.15285838008265035,-0.48576438765991925,0.2501310749204946,-0.1902954061166925,0.0970391219851522,-0.23815858580722102,0.12932858811750617,-0.2235105635816296,0.2534002305088355,0.012754934739302561,-0.06951599241000075,0.11567131898450217,-0.14083093035378688,-0.23681328794078957,-0.06684080086056876,-0.326212135724043,-0.06458694693136117,0.21936114792262099,-0.17041066182428224,0.020510748907664342,0.03232016485420021,-0.04069724441159342,-0.032993609285377895,0.1402468310990438,-0.010650281752042011,-0.2601062124120163,-0.14552822936954316,0.10804638568387666,0.00048422604498079495,0.10324515766036921,-0.47525363783947605,0.35538884848952806,-0.33267234500341414,0.15980919027895268,0.11170842280450873,-0.102898022211316,-0.16768078120599256,0.09147565315695803,0.08337396355503789,-0.08716154820312183,-0.009804662340125041,-0.2912384431127916,-0.1934357110504496,-0.04041376984308964,0.2999858209402999,0.16144199963404124,-0.24010350887910434,0.1866257398769986,-0.08942174795905432,0.3508260829258168,-0.35255650576962866,-0.012704762137900075,0.08905253025106862,-0.010765494626349861,0.20731013484389266,-0.0571859932012975,-0.10859570164991211,-0.23723445545876196,0.298826009213857,0.15259384030319031,0.0493485567569092,0.021269134204848814,0.2785588672433247,0.07089322959730572,-0.2660005461073628,-0.05631092525120235,-0.03507529974469289,0.13565728717299821,-0.11275097109143753,0.2006810082230422,-0.2586341191292782,0.24370786080888676,-0.035260102016230824,-0.03325338956014309,0.17024987731734498,0.23741166713942846,0.052116533213850104,0.2848094950982809,-0.15942420059716378,0.09825047306099276,-0.21858546870360587,0.22838292556456402,0.20714756809668675,0.10861289418734181,0.05822075067283526,-0.24136173118488993,0.1671750671181068,0.10059074845100764,0.05361738977921262,0.057883442019207546,0.033684301628668846,-0.04580571059195082,-0.08399879538402201,0.23469907012152977,0.10252324044352219,0.07459839156113932,0.046910822350367094,0.0006898831234477792,-0.2965986366616135,-0.06695401928657088,-0.02100539000143072,-0.19377394151255395,-0.05933919204031629,-0.11093397566723434,-0.11867749146423848,-0.2409392043945207,-0.020230138157099786,-0.00013167833733042773,0.34528736925450104,0.08631454466649653,-0.48891567071824266,0.14286666989504596,0.2525051537543611,0.18071227769620102,0.1520055254721518,0.1098222632755637,0.405213588419627,-0.051875723288343195,0.46084260077852535,-0.015005160472132956,0.034731690977555664,-0.16488513412292485,0.07387847744790266,0.4954953051228425,-0.31506728247031696,0.007790168428687811,0.1652102754605691,0.09339154810301459,0.0513187591258253,0.010802004321258767,0.07236585154558293,0.06134810091326594,0.06202854156597098,0.059798760375391384,0.29500321657087447,-0.1135739866850072,0.21458701021822718,-0.2635036046952742,-0.05456002120515446,-0.1816436004649911,0.5834517632239746,0.08148528004305154,-0.056554680851768895,0.1299796858258401,-0.2663607876460858,-0.00305686337029715,0.0020475137639274135,0.02218539877798521,-0.10108701877826753,0.028051576348358996,-0.07753409382068766,0.3261188545972827,-0.26247514015270734,0.1785049751282963,0.16656716918919984,0.08467016650224837,-0.06695695401991347,0.051442457760507466,0.1935861281809727,0.024327384345716616,0.14954361181563788,-0.04281639735879766,-0.017453335989397967,0.18185104269773028,0.02972512707487934,0.4248200156065829,-0.21656671579518671,0.1344616521039192,-0.1430164773912472,0.30699343554942693,0.10618514336104791,0.22268849946029193,0.19378194152455797,-0.21283199163724673,-0.18553719951337325,-0.10811932329443928,-0.04465525714322903,-0.2090777229767932,0.2117128292270207,-0.1434427962018926,0.3459048283054144,-0.03390798807230508,0.17420470329980126,-0.0010943394939969845,-0.07401922083194745,-0.3069875734890029,0.07809117038685681,-0.12563873450655735,-0.11894092023637515,0.03971987162343447,-0.08462781589226466,0.4751144830092016,0.1164316401341291,-0.18342376323654908,0.12114530338995201,0.2881854749378548,0.19713860382372023,-0.1455647200453175,0.4908023584626914,0.05233636378381355,0.18488373578825587,0.15060033003381929,-0.36353282589014824,0.20002179605685855,-0.0657655873066692,-0.019671993199079932,0.23745592090065198,-0.5401962391199296,-0.021467575838779354,0.5147474318227673,0.1828567105282242,0.35991105562579145,-0.1771166046082066,-0.5316074015685603,0.14680519927187496,-0.011008051224120055,0.23227243111934595,0.08097203407034198,-0.24909895455904071,0.0035504537536268192,-0.40771725995891456,-0.19690116887763617,-0.1634562635013907,0.33877525929195484,0.06645045487046294,-0.10625196919927837,0.08314568665553508,-0.20218167084629926,-0.030759925262302958,0.15316098220738683,0.14632249647719323,-0.037825048617467605,0.06601151397284033,0.1635374188134252,-0.03988343417452458,0.306696614084666,-0.22838116431247965,-0.23279931675249887,0.29517067054389307,-0.3738551179124311,0.4794583318047654,0.33147597734502177,0.3293401558535,0.15830513070734462,-0.1895729727542826,-0.2127241719948293,-0.13873069887349615,0.6093760134114373,0.1429320283161238,0.10394067913735831,-0.36780996334687244,0.23758722287113562,-0.0859090240099176,-0.030163201706345944
-0.1987408469674503,-0.015919623370441074,-0.09989087076281968,-0.09753833694061416,0.003655701164060318,-0.05938706218766873,0.048300439062531224,-0.10406064276555835,0.036078366438529526,0.2455002109939424,0.07985743612856357,-0.04379001159220734,0.0030589190180577517,0.18318824367048556,0.33009116176335906,-0.3499060909185547,0.03972006423643124,0.35494115789699604,-0.20841647754175396,-0.124142513247565,-0.19768979215140967,0.02376469539123087,-0.15891169012648407,0.362159942133764,-0.3426630178526846,-0.5070526263168924,0.337488738954641,0.12176051640908943,-0.15172723501392002,0.2682368525198783,0.06111978185927289,0.29954180443493994,0.010004999528006882,-0.29164360881608287,-0.025627326273074222,-0.04859280777713219,-0.23020768131439517,-0.1606841185105647,-0.24944432378551962,0.3687700964737582,-0.13730911395325895,0.37456008537170393,-0.11091056775108796,0.17682007418902196,0.04764278953686484,0.3280344716294825,-0.04025360194777239,0.1928656258572146,-0.11524602786773777,0.10465964844562535,0.1008512741515954,0.17616805398395116,-0.18865242145445235,0.14145545551965394,-0.2431363207846538,0.18901836470422143,-0.07747448404128077,-0.09017437788546445,-0.07897567670099752,0.09290842375125113,0.022893589798155076,-0.09266691424697235,-0.1665187695696711,-0.054736405044845,0.13599748221713168,0.13819578928704604,0.07601168263823581,-0.22177646210230367,0.26894846496384245,-0.22679808591723058,-0.1490052865558746,0.015488998941281844,-0.06227007665323108,-0.004256935406113543,0.04686661096843273,-0.17209233856213402,0.1681785820068919,-0.16618692681727312,0.5877771592136593,-0.14830803067647144,0.16795186077785684,-0.17431551658112804,0.22095037197583794,0.1643735590339998,0.08350298065261501,-0.2835773306973969,0.0011903164745880506,0.059136884303052605,0.19146796996409404,0.027487508083145738,0.11668767398553781,0.2457634636962338,-0.11031221877379442,0.2797451358186185,-0.13531480031996285,0.14153078312172598,-0.09545896781398368,-0.040998354113948574,0.09448974028633389,-0.1094677155731054,-0.1625771269547571,-0.1814853090704862,0.22920722763876805,-0.22658372462731655,-0.0634406717700968,-0.0007061274080897954,0.00417154505408341,-0.10334718766454008,0.010728996675129415,-0.009436327915483385,0.11852284944753426,-0.19742322069330584,-0.07928158570055227,0.06994094824877417,0.47331625267340927,-0.18292577775654523,0.2659668783004478,0.1602806606786229,-0.3967080271518115,-0.06036151094878502,0.0801963152306873,-0.1739953626543725,-0.09375157547654514,-0.11046406620218382,-0.11158031183914965,-0.29663635393879295,-0.2042476792095296,-0.1505339559577595,-0.28174037587770506,-0.3487752127850944,-0.17466177171623604,-0.13370750633429856,-0.1330807560073952,0.1410600208337462,0.053192677960977375,0.17850402084511896,-0.05606763697479838,-0.0697338892025613,-0.4676866897771578,0.1362556212632259,0.18010710704327107,-0.305666102747115,0.06396156321095205,-0.13001545520134827,0.17785674151091907,0.2680655183735338,-0.062092894886141344,-0.0843007252833541,-0.10789792610316652,-0.04510206575550371,-0.13212093368178332,0.019595574320489837,-0.16098017448900595,0.22966455021966622,0.18132698318750212,0.35523367905175246,-0.4503431946004397,0.009439303538784544,-0.17359323926403744,0.0886046560256384,0.23432543334786585,-0.06414846926857458,-0.4419935982770503,0.2650178969614296,0.0004721951856593641,0.08407782217564076,0.1407581609058813,-0.23952788967254882,0.16195395223711653,0.07861854426967238,0.000286780827418668,-0.18899769378988185,0.2134569643609026,0.14563923375767235,-0.08861793443751642,-0.0023437329128261383,0.13253177864893775,0.15542513470425132,-0.25355517304034086,-0.26161794253148696,0.15852713824971854,-0.12219637923407776,0.4388084366203257,0.2239306164801082,-0.2859415420354183,0.12609086199277428,-0.05871442270218792,0.03794038279617771,-0.08851094425201754,0.017328693745510777,0.25159839216184415,-0.10897919426457746,-0.43704869984324746,-0.13364090323366148,0.016997486204277875,0.19049086757285566,0.35744313975310826,-0.09899850171828269,0.1912240135982367,-0.19935491534258296,0.014649754793974273,0.008942125510342937,-0.3063998810955557,0.21497850364018276,0.37802701443777653,0.08808933430752082,0.14961695740897188,0.036432534562210614,-0.012249383892830713,0.29695739182188163,-0.13251078660663998,0.029011313738411607,0.3433264782386325,-0.42220546209042864,-0.021836279405346916,0.06649151142752828,-0.19845473340492184,0.010294147464917268,0.23241388548400613,-0.3968371678869189,-0.00444883624390331,-0.0038640820866227537,0.035418795683726634,0.24262984747181301,-0.1836176222692663,0.07016272243180138,-0.1914111155882675,0.10187937519724925,-0.10969061546542594,-0.09600379839848755,-0.10715540451981463,-0.2965682761366817,-0.02219190234569128,0.16443433744957794,0.15137248847339646,0.01290850816295394,-0.2963552200299007,-0.5289893551153367,0.009581352661008772,-0.1756994909656537,-0.1329618449026628,-0.062005321014603876,-0.41152094641815185,0.018382866015469776,0.1523541497489614,0.154298196695788,0.06476770978225346,-0.2613617773466624,0.0734479493230951,0.11708769939364776,0.002804679585360081,0.12801126975554444,-0.49558162849560755,-0.06338511824627233,-0.13100024410020156,-0.09047089745105065
-0.2761439324271564,-0.18584827754792255,0.1313108660366537,-0.2036712109982103,0.27534785445913845,-0.12842741446001027,-0.5354093984964403,-0.2451499509432645,0.493419603491622,0.18207110296856935,0.41687508889286967,0.12503984866375342,0.2394621408818782,-0.10069127229043906,-0.05931720532482908,-0.3134223250620821,0.2170552401729528,0.1507634320789834,-0.3395802425947607,0.3153520928766393,-0.10725358890822655,-0.11467558189673852,-0.3924247333682995,0.014130425338895317,0.2746309598647642,0.3840664838088413,-0.2713473018939389,-0.01846129719135496,-0.44327362875984483,0.009233430404848848,-0.6675490503273301,-0.20137913251551368,-0.06952362721021792,-0.3448827880296733,-0.2589009226938088,-0.059271349522642895,-0.34926372095025565,0.10289560091331973,0.3363558514296298,-0.3387730946129909,-0.3378321570274963,0.4276374493435935,-0.4016390213461695,-0.05661033344363055,0.32139737739352675,-0.05212554544354231,0.123988241157579,0.1823168691395388,-0.06069254052452422,0.2339517640438423,0.13992090793903836,-0.10175850133907259,0.27679347234277424,0.1908640199880858,-0.41191758586411725,0.24019276607809648,-0.032290703688422524,-0.17881130343683818,-0.10475632361349525,0.1714880028616612,-0.46893711207910954,0.2177177604850653,0.11372745110825987,-0.21462684812091,-0.34154357365608745,-0.15149860268726964,0.3520924393557975,0.3113520030432532,-0.37928070559647,0.2835586008946646,-0.18749494757272284,-0.3162869752081277,0.14338723077244803,-0.07800930336312084,-0.2639740524735845,-0.04360720716785389,-0.342346643015542,0.02192570036314814,-0.2865085388132618,-0.08542399784466947,0.07949221148083051,-0.3334959058439438,-0.026868770850651844,0.0023568694202607474,0.2069744768862853,0.3793975598875481,-0.03940588706871119,-0.05006871418791426,0.3193146792691895,0.07929037526638441,-0.008237476473150877,0.29418084271426737,-0.35716236993841444,-0.3591530580498477,0.2776700719802899,0.06612397560455345,0.0407277172915584,0.23245662975976497,0.1625472576774759,-0.00664671418035698,0.15493772332748068,-0.22914723259312209,0.056099720317252535,0.10163215723302273,-0.00228823449644647,-0.0979366552865706,-0.1072480325972823,0.28386892983812057,0.0690752517904288,0.03266560564330008,-0.2486141622620907,0.31359260305460834,-0.3412174773081941,0.04514361561760604,0.04428076894308381,-0.39504194433434886,-0.12703779049144753,0.5480980834884998,-0.37358388328633846,-0.030778769662108265,0.36679045377246133,-0.1670891267078909,0.02903347367196052,-0.5619932265385732,-0.14943792440273265,0.39287230912054144,-0.11242184272685497,-0.202424416266725,0.040587385481715796,-0.03980420355697579,0.06734446277285291,0.0035544039497614347,0.2561206016583784,-0.2803864146299269,0.09542596089910613,0.3479946288426104,0.09364774221512238,0.013260577658123943,-0.4515001500846295,-0.19176284686270878,0.026188066710296706,-0.22897161237600178,-0.24090541796201168,0.006853236544689649,-0.04584902225724015,-0.12176402505827928,0.03856995340949575,-0.4216294473634109,-0.5583888205832511,-0.12319405222434107,-0.1684614633972205,0.1199381469401348,-0.07533033046999996,0.0823078878656846,-0.4360900894636388,-0.13857602123295265,-0.24448746133279967,0.1568949536978592,0.08224015727010231,0.05574167484064016,0.3995327146167022,-0.1221536611618611,-0.4191123081649489,-0.4534665088957465,-0.022226015805851342,-0.11109685438024909,0.25779165693644607,-0.018477789474921,0.12482480211488024,0.11387758905867305,-0.0131636295120198,0.29971683420988726,-0.17689452903106584,-0.05726192887998302,0.1541786929406827,0.2227068746767023,-0.13015184079743822,-0.2709282709817513,0.020515591270483143,-0.02314518251543588,0.09532558413139479,-0.015916351064830487,0.2517771541734481,0.12195091519932044,0.10434182812595133,0.02325560188169988,-0.45580028631271585,-0.5495318295658369,0.13340971451866226,0.049563459932739876,-0.3181089342552699,-0.1210586710371379,-0.007073334295459504,0.5039948118902395,-0.06072184830875807,-0.21263666013990318,0.1787869047726265,0.16780074031034417,0.2773645383655088,-0.16298818078339836,-0.10521382075846117,0.011208143460362436,0.14033433698205924,-0.06679618433668272,-0.3908427610917738,0.12554879017602916,-0.13701694008684404,0.14019931011948802,-0.015520393123461368,-0.6925265318539816,0.20795985543900217,-0.03141925077892892,0.28601552493840293,0.054863565069579255,0.1085229227660207,0.029209502031357398,0.21027135467206354,0.5656943229750147,-0.17422673778258854,-0.06160827822229536,0.010017039811529098,0.12868780026939208,0.010099183622149581,-0.1913765602440451,0.1621647648140909,0.0513759671674628,-0.538841477211131,-0.5181359398939588,0.13222111920008872,0.17045645791510816,0.23724474580797686,0.3702932690100324,-0.2273835065760478,-0.1218503623075619,-0.37081553973909875,0.10105505721277466,-0.12405512404380895,0.09397815825782752,-0.4857960107312991,0.01435388028967299,-0.11869238256984187,0.1417943803041746,-0.42115597946367467,-0.23985802852974997,-0.003728880703448811,-0.19606284347234462,-0.09487387921564044,0.32817709702652625,0.055949443030185605,0.5722792940793305,-0.19905662764902687,0.1615330668236797,-0.42925727635883704,-0.10358849722481626,0.20405449361406042,-0.0032587086806518265
