0,1,2,3,4,5,6,7,8,9,10,11,12,13,14,15,16,17,18,19,20,21,22,23,24,25,26,27,28,29,30,31,32,33,34,35,36,37,38,39,40,41,42,43,44,45,46,47,48,49,50,51,52,53,54,55,56,57,58,59,60,61,62,63
0.04766064389264233,-0.08635297532054795,0.1013072758736239,0.0379546624481724,0.039741547912447224,0.21989400932153255,-0.12010429440371378,0.06612594479873803,0.15447353507435985,0.05509425392718838,0.05389577514945902,0.13324750090895957,0.018661995618023487,0.04032825640273411,-0.0704042393803144,0.12798756883582904,-0.01808113318360491,0.19868805702218723,-0.0022104936673693343,0.021239511172241574,-0.05056910841880403,-0.16716150641174699,-0.1574639094100324,-0.02119583827310936,-0.06656715826600011,0.161128606406331,-0.22795220331183658,0.11202869559435487,-0.09978998447318493,-8.715054599683707e-05,-0.019407568533422213,-0.031195636711698893,-0.14333700047953468,-0.052261743712655434,0.0782852929612628,0.16332349354812425,0.1096051824077096,-0.04517203057722911,-0.05839729667125269,0.019114624515954155,-0.14563194616658195,-0.047963345849252166,-0.060995575439740095,-0.019748350797010237,0.11564385401059281,-0.0024882452843013334,-0.06756571929433429,-0.2586088922632248,-0.13343644895951642,-0.01707459727766221,-0.055976164414024525,0.002080007833280871,-0.03637770209726465,0.0036414599649980143,0.09825573337997505,-0.20442876044404334,-0.046181368840758345,-0.16040336597158775,-0.07013820457747576,0.030546154944597562,-0.018078522638275252,-0.15176114935202145,-0.10429314382878067,0.06397613162357842
0.08445304075288182,0.6892592185290429,0.5422749383714487,0.11129426692729313,-0.011315642586071694,-0.5608657450881481,-0.006040219384966169,0.1631029218429081,-0.05259522512161223,-0.06279581628797974,-0.2317451512316583,0.0903877576640302,-0.0066068757740006916,-0.05296073402060883,0.030453644439569296,0.12071833739646523,-0.022376302192380702,-0.15321418190530656,0.05444996549789807,-0.021468531991459445,-0.07598935679344526,0.21814996913466472,0.07964163051585116,0.01678474919561921,0.12711910601652152,0.025939436709634785,0.02548542986729643,-0.2080930912390572,-0.024526280125722645,0.030266144243104788,0.1164669063470136,-0.07599228675771207,-0.028072960251538815,-0.02287904857520185,0.03582509908087793,0.06549533153343137,-0.07026094792858247,0.020045017183713997,0.06369857931633371,0.002193547537239825,0.09511375244084688,0.07568948882218411,-0.03994676362125408,0.08148166083684016,0.037460631188555915,0.03308709170082044,0.033207127378037445,0.047840746048810036,0.006765936967400129,0.01859738437193482,0.012697700562667806,0.03243548006269816,0.04608100918478337,0.10967097314847334,0.08208693131365698,0.11386651978556862,-0.3128160419539765,0.08966106784021033,0.04254585374787842,0.07847854078290808,0.05715521730874075,-0.0334930305020963,-0.1394602258661437,-0.09962200069702758
0.1553900255806366,0.9595538615705457,1.0641283658226184,0.5280445913371689,0.8136681721047262,-0.06418332684731382,-0.17227290600194925,-0.21083678737975486,0.026101626972436343,0.0037578105417480426,-0.039493645120431596,-0.09307406682746618,-0.014183033806891827,0.025335058350516044,-0.019456171313564037,-0.08625087911510787,-0.13400768732828502,0.08482289700781545,-0.06911279758483978,-0.0009527937737311479,0.11762247824625918,-0.10938938377892915,-0.20688559836462206,-0.09488351757616867,-0.11351410049153997,0.025544197146983517,-0.0452982392973825,-0.14034814377505248,-0.09128247412934576,0.014033397063177197,-0.07430290478165939,-0.16960874964849576,-0.07098106784299077,-0.1677995208851536,-0.12428694700996648,-0.055216094401496926,-0.23774687880038514,-0.05221225929408207,0.0382328558202398,-0.09960504375837348,-0.10617146120432375,-0.02005134759456406,-0.04109143176433647,-0.10631490931492091,-0.1970804994190299,0.019695689784440487,-0.16178827112035538,-0.12688144508799712,-0.23735019067639715,-0.19512482209968393,-0.10949894237918532,0.07202379124638077,0.12635789508685263,0.07349080956023434,-0.1689270585048692,-0.044436306814655956,0.0496691639147307,-0.1535382200416904,-0.021235005181418683,-0.12253318536743778,-0.046139875235589795,-0.03667950367542991,-0.14515937946971122,-0.12697994952162883
-0.02814081092673634,1.0291689779187043,0.9225331381225557,0.849033474858392,-0.06975359350595668,1.0851968531808402,-0.11511060855987315,0.001912835224183046,-0.09546537574789228,0.06219947004964908,-0.06516709875658873,-0.15684974722598935,-0.13451716466017333,-0.01501123060535507,-0.10457965687178156,-0.056310832734285436,0.03662769438769666,0.026748426488119346,-0.0370570603438328,0.05402399455081287,-0.012689139860524442,-0.12011367628166482,-0.2802076173868969,-0.010113688215170731,-0.09962882421811194,-0.07734810162850143,-0.08956871451599595,-0.13196875865706986,0.03425072890274387,-0.09001062119075644,-0.08090957666490173,-0.1891828820151506,0.031960495011999324,-0.300999731219296,0.08363714417223654,-0.0008547252519286915,-0.043787519408621724,-0.058373446241630524,-0.11103007609171608,0.016604564675926598,0.03158474055468693,0.09747093903859967,-0.20367823138883467,-0.13690027880213176,-0.014382744989182763,-0.16915573533702366,-0.0879552344956372,0.011061890926016015,0.029851588659610875,-0.10788156004682449,-0.13112179700691046,-0.15850312431414373,-0.018230377896402732,-0.16986789020297793,-0.030395087399665514,-0.08428406027400442,-0.07372863331084692,-0.08377435465745166,-0.18420565741545825,-0.04620015407755633,-0.05246742040127528,-0.13245105579549182,-0.029506838711805795,0.09588527207777393
0.013153145923208135,-0.2945682764848541,0.2719503390309824,0.04590970855179511,-0.1776818569095128,0.610348500896086,0.048706138508899675,-0.11341970837522819,0.019550114761735345,-0.016102555213576668,-0.0517461831960549,-0.08531828811917003,0.019632335099560604,0.06926189087033104,-0.14019767983628129,-0.08892984268352006,0.1068772919702325,0.0227639936965409,-0.08322839584630085,0.04722270166816123,-0.09040039106521941,-0.05966811864569828,-0.11499410136133546,-0.11101647664795805,-0.10040254901537025,0.03714864635965336,-0.017226359443751067,-0.0265945713436331,0.03394760647798969,-0.07852940910567234,0.03140598547376163,-0.017165871495401965,0.021275774109089488,0.039270760245407536,0.11982669536443435,0.18518011130156983,-0.04753977900862502,-0.14840901064469117,-0.011818439590240227,-0.12115664116443844,-0.0209251495145343,-0.025709461756036108,-0.06621704715282056,0.03780081940084529,-0.15630585739772643,-0.17404678004874535,-0.05618763452941769,0.16271534885666078,0.004033402936687469,0.08701170176660437,-0.0867218011360552,0.12726207952163143,0.06245269864084648,-0.025703288703716878,-0.16252720633733772,-0.0766509209815066,0.026327197919261656,0.13266158993955282,0.055480248155290485,0.008082757962722165,-0.05570537715975281,-0.10409866027877586,0.020795168726127685,0.01665947075019794
0.04183869656024217,0.36187614585093264,0.031343648160507664,0.8417338425173642,1.2047516269906637,0.48113000141421397,-0.13187948689494966,0.003195000529544243,-0.1712240457973696,-0.3125968437466122,0.022613638722980327,-0.049002294132708596,0.14434208467564494,0.11417376890839233,-0.06345643353156336,-0.13221893149551875,-0.15504864820664302,0.057188358705525105,0.05050031362939769,-0.10540736937735098,0.06896872321665981,-0.2965148662058377,-0.1983010723273568,-0.1537015153405502,0.03666497433140919,-0.04587316808095383,0.07900265115418248,-0.15069621454033866,0.11070964610179006,0.07535628858750758,-0.08970774610718814,0.10431181097277151,-0.12879187175732154,-0.054105034979690714,-0.31479588998826735,0.030436948048501493,0.06142179390703475,-0.09807098092351522,-0.0976172918380126,-0.04484024645045845,-0.07480618604236977,-0.08597374594830717,0.019421647967149392,0.04691973101544598,-0.12753470531673008,-0.021102039146896748,-0.14719031307380648,0.055144790842651614,-0.04536527022084646,-0.12109048456402671,-0.04715229672905124,-0.14731133276949795,-0.023478990859603522,-0.002884597986161937,0.13789582444384083,-0.13159636333092073,-0.053406525870437496,0.14168127106463338,-0.06795076486142232,-0.01678459453838424,-0.050062396211542085,0.045183257240653384,0.04714873745804737,-0.03758545596428259
-0.018255446671724407,0.36849857451116463,-0.07177921697838446,0.5988474140179865,-0.11352164545026217,-0.058641330997478994,0.15599561276578136,-0.014014518464918696,-0.02435778060240589,0.08961267057262151,0.07591769490918551,-0.051541942642374584,0.12783964230656444,0.04869800699439363,-0.10201636433385528,0.01224346641061378,0.06805052565457413,-0.07907665795843148,-0.051575688070139,0.06574781496735249,-0.10768775230671666,0.15131448145272383,0.009465752451226807,0.0696996399389653,-0.13225415039196337,-0.009728182185076453,0.10344097143502724,0.21305887288078793,0.06177044385930006,-0.010136317556417827,-0.09200987878469064,0.025154552230245982,-0.009548169901593772,-0.17621396225916994,-0.024490766068546825,-0.03615359483906948,-0.030338517761946054,0.06528713570448805,-0.08343820635692259,0.0852207672530772,-0.20125833018578193,-0.032983479804117595,0.07640702180177576,0.09757858236878038,0.04846873692016183,0.05175662567788836,-0.02412711757695579,0.05249333926927229,0.08379195341754815,-0.24972802226471158,-0.04599877913044371,-0.015135843015912866,0.2307360647415794,-0.10050141499454353,-0.017908652986935978,-0.0024172790114521253,-0.0966666243965998,0.004716893093260903,0.02144530741028434,0.18116800942245678,-0.09532692183379679,-0.01116234895547105,-0.017278967797650258,0.032325064111345385
-0.09772362212845608,-0.07527612826895078,-0.25435308897018405,0.24158421130364932,0.024663726147516496,0.2364784330672843,-0.16509867617279364,-0.01756796350455098,0.024990602420461704,-0.08001689407676046,0.05739468546690103,-0.06732889312842649,0.029384883019663063,-0.12215333946975135,-0.021279490434506124,0.08379345013134616,0.08404329928900471,-0.06983289372077442,-0.06448374346343642,0.11947178942675596,0.09117628296549847,-0.045516796350068355,0.09381517745531846,-0.07525673865691053,-0.06465315813880831,0.0012546161899948793,0.019855983899303747,-0.14523539132270338,-0.06719195933428174,0.0001557672347325672,0.0021680463788693724,-0.12994478762495246,-0.04743874110895505,0.007409954968826266,-0.13435923744039227,-0.1473086423533592,0.0609870158406175,-0.061545420776497134,-0.01661120722952981,-0.06995819911438197,-0.061051352898881646,-0.0671388578851255,0.0637212469425575,-0.0020449315804586025,0.09320452090770366,-0.10332798447860594,-0.06579036754955017,-0.1641783557053865,0.05889034695233534,0.12019531504322829,-0.06958494733760794,-0.0032327899655937033,-0.22571375602180135,-0.0925599223130321,0.1283883382186244,0.02858031130012252,-0.10710885793059201,-0.03054201662366419,0.03920011341243212,-0.11928237568570206,-0.19270901667319779,-0.05240910543637646,0.02293443467751369,-0.09635064869266813
-0.1778616147994422,0.6753622421687658,0.665147944876189,0.30471830721985715,-0.09665678111867895,0.6735220009681799,0.09866674971373372,-0.11568036256933634,-0.1123975845161624,-0.10107962084925949,-0.14038576963076427,-0.1312197139380997,-0.13114475335722428,0.14788221411855984,-0.06543429073163584,-0.11801621987662504,-0.23491498523757828,-0.043572627286665694,0.02848586596881738,-0.0962629732781936,-0.0969386191043355,-0.1220139173482731,-0.07314137196870904,-0.12567930512451295,0.008024035927817384,-0.03416698021872392,-0.14152043483579962,-0.09278155275075411,0.1357337572078302,0.118832266584094,-0.0399802566187006,-0.06383798481087145,-0.017390251518186326,0.11820154987463762,0.0034958101450373053,0.03189600349572028,-0.05546758363986658,-0.16671302208648162,-0.09589349783511776,0.04761101424391771,-0.1686306839229408,-0.03078246720555955,0.11430993388641185,-0.07091037721608379,-0.08560547567609478,0.08450067231606281,-0.011442450843113502,-0.06288607902614074,-0.027827676069293483,-0.11931094670934096,-0.10963928594668435,0.007376779715362069,-0.16347326310624014,-0.08234828692031439,-0.11447849515256242,0.012598232735890192,-0.1400273180134931,-0.03727395605253688,-0.15034195206892423,-0.10980015480210013,-0.06337243107508565,0.03843648047539218,-0.17741399499828,0.05015516135798786
0.11520748482141113,0.03171728101392536,0.19653119709422362,0.04427270667405578,0.3835559756491956,-0.35873189048357634,-0.1557456824405099,0.15011882701266677,-0.05245077917864333,0.0730571826361197,-0.002194334497065535,-0.09223984035145874,0.02490947091650361,-0.020282953990400154,0.15824551474062667,0.16098435290273147,-0.12003349615074564,-0.15227059934407106,-0.1265838925175201,0.1535215778243301,-0.054382586226689636,0.029976717179350267,0.007619378132278915,-0.037522287345624364,0.023369671034525565,0.026228618258848986,0.09141771095115551,0.03705092646461151,-0.06300286263893476,0.14073004184450277,-0.025558661327696797,0.04141273577051946,-0.12518149278076157,-0.1111704210598175,0.09172255887911718,-0.0384472242867099,-0.012314663837714021,-0.05032381271275256,-0.060011622327342536,-0.012454124667145908,-0.02583956245889165,0.044929056485017486,-0.13323008858312888,0.015869728916172717,-0.023336335723403764,-0.12591369633896715,-0.022791827695837548,0.028852639404504297,0.15683333130970575,-0.044056308777711724,0.023689251931414666,0.06715002262651597,0.054652176900385804,0.18727792924912678,0.061592867929670336,0.0068310495294167245,-0.17321179429558586,0.04353889690612088,-0.11943970798632693,-0.08102012574608529,0.0437321196030996,0.11122974718247224,0.11575131320906329,0.004231524809195894
-0.032137395629338844,-0.9622487735593739,1.2077514532577591,1.057243324621897,1.0624820335226608,0.0320043197496957,-0.07223671731108962,-0.11429756438222859,0.058974735319880664,-0.04540234828143355,0.11792511280193219,-0.09074250269625152,-0.1412779990620973,0.025037111903518993,-0.08357851775056838,0.037275562857312594,-0.02904898607678052,-0.14994036778369718,0.07869605998086501,-0.006723022328742952,-0.004152928170516244,-0.03317966387469807,-0.14138321266066886,-0.028654389768219,-0.054614584394655254,-0.051390679508413147,-0.2934580782523145,-0.01873401876938303,0.05307541700277405,-0.033557544032520474,0.030561247696956114,-0.08588984239994686,0.13450396399797224,0.03698430398405114,0.09620869478187988,-0.09661194643371888,0.14555008373824901,0.08320318388919629,-0.027407680856708465,-0.1170507478974241,-0.06996071057117147,0.05758958100350456,0.13194801783447782,-0.12431074676674429,0.005229051805174117,-0.1872193554822818,0.03448383710428484,0.02672390871342687,-0.09476209331031663,-0.049781138559197975,-0.05260369155091888,-0.0016982027046456344,-0.008576312664761493,-0.19508892915388762,-0.19360853327268998,-0.0832474461663525,-0.013970646838555438,-0.08548535159547799,0.00634228688072112,-0.18901256562527952,0.11261948876089534,-0.1641534358432344,-0.16925333093976058,0.11316449603607938
0.10175599723504035,-0.787373464846007,0.6581607126836317,0.003472524740920647,0.12927027422116819,0.6470377656095813,-0.059710796203924006,0.007536007193711984,0.13572262308791178,-0.11794378624623783,-0.052337490135631715,0.05350219045811031,-0.039295321514257776,0.16549891987152318,-0.13438179123114313,0.1842116458396464,-0.1866307023215509,-0.04236514789923134,-0.05915913435765381,-0.010642793912305468,0.05902180236955102,0.10187548105100372,-0.1064722924657174,-0.10934338744245492,0.018191790940096923,0.0393239388025278,-0.12495365237849479,-0.20301109872683518,-0.041664435244092135,-0.19435451080540964,0.10611442483153807,0.029435215733184115,0.007567325964115936,-0.07647369774884084,0.06753845620549274,0.15784094424116676,0.1429627118647953,-0.08841601591069992,-0.02754652199907644,0.05898996749629192,0.012647318219020001,-0.014011266068852403,-0.10999698767144306,-0.1194366935451203,0.1412712538065228,0.010443054837165528,0.00041783039504657954,0.002143812806788232,0.03975530138313442,-0.18938716541632844,-0.024819440199071435,0.02156897694980363,-0.04187423586667565,-0.0016174753070951318,0.018966906228407236,-0.049861261223087906,0.053435297361703896,0.06864467876582277,-0.0952554970379037,0.07900185546133408,-0.0915240881006204,0.035580476547416175,0.09286341957388353,0.1275486543030607
0.046980831946368616,-0.5261101145530249,0.7005648015713275,0.17871081712731968,-0.047241354426937825,-0.09009041585244751,-0.14974522327997317,-0.09080752350108184,0.06900360796563358,-0.03359512841733422,-0.03313336396236534,-0.060614834893933336,-0.003225062944433901,0.02567031174350258,-0.18144698218900346,-0.08437144183799129,-0.036602004449833886,0.021054373400965384,0.004586135594237486,-0.04407526782727332,-0.0017924838482805431,-0.07332667658749964,0.07227535045594222,-0.0262338259143059,0.10093353575552645,-0.1776760651555547,-0.03123301645171031,-0.18442277394477022,-0.07282443624286976,0.020610401682453854,-0.0017452967242909013,-0.05983579179101668,0.07431258578271306,-0.01912803847246089,0.048406831188565966,0.09768348019415908,-0.001567879478384289,-0.0636157159397362,-0.1215996669229207,-0.13366853559480885,0.017136068279979624,-0.0679138515422534,0.11200213696814512,0.006082660543013095,-0.16981395000116237,0.04769142489484005,0.00027677498956119533,-0.0796427350413851,-0.07697481709670702,0.0804403645997442,-0.08827781317421597,-0.20886258286722395,-0.006789574736707613,-0.0840442375703731,0.029239159968153235,0.04999458945698356,-0.07122372882108709,-0.13472994848178788,-0.11781187047330688,-0.015571466153850168,-0.042811250230277195,0.06247614289565744,-0.044232620581773914,-0.021994909790293306
-0.0757599968120117,0.9596821107276239,0.3125260571349036,-0.16802841494266035,-0.4070884550278069,0.09105735604304943,0.06183899090448629,0.035627284721388854,0.015786638737524093,-0.17795659928398422,0.08092896653991165,-0.24042573337995576,0.1481067376431893,0.011377957052560487,0.09612862780463598,0.07963919763052002,0.022011762819256382,0.015800543640050832,-0.19146560716050015,-0.059985735493069084,-0.024520118465684457,0.01902646290283345,-0.009108184848880145,0.07359700652459789,-0.0451728703120625,-0.0280124232097151,-0.04650737785910151,0.08509202648063564,0.029641327726699123,0.03265131279538342,0.06791263689021138,0.11351216827062313,0.14718960984194573,-0.11636839631937873,-0.008184520833553817,-0.10873957308311501,-0.017780386462861963,-0.09912359111838383,-0.12911869331008846,-0.06973017936967145,-0.04225416330674813,0.12759054377058643,0.05402702332964565,-0.07791221585347577,0.061202347452700305,-0.0669002452047944,-0.03246447833224773,-0.07726033659946917,-0.021802447913677074,-0.09698179434650905,-0.1358087023420461,-0.11818563537692195,0.05857084098958962,0.13505737221798086,0.1652026976899318,-0.026467308625685023,-0.05143218661598469,0.21133432044545147,0.09373715938864051,0.0030979704749313974,0.12614884973546844,-0.08382061147044516,-0.024600771064294587,-0.09775112765483898
-0.0024494734004395524,-0.9308536985651168,0.7534688295508407,0.6979724272445164,0.4814262422098375,-0.5837920660374721,0.00889700912749878,-0.04033919367041065,-0.0053776421449266915,-0.13531342116816333,0.02920621002366296,-0.1614206463901346,0.09483847592810864,0.03697570570487125,-0.01321010467210046,-0.17466801229277285,0.04257666850341303,0.019805738974424753,0.07201914595488859,-0.1340806033679908,0.04537938608265538,0.12838482647947608,-0.03827296257703987,-0.13832927057658745,-0.0906470665341484,-0.002246167429083416,0.09210576445578539,0.025169390934960106,-0.06087267034062522,-0.04564334792268477,-0.22201615230113053,-0.03106443531532178,-0.14503496419792516,0.02936216813565442,0.08962890314238689,-0.0005471810330490466,0.039105274505660044,-0.011377810744809395,-0.10213596539557619,-0.0018195077925229357,-0.1386394176730345,0.1185210685496441,-0.1786069873526966,0.10283252427421768,-0.058969178273714805,0.05718740806314195,0.07124612377923745,0.02854100693916481,0.019079748450866265,-0.02268264391193037,0.04165879229804039,0.1067498780317508,0.11997420746780027,0.0021265132641325574,-0.08271332570108139,-0.11386031429925612,-0.013841994380311579,0.18198968387274964,0.05627559816218196,-0.1040282726364269,0.0721261999105642,-0.06042146263944021,0.01696042894565278,-0.023213616038988118
-0.03772020736833554,0.2403275629924918,0.4872123739442972,0.04498638875637471,-0.10903059952136433,-0.015332971263457803,-0.11982831886250764,-0.02508842457196783,0.06513591663901094,-0.08928825535330391,0.08015652708330592,-0.1718807264973925,0.04129234212250198,0.05363044044021446,-0.05633512296285581,0.03581411525723441,0.012083870722344544,0.02935935221613221,-0.03495698233332998,0.1832044239004477,-0.172542031614663,-0.04437181305183233,0.02126652977094834,0.13700669574775434,-0.1735516934144983,-0.1288202523854208,-0.09654894317691813,-0.03718004245901606,-0.10064504467773641,-0.0342872989912431,0.05760873686957495,-0.06163358591186681,-0.1594726076120281,-0.015844684573783328,-0.06468698762348842,-0.04077086292610344,-0.07094867589459015,0.03929440806997587,-0.10503286687889801,0.0028906723264122006,0.1229801231309361,0.20424951398636373,0.08373242990933664,0.13563528651039308,0.08228879500404329,-0.011967982719078491,-0.016490192187747266,-0.19364741213199926,-0.05586830273468549,0.00046640506686640817,0.05043077628938087,-0.0655635387893106,-0.10661241326471156,-0.11178114651786725,-0.08385142834013375,0.0015113547684480922,-0.17787847535209034,0.006894449800928945,-0.014001003024711375,-0.14589422020008397,-0.01416852396238889,0.14473989594301107,-0.025502936854095822,-0.05115927030487616
-0.13277194076354148,0.11629132971705185,-0.7888564642504778,0.4787240237751547,0.18693287094253472,0.1496995109730005,0.039893710686420565,-0.04809977238462832,0.07140081162863646,0.03666706394176906,0.05889114993664505,0.0024884445293870297,-0.18010293956815876,-0.028886441618246776,-0.034950874786976664,-0.009501035273120751,-0.03972898356633251,0.04117399316419595,0.020135980263655064,-0.14387981432709984,0.012096007816011764,-0.034173825490471564,-0.10171897977519212,-0.12033445255528401,0.008290302909850233,-0.0029544271545414273,-0.031309662420300706,-0.17901963850668667,0.1664881157225354,-0.07568831256821483,0.005798759962972039,0.016544755592535505,0.10040415810613074,0.02556551950566689,0.0748947606302,-0.040030970214032104,-0.005797813175222738,0.032496971746720345,-0.10055417391734496,-0.031696989512214384,-0.04844020337874199,-0.16620050035306036,0.006306063919299905,0.023058311156034628,0.014377313999562663,-0.17220101479247205,0.09720346787193755,-0.06939667310483805,0.11761822851372451,-0.014700063635795414,-0.03814046220889877,0.08770728569761481,-0.06693624337846384,-0.026131120899051164,-0.14417177735382528,-0.0748304136269862,0.16476857047509225,-0.15611027206271777,-0.018711107783900872,0.07172171059610388,-0.10701316461168747,-0.07011920126714438,0.011044312052570126,-0.16591250293526677
0.015779937541690166,0.8438487182565814,-0.02267833999339735,-0.43403828551728024,0.0896869604248082,0.19074747637125705,0.04834473228056091,0.025261599443838153,-0.05209203706359027,0.13631331546519057,0.012174163969217321,0.024326569879281393,0.07238449775817643,-0.04155019546672944,0.0035325349371642975,0.05055299166734912,0.000621217376379083,-0.04958342211864228,-0.07508663721743686,-0.0757797404327683,0.00595305215270784,-0.046315252028312,0.04845777998865552,-0.08477711871145878,-0.12516434729425668,-0.16709566663788003,-0.004007567550385948,0.03871506623924685,0.12149442201713213,0.06414561634562752,0.012753042125534051,0.07754640555656596,0.04370581390661035,-0.0565378256141411,0.12655558363565095,-0.04054231161717175,0.06918586184091205,-0.04849581247349266,0.1539098728204508,-0.10625264184168062,0.10883426621282943,-0.07643860883718818,0.1683906860310898,-0.07270091363137635,-0.06637443225318626,-0.08760385290540526,0.08713197738016569,-0.1288060878397575,0.13782266985662706,-0.16806391665653783,0.08079688708136142,-0.03290370069470921,-0.1160504331682093,0.13595489723439877,-0.07507819174266082,0.13707027247578582,0.0234564908770129,0.036603577222970016,-0.11239525344112089,-0.1248037873239138,-0.011666618313195121,-0.19182220223667953,-0.1017958086118031,0.20878884151023214
-0.06479387070650534,1.2400300134232927,1.169119198570971,1.184920977123258,1.6155343075280337,1.1317301391149475,-0.06042986824832092,0.006381521508250158,-0.1899735014320794,-0.05755926914757521,-0.016752139632186,-0.07279731698468493,-0.07754295872113946,-0.06390109424419675,-0.11613117650785244,-0.11147174391311057,-0.05493082018782276,-0.01064385112525911,-0.17474115932830891,-0.07693498300074461,-0.17790157992370842,0.0039038216856919204,0.0010897277893680579,-0.0652212519430253,-0.1907512857895531,-0.14301681253793586,-0.14234379569442235,-0.2097722564796849,0.015236382548661493,-0.11608165254297152,-0.08055827320930932,-0.11958704941509603,0.005106959422471192,0.05310982308375528,-0.10007632547103366,-0.06866683305496438,-0.18415303077723796,0.05373633472495813,-0.12851463145776676,-0.14300262705000183,-0.16832163196581765,0.023233344575034214,-0.236233576571345,0.02826816247986086,-0.031669055224901786,-0.03269631032166464,-0.13907265264938376,-0.33190396031371955,-0.09120759011235999,0.028628723189369883,-0.00871061988235411,-0.1715261118770495,-0.08482759089334097,-0.029742692912418434,-0.06254638718505218,-0.06415431545866933,-0.08587002246894693,-0.1536972757793194,-0.2633470403466371,-0.10949980639997843,-0.11411886749246657,-0.26064156185931664,-0.16711552373059124,-0.05885441242745771
-0.02967682404255586,0.45504589993537403,0.6526100629001239,0.11916116172084427,-0.3506605791096794,0.25734226319212855,-0.1277516916777662,0.057997637694132104,0.1352490430251657,-0.1140122163874361,-0.08479321318954892,-0.11198020891099503,0.1586895844455939,0.03598614516509473,-0.010468686598118252,-0.05777248306180707,-0.043623538935093596,-0.04617922676408935,-0.22632538361984272,-0.05850180964089117,-0.05300258822837137,-0.02852388829320448,-0.06525954362757945,-0.003139895245564748,-0.18325691768550997,-0.08108776840352908,0.036108474107128426,0.1280800772454383,-0.025349747120621963,0.007104092809223829,-0.06910015855867782,0.011430755762878636,0.11905502177041363,0.032442501084405155,0.056173846284399864,-0.04414851201276122,-0.09013946073345465,0.0017666688959357031,-0.005750118283162985,0.03338070750817201,0.00605861916961253,0.05627064594556599,0.10116851168228794,-0.09150015282301008,0.13965586214914186,0.0684574606454842,0.2018264425138551,0.011470249374552446,-0.019356550530133444,-0.1358253436868856,0.02995835364959626,-0.10595742457026217,0.05456134398125587,-0.030022755921103105,0.17423747843017506,0.017812955237719752,-0.15554876990544744,-0.16691262604141333,-0.14558915050750218,0.028741436595378665,-0.10014883652796489,0.14555182982737253,-0.18614293821433076,-0.03637667472236965
-0.2558323461015716,-0.06509619825038673,-0.34155236567062447,0.7196164267599374,0.9517159426106311,-0.4237268288347961,-0.05725210473112156,-0.09721370801445339,-0.0975735542407477,-0.10489655963627673,0.062008728824935945,0.06857452970956358,0.17062644365665677,0.05702426188557948,-0.006214261350649728,-0.03972689398833424,-0.09470263598246137,-0.1573931667844012,-0.0953447643406409,-0.18490942208828748,-0.004930455224762989,-0.08170912303542309,-0.0835828661490691,0.0720682707951475,-0.03320208559418882,0.05192591550031889,-0.0665267467549434,0.08751826353716119,0.09276262865633554,0.27391554765810733,-0.10021506352317563,0.1066072534146439,-0.04895210125014789,-0.05874063922715434,-0.09146975713551442,-0.1144515032434848,-0.10533753775108376,-0.013337166707058656,-0.0014618010279280466,0.2695221675479204,-0.07007320195754595,-0.04833033479447399,-0.07994622458856751,-0.07638185861913332,-0.15357440174861262,-0.13046708927165682,-0.021536606924521237,0.00804803816377572,-0.10474390573175561,0.07133032352827197,-0.11830723214239866,-0.0052020112126868,-0.12527758830092994,0.04278862197556448,-0.030028157673976527,0.08376324732635475,-0.15114398085055175,0.11987875193277024,-0.06480942660230843,0.06939357211319591,-0.019166764578420804,-0.03515225178735442,-0.13456179462789358,0.11491323504938858
-0.17516141932432858,-0.7110482573099621,0.6395235253693735,-0.04558423959866727,-0.24465990158275427,0.5238209867816435,-0.03433864107816366,-0.07477046088637009,0.03835809383366543,0.1361601074990912,-0.00719740878645926,0.15295873186206493,0.004899261906866964,-0.010979372508672782,-0.10765594180821421,-0.1051760053812367,0.05916784995239278,0.13157989386280958,0.06563177177916238,0.11282265255264019,0.07955673041267164,0.03758663143706694,-0.03067166603401894,-0.032252261807849125,0.06965322925633427,0.09130968363720646,0.051519469090969494,-0.03163950870468893,0.025147637971544533,-0.0018672331902346944,-0.07172906537352947,-0.117480586105684,0.03845160819142671,-0.07304635694415319,0.12236964327720516,0.11739292257773315,-0.07394398209524539,0.08980774934454566,0.031008650010228487,-0.07083053220529825,-0.06818245679857309,0.08037436775577703,-0.0388263874851291,0.01070030570460603,-0.004087692777859997,0.010712651324147173,-0.15460319008614248,0.05446767548733291,0.0022402388506732713,0.02755835564407867,0.08709755791368688,-0.11187817490234848,0.03098775142731149,-0.1371419148131813,0.14115182018465514,0.058865514097987286,0.10916347111697935,-0.002668135900889198,0.024236966291702584,0.11867351075095456,0.051586403385490205,0.16158989958032166,-0.030148495758793862,-0.16270225337248648
0.0029964673059514895,0.1856386541268606,0.06401809955754614,-0.15392376065987834,0.06532781162327046,-0.1628048366380478,-0.045127311995632344,-0.0975897863805844,-0.19023873365550584,-0.018664918224741325,0.10487440574711751,-0.04509671216903938,0.014863650111771385,0.1709090786033669,0.20105707461567646,0.06909303922331868,-0.1070360441067697,0.16042844466010606,-0.1245474652200659,0.037947341917775886,0.01717306110036154,0.0356175930939512,0.06708610561204713,-0.009814240258644595,0.010365925846627808,-0.0968677975152867,0.10257916706027512,-0.011537505750001112,0.06326401039919399,-0.10027873224582913,0.17614154430817658,-0.06273736273903172,0.17361619694019026,0.06398654455167094,0.09576678208316883,0.011634640576402188,0.03014753323989486,0.055043175843919635,-0.131740678609038,0.11004620945915913,0.2146695547838383,0.12179340109082627,-0.017746466079193397,0.012988023449216072,-0.10115945390889709,0.052504323096842005,0.06806200342313493,-0.09588149416799274,0.07020543354491125,0.11209700948488578,0.0065339010944503876,-0.09564599270391896,0.17525719218993155,-0.10589635999714479,-0.06683757813769685,-0.11386471414657144,0.11308054317954197,-0.0946846039910087,-0.004888454983201642,0.07633741714316883,-0.056543936957043336,0.02936667361945732,0.0443697786022206,-0.0866128399018571
-0.03510792063548549,-0.43267779169005344,0.7535874465802109,0.6661363033378706,0.5069768590094439,0.32583803420339835,0.018809506150772037,0.04999636808868877,-0.026584840850976923,0.09867535056300109,0.0883853592759069,0.05656860803075835,0.0275491772043935,-0.17424566918267026,0.022289142361523604,0.0631091262503933,0.06613917754324554,-0.034999799067093065,0.11536917341185611,-0.06141250930525201,0.006390037836733175,-0.1342728004078753,-0.037225434205757996,-0.23191485466842152,-0.07131772350722479,-0.04122732614043361,0.010122567576610604,0.10409947105572881,-0.2104773688873409,-0.12046692576314702,-0.16751640611906568,0.030391157050326238,-0.03393182919374748,0.028067469329482325,-0.1025310796799725,0.014892215402896867,-0.10747618279583895,0.13837872020160188,-0.051932502844391784,-0.16497491085697738,0.09765972761128967,-0.14192796540086083,0.05786863416047553,-0.11682917946302998,0.10634430829659602,-0.0025576601269699482,-0.1599123650978438,-0.13509758156989532,-0.13777872501968255,0.013680944063850072,-0.008017778766287214,-0.029229565815623942,0.026190834962800356,-0.06148428130991208,-0.00045637662897886377,0.21868160844307122,-0.2451410062506384,-0.15630889810571655,0.016011474538334635,-0.01564192073761984,-0.07433735730808369,-0.1129300776952325,0.06191383818198948,-0.17376344357365198
-0.0309692337717258,-0.6238079515490034,0.10120897993394849,0.26471871406802877,0.7785065764596205,0.5888750085590658,0.13297777710486106,0.026122956540040383,-0.011486925350484822,0.16327792704415797,0.23011249274542095,-0.2102147755970577,-0.09999949928542332,-0.16491392016963136,-0.09700236270199873,-0.06606167552564472,0.05794987141363666,-0.20539898415972282,-0.010186454834834057,-0.3519807472616206,-0.13082977822863148,0.04903174419688299,-0.13308205530396322,-0.1493171709826123,-0.04359552525602687,-0.10897715656628566,-0.1492976133623467,-0.008559819388325311,-0.12432046900419942,0.033770950632794304,0.007894021398933854,-0.20197720669744249,0.08749197878965471,-0.011961614637978773,-0.016220667375235028,0.1909051103747002,0.020194212370392085,0.13987220332590164,-0.0604852331814104,0.17767118808489116,0.09748865743180216,0.11136047997186872,-0.11232266654873309,0.04455406310774115,-0.06266034957799213,0.027148426900851192,0.04336456944542207,-0.1762943694318557,0.17752810455284007,0.06530520047968863,-0.029057058869125883,0.049730099856723296,-0.09323592791102804,-0.11935160730209916,0.07426589635924545,-0.08826800421924325,-0.013971223782335375,-0.12342518236879255,-0.011751029330492846,-0.001588076540103739,-0.07529370545556033,-0.16776164586841613,0.03181294012080643,-0.19725547331787546
0.0582045307810293,0.030511785740629977,0.027198117390556605,0.07910391710105018,0.9731605042118464,0.8604445671447509,-0.048345409412822185,0.04672221328836187,0.013404046276651232,-0.25200754307828305,-0.1086067222364128,-0.03650061231309232,-0.2237966340282343,-0.07079854587562276,0.014567054940216345,-0.1026590402209192,-0.04036532894283013,-0.10863306151405822,0.0396321336916936,-0.1447049655775537,0.060709845222650244,-0.14144043815492402,-0.01857469713501969,0.06313305094155916,-0.02547626406262155,-0.020362941812215058,-0.1529644748791446,-0.05797855977484063,0.17990801752382263,-0.03982015404623591,-0.044281798925142696,-0.24017805323666688,0.09193568642842512,0.016619851729003304,-0.04020548009666561,-0.2858740815125921,0.00871127052132979,-0.04101688093068875,-0.14227158575420196,-0.14287801116676435,-0.1453396639154039,0.05056828543178134,-0.06909770721340604,-0.07435557107072492,-0.014561078639657119,-0.04766160497003405,-0.018782780074957813,-0.22073090384195215,-0.011510262475269095,-0.0035012096755853714,-0.09207780654581352,-0.04587551210416047,-0.027645802952820705,-0.02746917382758154,-0.0748260365370227,-0.0701427227221437,-0.1425475895492647,0.0026348651186840597,-0.011740069806591376,0.05550599853432731,-0.13038712721953938,-0.09311321403007235,-0.011720566835110593,-0.09309648758378684
-0.016932279094699423,0.37521819600215245,0.10596941295500789,-0.5600671418228464,0.3833920607814169,0.529699230695385,0.042949211440443905,-0.07407971829791506,-0.002304183846336628,0.010157232847764689,-0.08224257014208503,-0.1982868540006663,-0.08959907589235644,-0.0073471006711649306,-0.08756035727072563,-0.05916656347387821,-0.04831934265803367,-0.0020186021209862622,0.08506697592776248,-0.12912490330746842,-0.03945122466449523,-0.033437673184597984,0.06691201933154751,-0.06536335199754202,-0.10633935568657721,0.1329137029869416,0.012850296336991527,-0.12161536751415704,0.10385687082134411,-0.0035256183082947416,-0.022655612855804943,0.017686126645079996,-0.07367229407821933,-0.05753550280755121,-0.020903933501947396,-0.07416987887791854,0.020811075677330197,0.12412646656636107,-0.06208156177532533,0.13891563805660603,-0.11648586978542039,-0.057105454371079244,0.01928954901135484,0.038447752546844516,0.048360734556095984,-0.026877796741706646,0.03391988690818044,0.07656769115759293,0.0458283275912247,-0.20930932445202258,-0.06013985582056475,-0.08274119286809331,-0.11502782695289462,-0.04014142675054616,-0.08402302905605737,-0.10630674718807578,-0.018566343678599422,-0.14328437056108415,-0.1872165326964516,0.057559767106840264,-0.018842883772870803,-0.16266885779934862,-0.015266872355971217,-0.08928242992878664
-0.04234078767120607,0.8867002125336675,0.10666481118059215,-0.1062666804130887,-0.2583704544143489,0.14974467191613747,0.06168406162153949,-0.0896237012795394,0.1288741619047758,0.02323708497762417,-0.012164847947743165,0.06670178346593296,0.019485067983096994,-0.04658805366549873,-0.03177999494473041,-0.03341614328241626,-0.04018828714418565,0.017253599753261056,0.05137153719850987,0.003666192924520347,-0.012066799592314086,0.09971587444323966,-0.049615675240453225,0.08913855035625716,0.15238260356316977,0.1284467295054838,0.015120486231277387,-0.10539531979429088,-0.049568872973074704,-0.08193755648456401,-0.14500317733415904,0.1281599074809391,-0.09634185166367604,-0.2514273845026123,-0.0005980760229088777,-0.10548111037168044,0.2060498712703825,0.1441366511471609,0.04346451311093236,0.030188186463930032,0.09194452879488833,0.1010836049358437,-0.03903439685183947,-0.045079749646817095,-0.0925647684612997,0.10190644838951195,0.109882516943641,0.025749713788764905,-0.06437903105874941,-0.06283703244885047,0.122059843335966,-0.015157856938418326,0.01702948759730632,-0.02199174971754322,0.010986060150989662,0.035097036449579504,-0.14349741226442167,-0.028299467376559535,0.11236177475800811,-0.0807913178462571,0.03346943139853501,-0.07299123830600103,0.13464199671461155,-0.07890332816509102
-0.055841495332858725,0.8573602283004521,-0.17736594575337022,-0.36616872219900576,-0.15989818171465037,-0.12465975790943373,-0.0016346972282071195,0.11463398423065163,-0.05100907398853901,0.008691728832802842,-0.16904570240486486,0.09819215687591638,-0.10094799695325839,-0.09287924555299225,0.029169826934910895,0.08351060060888574,-0.06639759311278211,0.17194299988767242,0.004889957156966093,0.00806156431837074,0.2102805786778659,-0.12372116373371131,-0.015270078253752848,-0.02755464041244037,0.018073972014376022,0.0800020264372231,-0.0530114564438889,0.052799427460840896,0.03494726295371144,-0.1229740019338212,-0.2523046231344752,-0.03511782733753997,0.010067230555463673,0.0018557630572434208,-0.11500644794536385,0.0326223690991793,0.2188907490084257,0.029284716254010586,0.04919780937933397,-0.006306076488411065,0.01116051462527621,-0.020154255528011002,0.07132395359489327,-0.0023757272593898492,-0.07975472406760833,0.07930438055425659,-0.06498753120825497,0.05850328610932471,0.11949435525448354,0.04465522983677346,-8.242650595475586e-05,0.09042763286124755,0.08352532875288489,0.05169985348353233,0.11420612685729901,0.07028790431068316,0.1672713790530307,-0.009045542835053037,-0.04213533323500239,-0.009431639031987247,-0.10484173013262364,0.05365617065452664,-0.11663269537919457,-0.07847559253816942
-0.024193011432671087,-0.1856770309126249,0.0864109142068009,0.2775051833387411,0.10970727690968997,0.39694890008330164,0.18691603998183423,-0.13984535301385825,0.15454042378042412,0.0701732952629193,0.0639263271860706,0.010375932369512675,0.05254957647028224,0.003824891644756837,-0.07011900600773607,0.12877162440980844,0.03711429811135436,0.07814865522213697,0.2227122140105853,-0.015134587439275935,0.021894264520782518,-0.16760906053620525,-0.054985072989350486,0.08469773411777613,-0.05834817545192279,0.0471924013441227,-0.22597630424206586,0.056323279740073985,-0.09806585873622647,0.11157145935482585,0.15578947564646092,0.04782581069120722,0.025699451313619084,-0.15880357792687444,-0.061846681872167644,0.028607687879056615,0.0839027863970137,0.057061692565690166,0.24390364066267717,0.06913787824767367,-0.05397649687629371,-0.028608541394649023,-0.08605495628837143,0.07610454174293227,-0.10863418161038466,-0.08280433444882551,0.07040236518320589,0.17077970885718988,-0.01355147944130904,-0.17422621385199766,-0.08808042181781461,0.044661613367132424,0.09398257310030508,-0.006499289683802347,0.05682385627322216,-0.09372374043371465,-0.1033846447689565,-0.0996201446799969,0.11428950047410583,-0.012449209889601751,-0.02382543135297621,-0.07178657954405857,-0.2235016814054019,-0.0648353399762899
0.24100189852829726,-0.10335949518864126,0.18404480687907368,0.1727329475266036,-0.18516252879956382,0.16931376682109756,-0.09988820989545324,0.1739637755570042,-0.0320029350069274,0.11491896543479839,-0.047172183379528644,0.04850394564133722,-0.13393658480437118,-0.1499281832923459,0.12218414876687787,-0.14179419743682983,-0.005068024421302209,0.21148174532338324,-0.08591880846479613,-0.10664292051398763,0.06674132598499856,0.11874166898893276,0.20006655726739764,0.02517464236103092,0.03974544196168438,-0.03793310684015477,0.04191426990466739,-0.09551047353061494,-0.06709310594923942,0.08885635455470481,0.06235575536448761,-0.19157158902548133,0.06123679410308158,0.08006648839665338,0.030235578030843414,0.02870541576149964,0.17499151721661688,0.06104622428764129,0.19554022022832634,0.01614743368542746,-0.08127347791749412,-0.04655899084943962,0.1038973086894538,0.09173400723471303,0.24990939359423237,0.10962888741181642,0.03599888593430478,0.0059426088968499,-0.00789088323470775,-0.08520769861472027,0.04980586429061583,-0.04190667487940022,0.05219114025196565,-0.07163168512809691,-0.10533475789851701,-0.03934571392292958,0.005182352901386428,-0.15260979244435613,0.1125220033664938,-0.0915379609431517,-0.10040848300346214,0.029163975914271518,-0.07739177152905499,0.08378182516539348
-0.10103371634179789,0.6189915797479589,0.5054400386036022,1.0134945357660443,1.0847930145995373,1.1837364124845497,0.009724000463989921,0.039003933742869736,-0.1120451779912397,-0.053087143936813505,0.07285901158062108,-0.0010810801734513465,-0.1717954563030862,-0.14298032903108268,-0.05072610513751476,-0.021017661092924876,-0.19535384786592871,0.007699562578197577,-0.07672751679639613,0.15693050260730057,-0.08498438659733902,-0.12945385170324553,-0.06418330168979547,-0.19866008943111288,-0.09451782140566505,-0.09813903017074245,-0.17091525904362354,-0.01594772821794099,0.0005082663991522552,-0.09180711814820433,-0.12797445667151602,0.009012203504816282,-0.008670790385502463,-0.10461150028764815,-0.09911360356262773,-0.14879298132192093,0.014295536693309421,-0.04821288940645235,-0.0705318758215578,-0.16425584256213213,-0.06594059078988827,-0.06374784892265298,-0.014599977314119984,-0.24142763295095868,-0.18896130617958884,-0.062283400866368015,-0.25921677532088516,-0.0940659009465812,0.051589570181660126,-0.06958377959565996,-0.09708074326629772,0.02428261449661297,-0.0726161669782466,-0.03235599642545235,0.13531015140025898,-0.03730651741120586,-0.01272440570083019,-0.1233189161554338,-0.07122801250699552,-0.13277707915408454,0.03506598668183912,0.0027827486259502272,-0.03396100635440248,-0.126714957654197
0.06422564696179446,0.5516582246457772,-0.1804393938194845,0.28932617058279186,-0.36351906979341675,-0.3041440642651821,0.04190569178684986,-0.04937968155673151,-0.07732638172934655,-0.14044369867442286,-0.01625722310618853,-0.04295477190889965,-0.085116842869318,-0.11585686080089468,0.07810425803657461,0.13524989566774978,0.13370401224057143,-0.2713254864275373,0.03714205002455697,-0.04430727985644983,-0.08403152975184974,-0.09932969129707463,0.0074913351341332765,0.0018136578226028285,0.06093945320845291,-0.034433273096022225,-0.19166831773924695,-0.04819782230137444,0.08811934077779589,0.13281651093404334,-0.04276778300744866,-0.0038874352136139185,0.026103597535036976,-0.02602730380147465,-0.06973081113199314,0.041997039402511566,0.04612234083457623,-0.06538727373193585,0.031896589049370365,0.058263627691733134,0.04391266164175218,0.09877327377372565,-0.05263066623654941,0.08372766199272168,0.1254073577229175,-0.03828156428458522,-0.15370276732270985,0.09670791607273647,0.12024648412185412,0.01814029349662267,-0.03565590971789779,0.017731664930154968,0.0820465057460543,0.036305035497342694,-0.030691360054949775,-0.16957044861751752,0.03285794941231997,0.07537964058101494,-0.06520628829854624,-0.004133448720165775,0.08445710046577179,0.1623931457596928,0.023606931508890816,0.0537669053269011
0.11841367965180442,0.665783909483175,-0.2010748122403665,-0.19008408697798304,-0.18474287870698072,0.13401169116264725,0.042011223390085374,0.06164587136513981,-0.25462317853792876,0.13588033991777024,-0.021809847430665268,0.006025929219622573,0.16284382066763037,-0.08085101965730737,0.04575264484218967,-0.013111573708146458,0.0563484990000123,0.2626693184429847,-0.24241696810148883,0.02488828412540472,0.09081713503999547,-0.025359954632943077,-0.1320908549094657,-0.015442067772569372,-0.0369853200913442,0.02932479320683509,-0.21716395818068152,-0.07778224764965003,0.054881724238612144,-0.10427452726366862,-0.0010857824425020168,0.02144889058082914,0.06851915529004082,0.13362666914360208,-0.007334308851357924,0.041514487452567736,-0.03382420265203532,-0.029801203580755508,-0.008048057399610273,-0.06167021913416459,-0.10005651637592117,0.04625953384861433,0.12478456338634132,0.03909539863238205,0.1685590617617503,-0.06037059976995648,0.08433176397310747,0.037748381914064044,0.00577638281815447,-0.0193803350942153,-0.05947653092755342,-0.097687298672775,0.07829893551002441,-0.08099360478952687,0.028174995026327383,0.006472059345673449,0.06414166476985363,0.0754189053403186,0.1567061572293604,-0.06647632895364802,0.04308719438122213,-0.09921190796610958,0.00452588720372632,-0.2487654303523618
-0.04096179896525708,0.07995523989749999,0.05270747794975621,0.06432378270483133,-0.006390105354078064,0.02177417626619496,0.03839150650131033,0.00943376405600788,0.07692332974706291,0.03491523126103479,-0.16208714950456862,-0.03852532339866035,0.05431177994337699,0.0017816089529530512,-0.10406228848896136,-0.0429891147218732,0.21682957003186268,0.08528752504301285,-0.0035284531109957473,0.09637716918333286,-0.12722259217545398,-0.010433355636836835,0.060336960258741384,0.06618853035052256,0.12091262621912564,-0.13174528926910545,0.056729785800667454,0.014297735256831071,-0.0515410369084428,-0.003457346237577526,0.02096468971018812,0.2713834778426645,-0.049211414014214604,-0.1762296128457695,0.04501890146916508,-0.1319406084647622,-0.008104257920835129,-0.07377227279865228,-0.042803048744727824,-0.030422294398726273,0.00822328712816914,-0.06026680040062743,-0.03966980220364292,0.14625515092847083,-0.1294549599554592,0.15149716878381358,0.08204870546703169,0.1806663911499911,0.07812918709539306,0.049276979124927546,0.07725084891771898,0.007945504645569498,-0.07330839296231592,-0.013058419724161385,-0.16559900969865238,0.07907734234625137,-0.14070924521930325,0.03841913707880737,-0.03145182909244795,0.06575140347881735,0.07135199606839472,0.006430767823539584,0.19605642328337264,-0.10521840504160015
0.03504055498205745,0.6782105249452901,-0.21154865888038174,-0.39898573294044426,-0.05689258419185439,0.5336657665352307,0.039814597348358974,0.12289448870701165,-0.009174552174659605,0.0329040528375278,-0.11254161198409447,-0.11432610689634379,-0.03123023832471487,0.03543364813505386,0.18359488765361082,0.0412289904889241,0.04772211083713092,0.023622094756596736,0.0381254509839273,0.10073714556770341,-0.047250719043315646,-0.10407688617063475,-0.14247644731677975,0.13417791010797528,0.06685922229249236,0.029218932476421558,0.02062055524482363,-0.061959420988094135,-0.04707600181299073,0.20237352680572754,0.020839992460429484,0.023435056872898874,0.11193696859843157,0.09924767787199067,0.04709325830253335,-0.06692153436077068,0.0782570025599352,-0.05399518999238475,-0.036042036968851596,0.1256481925271238,0.0056229335658505245,-0.03610166662709578,0.0800860387626307,0.01104895087449216,-0.09046599109886036,0.08299832566653732,0.042159529575071346,0.0259981152118932,0.11512678471466012,-0.08630311586967893,0.0926772585298677,0.0468274316784702,0.0875150116297194,0.07305042493951557,-0.05119469912995706,-0.10867538203304529,0.13694322252665428,-0.07555293060134213,0.20266998726009677,-0.06386247117173552,-0.09913761486267687,0.06220526072594851,0.06041203522368407,0.07274152751026661
-0.029161926375915522,-0.23715005024023258,-0.044681613565167415,0.21968119722275706,0.3110999352527179,0.3368569608596028,-0.09533029427578936,0.07186564429011877,0.1413524462245272,0.03679930148897804,0.06659856608714301,0.11394373989976901,-0.06705045504037181,0.02970796393999352,0.08146375304968702,-0.13473505001411432,0.012148923240105757,-0.018080969863965835,-0.15387658847429753,0.032455524433867004,-0.14492764196729996,0.06361408502040904,-0.041264382815058814,0.05160351588699151,0.1899462645320732,-0.06348071344006602,-0.055572015635378974,-0.08872303284820611,-0.1175254736986985,-0.08245334689030645,-0.07577312462253499,0.1415356032023598,-0.08629884251139552,-0.1650263959099172,0.1082516492225029,-0.00819527435017283,-0.005380719531200251,-0.07146130035762165,0.019161395635735018,-0.09857189966449621,0.04952111381756969,-0.22332743698152888,-0.0015135436763384223,-0.016858642402127262,0.0805080709478761,-0.02506576645432256,0.010431533352733682,0.0880188530823361,0.08358684609471424,0.12328286839825978,-0.01107277031990145,0.10773870831122621,0.01763936819811702,-0.005986307710368482,-0.05424402458306807,-0.04994484444397978,0.0028237017185129224,-0.10288173399138673,0.00045540449924593704,-0.11383733545068737,0.09869097078486296,-0.03134755500667347,0.16572345852947862,-0.06067151216977996
-0.03966556041636933,-0.38726912794896523,0.5784056942229759,0.4684874716223354,0.22509272762392704,0.12627673060513714,0.058414710449482085,-0.23573093037917014,0.08046298323585867,-0.14628264635141006,-0.007138863255612829,-0.05263321116925006,0.025372250442678726,0.007783480292420829,-0.14403829044460878,-0.12594496522864557,-0.11196661842068009,-0.017847626672879265,0.05521807072026116,0.014908119758457777,-0.07559986782863959,-0.006006156654124538,0.03887381758384451,-0.09074875699579307,-0.04807342861161132,-0.04668899055506519,0.04171529233309901,-0.03198759272275266,0.004252675262427632,0.12568163789662962,-0.05021294628312195,-0.055146275663640124,-0.04269642357973599,0.021015719354619124,-0.2641869963086385,-0.07567040606676816,0.011430463271530635,-0.0008838795584147909,-0.023443234994484207,-0.056064396642122344,0.01214204807563853,0.13709917858157727,-0.07774970050115063,-0.06433469430237201,0.1410295566523384,0.014378180003089495,-0.04053556924325876,0.13834402403030124,-0.07510415797235463,-0.04233077340483896,0.13696931961609457,-0.007981272272176192,0.1250465258820325,0.06937036235264024,-0.006330172243656948,0.008173627226758629,-0.18155163922050488,0.09318286614292778,0.07040797762763276,0.07382499461140335,0.02208148914912747,0.1351757847568492,-0.07550574345277777,0.04611515588451939
0.040239464166583125,-0.0593608943227249,0.3352835007612297,0.1390959721406448,0.31646766240362995,-0.2614241212269914,0.09541586986634677,0.026928310757898092,0.027539914358901508,-0.10655683296026572,0.10435046394112435,-0.20150369985198321,-0.012769740039012054,-0.003275517533433086,0.0603605786973091,0.016298576598392612,-0.211681348892455,-0.1429605944196678,-0.08951910474774856,-0.01606217580213552,0.05548982140246615,-0.12405808286206627,-0.09967285070236266,-0.07969769513330564,0.05595053984126423,0.05275969974590294,-0.016144904764557818,0.03617890282963938,0.0672316032902953,-0.11328123492776447,0.005794807270342758,-0.2035382570100124,0.027859832536997895,-0.03344799616996508,-0.030631778683868297,-0.05224326807328001,-0.01725303938081124,-0.02182352086581729,0.012012203462611044,0.041626532265116485,0.11518047180023686,0.12854439316378713,-0.18845782609432324,0.0826154699419989,-0.02754196452950768,-0.21613147850080602,-0.025852234854043813,-0.021431761764373253,-0.14891924704956816,0.05997470602449043,0.02066519277919793,-0.06344946910245214,-0.18863191998197196,-0.050365627448532235,0.037074580346060704,-0.032691710360610735,0.11205902328121353,-0.04260378036903625,-0.17824579288155123,0.023978140135748914,-0.04432518028564446,-0.033818055777291245,-0.07352815490853377,0.04321413560750892
-0.055700594540115285,1.1833544870226356,-0.6354109866915393,-0.3067141006018204,0.30150032783154407,-0.063818365549981,0.12032303152325714,-0.17857205344201474,0.06990515801295812,0.16388079887622195,0.055533742925842025,-0.15207853351784198,-0.12280082851292626,-0.028370311625869313,0.06195942479369112,-0.03605316272544777,-0.17261736574085407,0.05954491731978499,-0.06442277643740733,0.06620082408787817,-0.016797555813484535,4.151636394180495e-05,-0.15398453436397772,0.011071175062814319,-0.05584900908854461,0.018233059082203944,-0.08672991491044879,-0.11579757836748052,-0.012287053579140166,-0.07439206152143703,0.032614523934693246,-0.07106669396001733,0.00273058312203592,0.08596724165078723,0.0776159669833073,-0.0987801183287719,0.0852896087508897,-0.10453095444684415,-0.012518193795903397,-0.08671107299666563,0.032014126458832365,-0.11165830877087007,0.1418329899307288,0.0578405078517203,-0.1043002703252738,-0.11896330307717504,0.03000295438547396,-0.03503998686879195,-0.04736505906587124,-0.033901399297718536,-0.03218615896814253,-0.1401609086049458,0.09400014321968848,-0.1435206433292533,0.005180637496207941,0.07077762670237607,-0.1259202155586167,-0.008110071446833808,-0.13222641366153998,-0.02004236347080496,-0.05933108069030045,0.07726706246175614,0.16622516014881727,0.0965977441783156
0.04780305509651999,0.7857974677813365,-0.13109877437181144,-0.09437640714700664,-0.14430646342074804,-0.38280144309772085,-0.1140347437931258,0.0492631602734883,0.09601645653945456,-0.08442466680371881,-0.15850053799202113,-0.23553005692247928,0.025188342407886755,-0.11182043396610773,-0.005894813048957906,-0.05244767773410533,-0.0408157617632754,-0.032662772193522795,-0.0038687033162902954,0.022769628495521502,0.018780632514586535,0.044879638335886804,0.024603869700790846,-0.11092058285324352,0.0432061451522153,0.019027205907166354,0.08616231181177066,0.06811482174337469,0.17436505208979688,0.035647097662888684,-0.2489664165465257,-0.09478616410290214,-0.03407020836534568,0.11984840093423266,0.09663839460100816,0.08331392368303568,0.033124798237203164,0.04646326200628165,-0.10040358439970315,-0.15109691864692387,0.004979803203219803,0.04499839672954984,-0.04190788273834019,0.08958818427265708,0.15429599808323952,-0.1975967568078593,0.08715776904722329,-0.055853091842182435,0.0991854783963058,-0.020708120958955724,-0.019094740655850963,-0.07953616850897634,0.036714807354466514,-0.037114106889294694,-0.12131775446845663,0.2676865950084782,-0.07465554631588114,0.08425809221507113,0.03317075985669145,0.015872630322180916,0.12183276637916994,0.011088695461219837,-0.07754379075549553,-0.17585495754773925
-0.037801883503753624,0.24694286050141498,-0.21998023316430687,0.53007405930675,-0.07444248052081635,-0.06918205118599746,-0.02451753163047596,0.0482047701486713,-0.026596021566238102,0.09997346021955052,-0.07393691978024872,0.15127555567951798,-0.08078152274105517,0.100908408506513,-0.0814794698617967,-0.06930656804799466,0.1304307924959278,-0.048782064993338724,-0.04740835684551206,-0.047880736103292826,-0.02469209352945635,-0.0928004964272062,-0.1454204962316508,-0.03918945812964017,-0.07076764256616619,-0.2592475193612987,0.0869888481703302,-0.01394237223843874,-0.04635858188859183,-0.18740683675781902,0.05755494423977895,0.08485071371342354,-0.022690840825602635,0.011620145583833496,0.18852343904880797,-0.0091498513814936,-0.07889182155751032,0.11756486972548252,0.014565730547206387,0.1612483284495169,0.012612336939097654,-0.047102250770588314,0.12044000298381843,0.08279210419389059,-0.026398774703593444,-0.006415645027667117,0.017785231483063626,0.04236218678322845,-0.06047979828365465,-0.08907578177907084,0.06074812963982412,-0.06697177431596239,0.08788884559589773,-0.010218240497096185,-0.13307215632464248,-0.03380556491606796,-0.06970887280528862,-0.065494890806157,0.02106335101393899,-0.017278671477293662,0.011915848920255968,0.07265117538389432,-0.05833380651331647,-0.03393292522399338
0.08233924428805121,-0.19913561762668125,-0.17313281575947986,-0.14866269409207647,0.09269151399847608,0.10091310964467293,-0.06993479149112716,-0.14146778046735464,0.16764267827967133,0.06659589131069527,-0.16920262059052515,-0.05395835089553057,0.12272568003071647,0.031896685700361874,-0.06749192628311915,0.006175374764100311,-0.2804413308029034,-0.08236653151374984,-0.024234724122394552,0.01225063244283462,-0.059908347663591585,0.06561098712621555,-0.07872892849244888,-0.031284680958894515,-0.0635928061791354,0.006253410671460913,-0.061945595309029766,0.07570996947256406,0.12823389097614282,-0.002803954785224224,-0.028601217537023212,0.030710550528972095,-0.10943061957056875,-0.10524074943677078,-0.0611929648586674,0.054261599553594754,0.053731547906087,-0.031139900754820243,0.10833934707485161,-0.22000258769225764,0.017025833769512486,-0.10827242789918783,-0.04756485879283125,-0.03391661706930144,0.08424528100374737,-0.03383779733815491,-0.14529294843976695,0.09278581610614305,0.19601462953863724,0.003549222529191141,0.03746094132039947,-0.014165542032420333,-0.09971777558024686,0.10299133569320913,0.11887624092650123,-0.024735473427354524,-0.10293569666569449,0.19195910411458042,0.07394194243255249,-0.06745517694015905,-0.02041486594483275,0.023872342314888592,0.002582511343094953,-0.06148033806421636
0.04229481634144406,-0.48184547407125494,-0.2561648634577362,0.7118402393443101,0.32605294137094054,0.3076120253879435,-0.0051450425169752316,-0.045336265361186935,0.12735592113242522,-0.11897178496362022,-0.01269832763066792,0.012711891492948862,-0.11936264502973877,-0.16294414766508186,-0.09322708266764274,0.05936657729372865,0.03400792795673414,-0.08669790796140846,0.06970618351605991,0.17545323645117628,0.07017326111514334,-0.21754026660885442,-0.1366300723257788,-5.31939857708955e-05,0.03624867295516725,0.2174451895035985,0.060592913001938364,-0.003025079476960046,0.0908613175469402,-0.010622493607869574,-0.2244783847947439,0.1271561448018887,-0.07690803769049187,-0.01570375503126146,0.037956193853921585,-0.04255037882034205,0.08263764906152941,0.1921960645247233,0.08159456647541974,0.00682870707049265,0.02337582454999437,0.021723632902781637,0.051517382291012805,0.17383832864943025,0.02473348015678049,0.15969111917524664,-0.03549038627058187,0.022104977832537787,-0.012741372299951101,-0.12580982851252145,-0.047934235491691624,-0.09211776874823298,-0.013397893235768147,-0.1299959049755808,0.05376719721616315,0.09776552140411787,0.010632324503077379,0.049257815214393486,0.03357679241497002,0.11704790289076285,0.0775100277879421,-0.11432145138572057,0.20541718475588902,0.029167186363293837
-0.13344945823523907,-0.5290528766939854,-0.07654507341805077,0.617445390568939,0.479384656806282,-0.025630248862870637,-0.03315897072738579,-0.06487447239669547,-0.21272380046761646,-0.050087094241516306,-0.048746203367645576,0.07376283220563175,0.11758291674276765,0.020785738612471072,-0.09986425789495036,0.002182511752700217,-0.24586248442334108,0.02356932306357461,-0.06528853222169666,-0.08493748653971946,-0.0036941882473738264,-0.15403645966520657,0.13058232441014866,0.1559508167801945,0.04193736273991241,-0.035994287185733005,0.05292384469617479,-0.0688169697404408,-0.13841190458476413,0.11718868913675186,0.039534595528301235,-0.025817253235273348,-0.08687060919210118,-0.009393452965597876,-0.13988211997497774,0.018361438924735962,-0.10941683957257153,0.03586046476013868,-0.12754939079897915,-0.08899756234169968,0.20911801001642336,0.1542787169453361,-0.07240579272267715,-0.042339360842940495,0.07842482930014777,0.022138470726802518,0.02154413018176073,-0.0419285045027076,-0.04906451509887223,0.06967695643875652,0.06764304313279151,0.21516279683925194,-0.21618934149781566,-0.05916430836602879,-0.1047834227989185,-0.11708408164958298,-0.0647833446926022,-0.010580067978254438,0.026936415517822873,0.12402347424043965,0.14168990391669564,-0.05144424565609679,-0.08005650727452882,0.06341154817297949
0.10421526791661491,0.010612995348679873,0.08425131897152792,0.06079804321997598,-0.14501457445008037,0.06612023022390605,0.0759729277076967,0.09278575746752682,-0.01708775625989416,-0.10874247719936615,0.08901443498864846,0.09092559751618014,0.04214645365912064,0.16064555290590546,0.0028089491657464997,0.08518676246682329,-0.14700384332616426,-0.0858764877392928,-0.03234463368109163,-0.12253831463117852,-0.11686897222032916,0.11113703751168998,0.01734420687018223,-0.11283407725401262,0.01167718829846702,-0.1258303024052633,-0.031492510714098136,-0.15112697158642452,0.1574164512948105,0.14044723919791713,0.23584676484062095,-0.01911246862006231,-0.04828573620074522,-0.028934249968331185,0.14859485779968296,0.06498760919209072,0.15065193489363526,0.05316620375648703,-0.1247378081557669,-0.12185172837900353,-0.09264629901492305,0.014074431728561583,0.0021200438594884707,-0.07056937222258777,0.049459893312812954,-0.09526421963544318,0.045082199669003516,0.08570563911866257,-0.05809825750695,0.15478308160474957,-0.09720121015761032,-0.029053432184109523,-0.06539112062504858,-0.310260722478839,-0.1694633541313206,0.054024338907602644,-0.12646580379809538,-0.001289857940534831,0.16378011666908307,-0.02630934826847535,0.004558158808913589,-0.05030810999877227,-0.01667276222958019,-0.08748564700587842
-0.016859953065231453,-0.17406226200101504,-0.2812829723277002,0.30524228937557074,0.4866624500515967,0.03955692842932059,0.0361575540896583,-0.1399055996076981,-0.05734658085122107,0.038728803949150896,0.03974178077132834,-0.003965029486748032,0.1102089566518225,-0.13636744101036652,0.073393991120193,0.07100609423457303,0.029582746643390556,-0.012816747554767333,-0.05866530380390363,0.05741100231809334,0.06659389088098094,-0.04122854052049689,-0.013847123506932025,-0.06762444393469237,0.0685569387463864,-0.07828657916924636,-0.14845405623789976,-0.0008579868502548929,-0.05372146922954042,0.02021323459332676,0.0781238426163066,0.1643081228122801,0.004240121134287537,0.030339494807173312,-0.15641490088603974,0.18438947518390886,-0.04671317975047351,-0.09978994551311932,0.20155917893752054,-0.029020983539199987,-0.05479998588131782,-0.021913834426096526,0.06266211926555586,-0.15144028072014465,-0.023414338129585113,0.12589497535299232,0.06820173453608565,0.06453690709288543,0.056276950402829456,0.2140891109887433,-0.1023834660585323,-0.024326468904209343,0.013083575630936357,0.015241696045813689,-0.06881879773199101,-0.14356770475608965,0.051020961150521855,-0.020109433357824592,0.052661627070015864,-0.045732678930360295,0.022200514792112686,0.08690571396391406,0.0011057466627829903,-0.1107017018777564
-0.13582491813737446,-0.7704497157661747,0.6310546232370233,0.45644762012337275,0.591328596664579,0.6357605326632343,0.08575570006646477,-0.14653148938562122,-0.09966214125189472,0.1134679817517795,-0.11944208643434374,-0.16616531268857593,0.011066555076759542,-0.08578863782619378,0.017321996639614257,0.012486956798182586,-0.03610502887868972,0.022190608389236782,0.15960267207029133,-0.0324216029815179,-0.028949512715369784,0.06671741056637771,-0.2170206983306898,0.19428313374548745,0.13114469762231754,0.02808869391241489,-0.17620984922428987,0.01614231589087034,0.06889945275870177,-0.0392117410485139,0.16105694448520705,-0.07594722575329002,0.09010695912036071,-0.20913014214791242,0.01476749401117415,-0.13161424224044704,-0.1433672603215535,0.025088376983960877,-0.18363536304827535,-0.21633875428130273,-0.06999224575440269,0.01226112928556873,-0.08593345625317432,-0.19443461472759613,-0.11858625403654668,-0.03829445159550219,0.05454280649108273,-0.052154373998733176,-0.037766014922170486,0.08983034190870175,0.0022597021572686488,-0.1166524412712356,-0.03799166066926392,-0.24443244584752943,-0.07681020333130731,0.18512999276727857,-0.28586451990203604,0.1439763102648271,-0.05390147360739214,0.01944906621950452,0.10925904381574397,-0.02008465916888118,-0.22455225238726498,-0.07193241495050323
-0.15540144598178018,-0.2853252685706588,-0.4616703542434023,0.20597969424103088,0.6014883433828703,-0.020810995795006056,0.024251484834980023,-0.03904227262928249,0.022620229089551122,0.18970126796275835,-0.007072091253112716,-0.10085897642828183,-0.1344684208116596,-0.010345789369857451,0.06095566976685691,-0.05225523294372476,-0.08683489517741767,0.08944289394842161,0.014162669834660628,0.14504859665122766,0.1156623519197689,-0.13540855483510242,-0.05530521302395141,-0.06841419055069907,-0.009325860346796116,-0.2803096283184912,0.005111196710574284,-0.08085465202453815,0.07261836553705643,0.052494391916635054,-0.054847618276337794,0.0013399064075720927,-0.04640900666106602,0.03562126300562202,-0.07696391344180162,0.0875361310095526,0.08912919602685662,-0.0477789442673877,0.08541999792673151,-0.08946647301652075,-0.017950556610421328,-0.0006055689883313009,-0.05045468274617791,-0.16078856952521983,0.1280518867811067,0.046525511322324735,0.0485123146945271,-0.038329435595978276,0.09254866768668096,0.03939697030592061,-0.04104038597309478,-0.1114064529751194,0.029960547527253457,-0.013215460433218392,-0.06477379774345224,0.06414205641573271,-0.11428408953079093,-0.04748032160856266,0.016858075570489402,0.04570761521004418,0.013114616560598953,-0.04312768376311355,0.018507992325992005,-0.14960840391607577
-0.015777804339691615,-0.6213172713290966,0.5152567812333768,0.25959686274890426,-0.3134006175566513,0.3269395541518595,0.02335652968747959,0.05978925115393284,-0.08705715860321067,0.010832451379052093,-0.07860893584926759,-0.07547596781445642,-0.10049013510373306,0.044239693211984364,0.04806794564712945,-0.0820133947672507,-0.10081067038043606,-0.06198974658104692,0.15021494647087108,0.01468104646906783,-0.04872183316837749,0.04607634953121547,0.03910658949449598,-0.03256445300520484,0.029708719879968523,0.0121543308939095,-0.00834042932253174,0.1837587858406565,-0.05801972621135822,-0.042338172217896396,0.054219556646602704,0.15038738806414192,0.02424108955217257,-0.04697122707746897,-0.013449810978991344,-0.0165253759565545,-0.04535830293755909,-0.09402482540257087,0.02873536704555079,-0.02839213805468168,-0.1302545136592092,-0.011468938209715842,-0.035918730506568505,0.11983784082784277,-0.22669662416640657,0.120621189182587,-0.03537682379154317,-0.03014033073436851,-0.03145421505636059,0.09821074578621757,-0.007305291829135334,-0.053824449097518864,-0.09305194245077857,0.018324216187984844,-0.005592303478348853,-0.18083468739042194,0.05159863951380073,-0.010272719138163876,0.05988884685070281,0.10603064942286362,-0.07403822961423813,-0.23892885201280045,-0.009346140977422087,-0.012842010832889623
0.01625088471910179,0.47896544837051913,-0.0613433820774126,0.16584174343463268,-0.04876198960513889,-0.3462407449286215,0.02160288529457419,0.018656692427171467,-0.056066816312399174,0.09583381677239673,-0.0850896111702733,-0.12388501445456047,0.10703507206677865,0.05745211662270001,0.08993695108836401,0.051397476780331006,0.0012380286700684879,0.0953599314689186,-0.06323451152426131,-0.23425555214385854,-0.05732490915747687,0.0807502941625501,-0.00916952580458702,0.015834399862743792,-0.0022306307776948737,0.07616608030585122,-0.07333743283513,0.040057274246706055,0.008976364917049883,-0.07850653999642086,0.08493182085061803,-0.09352891401112663,-0.14698888854015013,-0.09927902590862908,-0.13561185150273125,-0.04163286323605587,0.045538963018723316,-0.02951429531747181,0.1501585755084924,0.14110712060417044,0.11831421054595638,0.001926436780532453,-0.025315586081128306,0.01505832880246243,-0.04216988085169158,0.04457442550511659,-0.02010392352298985,-0.19406504502761082,-0.00916147226261474,-0.039978856806616024,0.09236687608919117,0.10657621467159673,-0.15649222578784722,-0.002457549458263885,-0.05766192038520192,-0.03310973875158272,-0.08423580085687185,-0.14990488698939464,-0.12861372141168767,-0.06312922499875315,0.1208946900828181,0.02963004209938491,-0.11624916783240218,0.007722823205974028
-0.0484915840808356,-0.0702524953758673,-0.5658638942908938,-0.024539198026059462,0.6431128121102305,0.23834029950473173,-0.10952091439716757,0.07045635938103643,-0.028049151349827314,0.08597283699531252,-0.07982906734569051,0.020286733066588635,-0.027959939868461483,-0.24317138177694875,-0.015927818821800915,-0.0017319915319634898,0.006775104066240228,-0.100935614384527,0.22551150654803487,-0.07973346244475733,-0.03820660762725728,-0.0652648095209202,-0.042982344298797825,0.06629987880268816,0.020015402388887018,-0.0006578050970494918,-0.2013760917381884,0.0957666254509764,-0.17472696367845802,-0.08760281215365925,-0.1279587765362703,0.08350002117913746,-0.14106507421080458,0.10106992274291232,-0.18943116761170645,0.08080133636866738,0.17609683359039133,-0.08858423962318489,-0.05896924101355739,-0.0015821387124264543,0.02529062590593419,-0.037987916180488475,-0.059862133507256124,-0.10659562688229872,-0.018249677242732482,0.003050440582789211,0.10040691505326327,0.011316574659508414,-0.05474499097471738,0.058103840953417904,0.06116524827905386,0.10471325357510465,-0.06751197792607817,0.026078758982386634,0.23918720760571688,-0.016663864893556347,-0.05585631672344619,0.1426007402129305,0.008964112811970758,-0.10396811667317511,0.008161505850048798,-0.0033790047284469383,0.0020551174751247143,0.026451042247513018
-0.009843124463812346,-0.18794981443555048,0.7442309489928199,-0.12461662081070174,-0.13454292865936338,-0.4218520060715053,-0.14144748433308715,0.1427432345423147,0.22129305400304616,0.11791161975591075,-0.06255601859060761,0.11955901085055685,-0.06154667469163597,0.08483170019415413,-0.08110986210503968,0.05168626204900663,0.05661360773232084,-0.009253912913793792,-0.21962624071545922,-0.04682654084489661,0.0455659579237298,0.12231224435307717,-0.005160742444133122,-0.002909232993485935,-0.07629974981648495,0.014888749882585681,0.16286869208177124,0.07869317649009888,0.05435637205743695,-0.04672160796570458,-0.10934089555707976,-0.0034450116383039197,-0.08479551414458765,0.2217039133245107,0.010271584782699994,-0.25664152416700176,0.12692735362040364,-0.00955317712192554,-0.08608606612509956,0.01009643396209772,0.05258534646621355,-0.0021952940493232863,0.11519221164873836,0.03918136438800786,0.049429775255319434,0.12189364626737036,0.019508617336175624,0.09729014396078146,-0.04267606315772721,-0.05881276676037158,-0.09114023713487449,0.08045849020182014,-0.007451104565113624,-0.020528425566571036,0.20057767757607348,0.008180755448432274,0.03687681926620193,0.0016554914384168252,0.0785704985621688,-0.043419546404223686,-0.03109001048835217,0.08178533477816365,-0.04291540274476254,0.037332892603213465
-0.16764260610120066,0.811366088950686,0.60828189517179,0.9616402704049631,0.8556430537567629,0.16351836692923033,0.007303062774493006,-0.023877028299623914,0.026316156313692402,-0.10720385298409646,0.032332062979484225,-0.23296610724815672,0.004305341142049221,-0.22240957261558805,-0.16711473162983798,-0.050345631549378905,0.10736821015681626,0.02742537054853816,-0.08971296194926968,-0.10635697254473615,-0.07886007157866053,-0.17725050722915855,-0.0986198999382605,-0.10279140423619665,-0.1795338231786443,-0.050618651442735176,-0.005645442080240321,-0.09853213800248425,-0.005449029215374587,0.004159777763302411,0.01109831429946386,0.03268847611286173,-0.11853717268844785,-0.15674295618427747,-0.20646580780117335,-0.039133981014452986,0.005754017733210179,-0.15885401863762127,-0.06963087251455989,-0.08210467206648263,-0.03044059734927473,-0.028180792222482706,-0.053250077080060534,-0.1916181758656293,-0.15027232673051977,-0.12013249442273707,-0.044561140340181354,0.0739441035967611,-0.14264242631315652,-0.14565279884537344,-0.0675412261352988,-0.08547166557356271,-0.09166886292001741,-0.07629450628639131,-0.17158538225723835,0.08044015578934839,0.07976524639871159,0.017404024449675787,-0.023917919317892958,-0.0007448387008957625,-0.052807265715528344,-0.029223113092228116,-0.21779453826295747,-0.14574365801589445
-0.06449517313238194,-0.41272838450297267,0.04026804158528392,0.8136339677478184,-0.10250616936303765,0.08205006546653713,-0.07650446016832035,0.10339187533138015,0.050327128796070125,0.07822591075581162,0.025063435692174195,-0.06649336030204009,-0.003633732997759895,-0.02994344806066627,-0.010447947083313895,0.18710371265134884,-0.03480066659988529,0.04835687959307391,0.06442588810582277,0.12037139739267401,-0.11080454191056116,-0.09909922469385084,0.030313071344513894,-0.01693490850074559,0.14974098056467042,0.04818816069052535,-0.024800688336908256,-0.008654928575082346,-0.1872118510529957,0.033766745679045924,0.03808345257065686,-0.12365402137054314,-0.010346153292415903,-0.10618407088392091,0.1592220985702052,0.11995028686435191,0.29242208369286793,0.0579253897512907,-0.12019535052954626,-0.16904273618736573,-0.11388632356718209,0.0656537441387396,-0.07969628070349755,0.11634719462169263,-0.0058953805813993405,0.028027392281894027,0.03567229081418127,-0.10381604927689882,0.06938391280096252,-0.08388198263120325,-0.27349933161722695,0.09852773056612307,-0.00215298493689735,-0.10398916839359587,0.005976537717642359,0.1654777474921525,0.01677039768519761,-0.10570539977195167,-0.008968171249525555,0.027751917406905524,-0.1324796239723201,0.054733808691633495,-0.005094644407355769,0.11553522810907524
0.05545860404743537,-0.10690571376800712,0.9527726403200732,0.0322540670725121,-0.13349036532223243,0.011707742551917304,0.12491538759521857,0.04113570276069434,-0.24492530676582278,-0.021779942811602507,-0.027587401349461884,0.03812959802362314,0.07201179107014191,0.01805770165500429,-0.19020187418536946,0.031687213215763226,-0.02197278194603825,0.009366799575031337,-0.06750970245965739,-0.08946012830980479,-0.0695470612663969,-0.23125934232374623,0.10080708947620197,-0.036418366600192625,0.10547643902893467,0.13581190060357992,-0.08055369577555768,-0.13119826473240306,-0.18229860840490564,-0.148161307755997,-0.2573589352925909,0.09743340301602134,-0.045929364125576154,-0.16519917757501823,-0.1537395777849414,-0.01955400371581938,0.1449899062222826,-0.07107792688649119,0.07509976722244283,0.16757188525239966,-0.025550443092104802,-0.11691238843865343,0.08082614765542392,-0.1332824005745572,-0.040867677489479455,0.010422648909595747,-0.07738953355317803,-0.03761007781777234,-0.04414109880435103,-0.06663231609387328,0.056448088161609275,-0.1501723885906544,0.0220032684999078,-0.010049033948116739,0.09332674637968212,-0.04131836819651351,0.010087281750824897,-0.0884839285714818,-0.048087769056978966,-0.019911187531525702,0.16587017258795209,0.09562828570347033,0.07803640737904934,0.08645485726139893
0.1601958334980737,-1.198752901602411,0.5596713856409082,0.5598219159337962,0.6338865635231558,0.4729423119063716,0.03454444585378721,-0.11789947553298456,0.003950126965581539,0.08633181458202122,0.0008157753958022781,0.04468629294659642,0.15726641853304482,0.06782428449747677,-0.05470979685393483,0.02254179544776022,-0.00853269962949239,-0.09182121127549119,0.08463927321974207,-0.027997315342621544,-0.07396557341966123,0.03474775927718834,-0.03727132806295739,-0.07397227612985843,0.1044124857805158,0.10393967292058946,0.07334382383430356,0.10966522523091762,-0.04371986780245645,0.07475597475745259,-0.043297012693576525,0.012151564392332429,-0.01186841971680727,-0.07291139516023477,-0.1288352995657898,-0.12363036353249202,-0.13376332745453925,0.01715106366012359,-0.21368584423672993,-0.07848671901038383,-0.018002858458723354,-0.0033988695098845,0.03034563402133267,-0.10052236694932766,-0.10515613375099246,0.03611737687449522,0.08096192319075644,-0.03325056492777477,-0.0325141206269367,0.0555372204805399,-0.17192394634665212,0.027136856970815137,-0.12569890242094686,-0.02929067638093058,-0.07423698943553585,-0.1585923059568205,-0.008964437672589002,-0.04544657934036428,0.06158979998010101,0.012008499464819817,0.06864358815901055,0.0703988212341404,-0.033892317398431834,-0.16929003065026893
-0.12015920257616874,-0.5238638044650075,-0.14579577097159785,1.166237189579634,-0.26160362229502276,-0.21083766540186868,0.04620031773154392,-0.015479126760253972,-0.05449038093193983,0.007074140589039336,-0.16610258326813132,-0.09127977164238296,-0.03303336126938292,-0.023184397518401807,0.03956349519378289,0.03321747140897063,-0.08458081236168763,0.1386177496172878,-0.033557182952468526,-0.046242262339095626,-0.06372179575754534,-0.07421577768777572,0.13111319427912413,0.09678535809301216,0.0078283062790506,0.029947655407992473,0.08105748218154447,0.07076348517456851,0.045826273459257716,-0.03902743910298485,-0.023849275128032366,0.07081780035360451,0.007041947980642226,0.028078667497284254,-0.13891523544991188,-0.04897267785291045,-0.01657523837800185,0.030169211534300463,0.04390885671502346,-0.15263229377090934,-0.08338898826214051,0.11735990673242752,-0.1411178769671429,-0.08556165206050606,-0.10429877703723184,-0.13525195378463784,-0.19895124955071297,-0.04463418673600345,-0.1449141762283785,-0.1567603613895356,0.013368437821873566,-0.05894561949654215,0.0667733555102748,-0.02976244799375363,0.12852731118748895,0.022233295498345997,0.16833281238966416,0.14789789441181647,0.00638776258506798,0.0383876782463946,0.03977202754902135,-0.05690277416824453,0.10467443051472845,0.04630044897738148
-0.16628640027924227,0.8303032089933572,0.5324068718874,-0.04801721560098255,0.3808096450318416,0.35150939326523806,-0.18946819273725912,-0.20529125581384775,-0.007385968459262059,-0.044565723199298836,0.024649133762129898,0.12943033346794686,0.12564896964733613,0.11108992299950236,0.005015673494449652,-0.14405678519727183,-0.16566261505426613,-0.16594787858010018,0.10100159110189853,-0.06392602725824588,0.07487661400753565,0.10489760708210141,0.12650689985254127,0.07603309002743551,-0.11367112003030737,0.04797307423456758,0.09287132258447413,-0.0443716560437509,-0.06731165185293596,0.0730129750811934,-0.16621445805968849,0.06743359618440863,-0.07485665745547673,-0.06633619688602786,-0.03641337617207601,-0.0074059954897749,-0.01708320015513134,0.06723373603074916,0.03809561834740906,-0.012529635359301718,-0.15486605527022013,-0.03169683674272367,0.10109554287667485,-0.07133329591469467,-0.14687266908577826,-0.12238544999439673,0.03454661965587582,-0.07470436897233021,-0.1965669721057776,0.003638006416774862,-0.07003169010758924,-0.035079571940454184,0.09908165752725766,0.06979360445070382,-0.049423534762731265,-0.058161922585288045,-0.18062791190108363,-0.055879292732998846,0.09868462281463747,-0.0035442995092747043,-0.03355947156268449,-0.13373819333646225,0.04299578088238973,-0.018953671298989696
0.02368926347287824,0.6139675245630114,-0.4196561223426505,0.35252657450800917,-0.1100228278330955,-0.39693095669242257,-0.04866280026825786,-0.07687514322726424,-0.15149054058895528,-0.016166016299662044,-0.003047864922722036,0.07294593689123285,0.03332569083229539,-0.006076389735133476,-0.10647170391505328,-0.009815676013687909,-0.024714823631288654,0.06382690653855479,0.11848849058088785,-0.069887434866461,-0.09491971355470827,-0.06197600066412048,-0.05998711916805615,0.1103875620828811,0.13321538659832863,-0.0639657875764138,0.09704531998020771,0.07489077741008456,-0.09493530320420035,-0.1107864148641921,-0.08035740830447739,-0.032570977909265,0.10812938482570468,-0.07229915088294545,-0.061276184928154086,0.028611909301026948,0.13973293032862688,0.04253212335757601,-0.025055593625927672,-0.054673765592241644,0.007675927910797744,-0.17874034508524633,0.004873805902374957,-0.09805399447390299,-0.04753503643955186,-0.15637379254274678,-0.03711009626320324,-0.026224870063323066,-0.14292340787631921,-0.19164870712294702,0.021986329869244585,-0.11512967333426126,-0.19329729651762245,-0.03960806481450115,-0.09501532970944444,0.003825151339883715,-0.10357056153580768,0.09562324550372783,-0.11594230775403894,0.09853855923716269,-0.06941735230580078,-0.017699261976735776,0.11497100025069522,-0.13679880166208827
-0.1273383815598863,0.5371067524743466,0.5059348094691234,0.4375378865755594,-0.0639871614858899,0.821846980165744,-0.07148251435236676,-0.2079466344315009,-0.0509044808832435,0.0330099561046708,0.06064008978249628,-0.15513667954669044,-0.07465007815090276,-0.11626288197801442,-0.024090554055650776,-0.07398803565562231,-0.19860834936505198,0.05515557668412446,-0.10836166928716387,-0.1454596186927961,0.0513012817172232,-0.05649485062210838,-0.021710816557840018,-0.055616104602271614,0.04665997407447613,-0.07809349434656099,0.011538650595894196,0.09527893784087237,-0.1491636455305739,-0.07638959651351447,-0.01447225033301388,0.05511968223878212,-0.19745410297359783,0.0026794564372700233,-0.25442185399089123,-0.0051279259424803275,-0.0198540275247464,0.07363455558502566,-0.14727889626750112,-0.03755646797294906,-0.17826262330924958,-0.041281760643990646,0.047900668500687284,-0.09074710514272354,-0.005178948779054349,-0.03237713124722373,-0.044746265541471535,0.1273128040992948,-0.15337007563686858,-0.026870776360980182,0.0003989704850516172,-0.21089491613865657,-0.06989527768270487,-0.008430604037190544,-0.07670929270336686,-0.037562903207200155,-0.06980058478782401,0.05618036959191215,0.12456613858400417,-0.19145574496129272,-0.1354365384957582,0.059398842269889354,0.1385524373717607,-0.19370425107802383
-0.0547002023314135,0.5446469693593549,0.5734154621730302,-0.9798168311653189,0.013518142523523898,0.806366213446524,-0.03325866285410867,-0.08142007855492792,0.19316553855151036,0.10916818578430622,0.011924451989129198,0.04076146711184263,-0.15003935797821835,0.008063609833215215,-0.0662888007977077,-0.07787222633231329,0.0417936852508201,-0.02027925823823723,-0.16761132170131646,0.08512997577157728,0.035336675915190456,-0.06132341597438145,-0.019482030950864662,-0.090678770618035,0.014109792797292247,-0.15279555095292008,-0.033406953041429516,-0.22781225453078252,0.019935752862996668,-0.1151778887483939,-0.27479978711736713,0.09738005401721761,-0.1120773051718386,-0.12017566007416054,0.11676410942019437,0.042024806042579625,-0.1605719582641978,-0.12527209088863953,-0.08793580099297184,0.029364859310919488,-0.10468645444887995,0.004012639751491893,-0.01757179977364251,0.16237396666212336,0.005434195903707252,-0.035367267392289715,-0.06441381866540093,0.022644289947754904,-0.08103433380621268,-0.11285656198094168,-0.03187886875692238,0.22813840253353163,-0.08217750343842313,0.044387059018511865,-0.060259381404289686,0.1084977503793577,0.10592645735444456,0.05880755980881955,0.05345649875930206,-0.016086546882477144,-0.02682275134197453,0.012779840030620413,0.09369426132090133,0.022288919757239938
-0.09129163412600927,1.1578697730375374,-0.24670965759407493,-0.25160879809026293,-0.14703650267536444,0.01920013526701208,0.013823365632799471,-0.03356176644302764,0.07953624905843654,-0.07480823440615018,0.09324990956317097,-0.026123879531671584,0.015509196333055652,0.0384322671134299,0.029170524873875725,0.056045245978197475,0.1270777301177261,0.012148157845048491,0.007100571452680284,-0.05745205833288036,0.05841971164883773,-0.10190426357123362,0.16722643694149913,0.11626483418544588,-0.19250329084017356,0.1029987197763942,0.02414018819946616,0.023158239833646822,-0.11111381076292932,-0.029762908407417108,0.16856180743720953,-0.20321630000699234,0.02317485334809037,-0.11159783671139323,0.09506824600009407,-0.03456762526265953,0.03543388313675595,-0.006250098311478862,-0.06192675959941246,0.3048454751935265,0.12854235016964327,-0.11683291343717402,-0.0640272882323244,-0.017062858592097312,-0.08270938839057057,-0.19786010033130522,0.04224658284273937,-0.01095014804517938,0.223747308899522,0.01631063546299628,0.052458516857528566,0.07738456627062139,-0.06911101637429407,0.15354849208134722,-0.10296771828341264,-0.13506743511732772,-0.008624410943871305,0.21408787229513712,-0.07846647232027808,-0.10079530683662989,0.16412289188612592,-0.023293414707486613,-0.17277180007541504,-0.0456093475603033
-0.03368259217540352,0.5418331103446357,0.7571570950419783,1.1373854603339228,0.8558063140358052,0.25203190562258265,-0.15162464467545192,-0.06019416531933229,-0.07007407271555162,-0.04200806547526884,0.007564370076890887,-0.10018129639435583,0.017300795841517242,0.01826466818338752,-0.00020698318020128775,-0.15895818296090447,-0.10882467336024315,0.03984712119703639,-0.25366209659308153,-0.013820018242644722,-0.07081049114428319,-0.18701651489650054,-0.026187495335204196,-0.10420988563966001,-0.23549266197793622,-0.14829998933359026,-0.028392454991554236,-0.054856545049335445,-0.009830802073889448,0.048745334664610715,-0.20694702792122602,-0.021401109186426303,-0.012537476300943791,-0.15115203453767867,0.0010861289998265833,0.06121285938956687,-0.19168404656124696,-0.13433589682250152,-0.1493518580510214,-0.2707492040075631,0.12234876807770392,-0.055158446862894686,-0.07906466261601702,0.1295228596163548,0.08109167292903259,0.03473913546913409,0.027619725566847268,-0.1838197183833271,0.0040389738340192854,-0.0808545599319114,-0.07046373340419114,0.037559708487026486,-0.1234805875288679,0.013929254254529923,-0.0664728579143456,-0.03489882100261319,-0.12165863616775299,-0.06705583474010132,-0.08345675628115753,-0.21441996702631624,0.030110103594686386,-0.04930127669165801,-0.07480998584447048,-0.18917289872095702
-0.21644898175624577,0.11107737055207785,-0.0753407206324787,0.8038500835516631,-0.5826260904097147,0.3268159514406561,0.19962353219960205,0.0403859445425563,0.08799038624497497,-0.031910377579511894,-0.0015909055847355181,0.10189171821093362,-0.15694212343893288,0.014927148806911017,0.16187700855168496,0.13426206069591978,0.017346073636096127,0.06562923446917193,-0.036835089208337446,0.00593221468106738,0.028737347799788936,-0.13191856806894836,-0.14314920608275217,0.06759479891227228,0.014822047686057322,0.04574264121722078,-0.10367345240132854,-0.11937730094218033,-0.06340216569410945,0.024051280738927906,-0.07354411633316862,0.07880370756439173,0.10642297745798687,-0.07460638855019495,0.03776250928548858,-0.06911800136535123,-0.05214886225172501,-0.13080169801134026,0.05579838343908593,-0.12459115375034534,0.07979865952184337,0.044887403977761975,0.024165829264564828,0.08238824147597322,-0.08821884326003687,-0.01564555833198586,0.04894933444282607,-0.2080874829729635,0.004149665738566903,-0.15239648422616286,-0.1740781168017696,0.07768317802624417,0.008585187008848326,0.03969730956538367,-0.039444269649315765,-0.1685590945728737,-0.14962938381108762,0.07905912469895755,0.10000098991137932,-0.021051321236248016,-0.02156053733562306,0.06285989640044316,-0.01736501003663549,0.024296558466453892
-0.024159224654328355,0.29239417756981767,-0.41829149706292607,0.08060443686184898,0.10174079416298594,-0.07956803433858184,0.05900545133518108,0.12097828548844478,0.03028405904945803,0.19806520783186798,-0.002364108624395126,0.17797280403271346,0.04725865583400238,-0.2556148293058783,0.035752831943462696,0.08160187007043601,0.14257630559498244,0.032081510569357936,0.07482716207687821,-0.049508111196764376,0.12313821812241525,-0.02118626816485069,-0.040918474174133,0.006990995242851598,-0.07356652690496412,-0.1977476878039272,0.008061538464566665,-0.17231104659248814,-0.13706203297857608,0.030706002164589352,-0.18359780862675243,-0.08823272531181267,-0.1197683952209142,0.04713522386458814,0.02150223969553368,-0.06595691510586103,0.19183564499982622,0.000508864812417676,-0.05361750479056872,-0.07745300674762212,-0.07088485696703051,0.03370233353937426,0.07577708410816195,0.04729056320278675,0.0396956107513562,-0.02319395709273849,-0.2525549642817452,0.010384751664285905,-0.030511128467899152,-0.024026055655628674,-0.060585264648755306,-0.057727375231483836,0.16454021618756146,0.1059045813614866,-0.08192726552985649,-0.051838553139976366,-0.05183403147966747,-0.11460540069169525,-0.07688622867300215,-0.1135386156406625,0.023805668408358748,-0.1049362891100438,-0.013244036699417542,-0.20342645822206468
-0.1535220472562611,0.7625701017250777,1.0562123999380322,1.0934023945452491,1.0572901669024617,-0.19198597189642014,0.0831660917825469,-0.08233303269389328,-0.2630262143425056,0.002639611903707983,0.007791492999895438,-0.23416979635691323,-0.0880440804659743,-0.16654581049377273,-0.04996935121922548,0.025760728724230644,0.042213531193307834,-0.04489581224843116,-0.015377019948351807,-0.11011959686571948,-0.1368878191366644,-0.04794757959621736,-0.040609227677865505,-0.014188766860714604,-0.05267445536820369,0.03838040976122286,-0.020759759415775507,-0.13378149032956171,-0.12711095125070193,0.02504723906653262,-0.033174782282706955,-0.10584707342523769,0.03440641738105654,-0.17322506736643245,-0.20781570151084192,0.001207226207175924,0.022160094637844394,-0.24437075043561982,-0.056246753987652505,-0.024447198157777638,-0.25456495393103223,0.00415490393253885,-0.037715571550951475,-0.012234741112492568,-0.09164459250932816,-0.14918776797197283,-0.1497951953316042,-0.08027367944330126,-0.11344332017910519,0.06600230266597525,-0.11168894476649248,-0.03898088972610446,-0.20328423561406567,-0.08044330466394682,-0.13847192151994145,-0.016783433257242415,-0.11215698814506907,-0.06078169294577973,-0.1093323114430831,-0.09048242816089729,-0.06914467088508137,-0.041364699843757416,-0.009926780497958225,-0.1436673733981372
-0.09235654561265601,-0.11201302301641929,0.04955276429951435,-0.4717399479416996,0.8828014626219809,0.08415575419590354,-0.006287266430130331,-0.0009629931949670458,0.1425090460982508,0.06048626773009429,0.09552393622623376,0.0029624433483545027,-0.1270522634598549,0.07787790953293823,-0.04381343831205689,-0.0012368407440147223,-0.10125730510219923,0.027886106117165087,0.017006970539332963,-0.1649400255770244,0.005386506665328901,0.02270211123343495,0.01020587435119055,0.11780513348587282,-0.014301352146532909,0.1673212640295285,-0.015572956867344896,0.10337998568605468,0.0837257040088697,-0.09654691543759338,-0.04295238720028784,0.008658488210069244,-0.04507051992218299,-0.20348795851282447,-0.07864948569624879,-0.03748704534124449,0.05090434934592337,-0.003363910033216881,-0.12726684494932802,0.042931805550038005,0.1534964759508876,-0.04658386934857545,-0.0564556255376383,-0.1045494318625266,0.054349110225134944,0.08931697322842644,-0.11987452449420946,-0.054572412575165416,-0.012863783603792362,0.016245595335774646,-0.10933671898847488,-0.04380786386018761,-0.020166085754351425,0.13566074005229478,0.04892350826361165,0.09425744435691812,-0.033980247319245364,0.03877791420632581,0.017495595685141977,-0.2103501940063966,0.16564503356334118,0.1810458094197622,0.09014666782601033,0.03524039410650466
-0.1215274821441332,-0.08289357841521866,-0.2340685070979353,0.27419598888046937,-0.12717626193732937,0.030562743733355647,-0.10270022434597631,-0.09479072578877785,-0.11071466460072764,-0.08170525350100556,0.003216811020247851,0.17563797443216342,0.04795907088061246,-0.1605698195031628,-0.06217987392163205,-0.02575160641545158,0.04049244697605427,0.06540706962798852,0.20135677301551685,-0.15966765662837346,0.14651668638956628,-0.10767110053810401,0.08284372633379294,0.0704630986065857,0.027490508174072135,0.0895774313397191,-0.15361341227763894,0.026822388599695542,0.0879329929994548,0.1075306823164654,0.06805217857118137,0.17590774911021068,0.08692686614166759,-0.09706518018455575,0.004117688597236605,0.07534461492801897,-0.08972562951788676,0.04324976134196971,0.022667656507108874,0.05052209244227864,-0.00354781651763463,0.061719696513572085,-0.13811107243208504,-0.03747720722198021,0.07466543472913074,-0.001688172242175496,-0.029503147368244005,-0.09050291869881477,-0.018984041610325332,-0.17756437276664688,0.06709353970440728,-0.059883970843967536,-0.08699509087806463,0.004858803896541895,0.15337680670211915,0.11486569732497447,0.10297456430999566,-0.1287417298866113,-0.007984805216856265,-0.09381262156709011,0.05762132859510957,-0.008502247194153705,0.0015782819762687457,-0.03141512518160399
-0.06320967037752463,-0.12996627580909464,0.1006823993717488,0.23401762633987283,0.13385006040140093,-0.034229230195617556,0.00793255653045056,-0.029287699747702133,-0.019284933087008467,-0.12609686136489975,0.012986962907406543,-0.2069283388311621,0.17097881999537656,-0.1439866793543898,-0.10305410153482755,0.12357135783083036,0.08328765314540994,-0.04838508994381387,-0.13223261637168465,-0.03206302556616842,0.07696606996563175,-0.12182245681887988,0.004656442273133732,-0.15329700834694554,-0.1220003824181576,0.0462950805093884,-0.049780586713931305,0.06367823252361893,-0.023849001245573858,-0.2187145843012866,-0.05546388650138785,0.11794613083167815,0.11750629017772996,0.1010364249573745,0.18858711164915526,-0.06425374268113594,-0.18929518481152205,0.11941071287761151,0.1273447302666035,0.0462492786759088,-0.15309982630611443,-0.006682985369076502,-0.06877234578906483,-0.09031962949267433,-0.08242319320412016,0.00339230858169761,0.007232285041573265,-0.05455969855694114,-0.1095639013308377,-0.028349929987300435,0.06578881777981274,-0.08200129160575523,0.02315139198970454,0.2791099370381447,-0.1101767802411519,-0.09277564613571398,-0.07620848448719943,-0.07207058297784255,-0.1421226709782111,0.01168560977241357,-0.0284380056066247,0.008420167470015612,-0.014170426645239527,-0.05306151419033931
-0.05953806128085048,0.9528775176639409,0.8299821146334506,0.3288650931651177,-0.0863731036328723,-0.21223650688969828,0.165887186734149,-0.09974546498618124,0.1603406240527483,0.09442156973651887,0.016192779596364348,0.0582041531684335,-0.029597652559037742,0.03213227554277958,-0.08355413206026335,0.023233313330638307,-0.1693163000262683,-0.11441015590629561,0.1062772145231278,0.047618475323028306,0.03652412367940144,-0.004407314035858243,-0.05448896321172962,-0.03807578416028612,-0.024288464214044514,-0.14757477959494522,0.06909443833116223,-0.011871786193018622,-0.031574511496325564,-0.11726745446929071,0.0064231168514705,-0.04679706027682037,-0.005247746322773386,-0.16364766749604284,-0.11918366194091261,0.10203550312557665,0.014478835208374249,-0.049293461399693164,-0.1124900223448104,-0.0661566006717832,-0.12073076708934015,-0.024078145737172228,-0.02084659747789799,-0.1425299843851232,-0.056894838142152036,-0.013607820601562376,0.00029565323227770304,0.009622261984797278,0.03478522587900192,-0.11020901613162899,0.030906037297663804,0.054872656549424165,-0.14795514120989464,0.0974368816718865,-0.06466675213618171,-0.0332338576902536,0.06986002328105809,0.1462032354933951,0.02677911649456177,0.06325535698781959,0.08768624891375991,-0.0338998191127899,-0.04677446457874987,0.008197676360072117
-0.0910268957055134,0.44412354843998475,-0.204704977884149,-0.12253407657245835,0.6633547983023794,-0.00816116489826978,-0.06889925498380758,0.03632404404667385,0.1899874265794918,-0.07847579225646621,0.035519724713959464,0.013968546224688435,0.0033935110849367114,-0.050490503036378594,-0.14351670912078998,-0.07710110621486507,-0.03638921538106843,-0.0764059313871684,-0.015930526081457546,-0.00399452301571094,-0.24139509259860512,-0.04208264625104231,0.05844913067362758,0.048982754986105576,-0.04615716545256422,-0.00021483527877628228,-0.1416944864258107,-0.21841479424019056,-0.017623757828673186,-0.025987217316576494,0.1356813703751506,-0.07419698710973835,-0.0963384738948403,0.0557449275823047,0.021754875133491877,-0.1100275920084658,0.06285631546463047,-0.057553706778550096,0.12292723902057558,-0.026431861409535302,0.12211810036884424,-0.13607863028669373,-0.18484373416334754,0.08649726072140841,-0.11129635830774716,0.05288404009899942,-0.08673605012212311,-0.05466780232571872,0.0831830651199599,0.05984659062640115,-0.03732236187298789,-0.060861290613072494,0.02243082800270769,-0.025361051609069547,-0.03241406485140197,-0.12429382862354393,-0.025987582349140538,-0.037810526646290275,-0.004094210640753977,-0.11802795871431149,0.03613120302643416,0.030962762693871056,-0.08407972396621072,0.07102118862570175
0.22020355392569718,0.3230243263619504,0.006479730318958015,0.7495052210706409,0.35188194246998095,-0.2227043426635899,0.0993831422065043,-0.06306931476020772,-0.12257921246885425,-0.03674447010492704,0.1339406727620442,0.10266724609316803,0.11983012480378223,0.17397938475990044,-0.008476962455030029,0.05585446038704702,-0.013771095913980605,-0.008328921639936423,-0.08650857918750669,-0.1199817120946798,-0.14082574526054603,0.012423196521229888,0.18673366284297657,-0.10979985345621548,0.09956824215267503,-0.07545581989311699,-0.10546541029693439,-0.16460520645486462,-0.06710952063927517,-0.08325380254407413,-0.028802892654175166,0.009604095803487787,0.0026808466857096,-0.04512172787634039,0.015026041452880374,-0.09012872853483622,-0.1299214679834536,-0.041974845488548004,-0.0740633548071625,-0.11761192782069087,0.21932241022943466,-0.10698194725267837,-0.0890311310711154,-0.03603727735980941,0.06223833307841298,-0.04246133584216046,0.04258452635336412,0.00875197402740672,0.07451307859237616,0.029094370670302825,0.15282487156391858,0.17553282209229684,0.15307125191541296,-0.08512104786229889,-0.06962602639064251,0.06029603455510968,-0.14952740024857994,-0.15285545531474642,0.06252108397533132,-0.061705112767613084,0.000218945284651809,0.05152052252219067,0.04383782061260978,-0.08470782278280345
0.13395731776370667,1.180376376775609,0.06796153023150585,-0.35616037394027394,-0.05746359659174485,1.2055250783030824,-0.09066292076023338,-0.14794257696893062,-0.02751041597606865,0.046516758119900165,-0.14202842526312429,0.09179490608279875,-0.04236851194005077,0.014442728593127067,-0.2816475006391128,0.028588897617153997,-0.11407037632427622,0.007346369830324415,0.09850016762336447,-0.06250659538943915,0.008731932062201297,-0.026239186429351195,-0.027783415554695694,0.07420010170257166,-0.054562549628189065,-0.09602064364172479,-0.11861239920743402,0.009885451421394664,-0.0097239500109117,0.049403043280938926,0.046008453880032066,0.12802888184987543,-0.05833671984206256,-0.06851540701449733,-0.06912533757218269,0.08381121580715586,-0.07856816379590113,-0.24924513426679715,0.062098239554682376,-0.03021972369729091,-0.18869339895855358,-0.16196000497080035,-0.0813308628660125,0.0766927644456925,-0.054612199691827686,-0.09632832552760912,0.02403687438047485,0.06152230369833122,-0.061857196344124024,-0.07356230863825274,0.0611495185662403,-0.05389044331303157,0.014553214925492056,0.07630234583450755,0.023179506292966674,0.0006910075150147432,-0.31905767606621094,0.03810595290209258,0.026087282773153725,0.10596736811898237,-0.01067479293727974,-0.085022827149207,-0.18355283426616958,0.1333507802861136
0.06361976646450898,1.5867047669993422,1.5198355785465507,-0.850749499726412,-0.29430228550466864,-0.46995019916885095,0.06958780001214024,-0.10884875444870598,-0.1493540128496784,-0.13242342760848633,-0.17660714590976262,0.18563433269965315,0.0004729894598915939,0.11186850061845852,0.00017521933518408085,-0.06107580962730259,0.038491927558948126,-0.08848958338354705,0.15085715920718107,0.056838828052765286,0.1578420337247101,-0.011754121270145404,0.013488432469721633,-0.010905324121002062,0.07631873891294678,-0.04518177998181947,0.024088784557024116,0.11108505417228638,-0.044663366111233324,0.06870389320023228,0.04330535709568148,-0.047224664381117096,-0.0918677197127146,-0.09766978750248734,-0.06126339523997341,-0.06428313256179263,-0.057784182923691814,-0.1775713466951012,-0.14656368990176025,-0.07788996749262654,-0.002352383303912092,-0.03361083024285239,-0.0963826960557852,0.02136561677142173,0.13696441251174477,-0.03432103882915339,-0.04203958959406079,0.0015499092388553337,0.03427623893519657,-0.09446279542758432,-0.012133063606984455,-0.19781028819024227,-0.024504735465434663,-0.0922333963364367,-0.23407234896444634,0.03989608109180747,-0.12782887800090165,-0.07961647901965742,-0.004231125457882807,-0.055686303065097476,0.004146572438219196,-0.05847188131540315,-0.10447643295751732,-0.1215400931866065
